64 256
-0.033762146 -0.21509968 -0.015240946 -0.29018828 -0.27289623 -0.11788095 0.0022095335 0.12160792 0.33802354 0.014285485 0.1102204 0.22027606 0.4050596 0.23877215 0.064925544 0.17840989 -0.13761988 0.1364159 0.042429723 -0.13615662 -0.2886539 -0.44349274 -0.07441939 -0.21118619 -0.29140732 -0.4676389 -0.21049303 -0.5070103 -0.26951268 -0.16942373 -0.22581121 -0.45615333 0.23579131 -0.20225301 0.22430572 -0.1037228 0.04362251 0.36900148 0.051350392 0.084868856 0.110944495 0.31701288 0.12871808 -0.033528242 0.0892042 0.13729341 0.047223996 -0.1353029 0.1621768 -0.18725027 -0.1177392 0.08041237 0.029175727 -0.085335836 -0.1969684 0.08261094 -0.0017104141 -0.056090865 -0.16599777 -0.020969216 -0.008076369 -0.019117137 -0.35145375 -0.041803155 -0.24909152 -0.008441329 0.10740227 -0.24601194 0.1017364 0.07715943 -0.079790786 0.0074761123 -0.04116547 0.14717473 0.0030562915 -0.07348792 -0.14768827 0.11109647 -0.15944684 -0.090086244 0.22872673 -0.06930531 0.10752071 0.052177697 0.39626154 -0.13358408 0.18902455 0.09944402 0.5217387 -0.30525398 0.04491834 0.27153745 0.17568439 -0.25071567 -0.19609457 0.09060765 -0.009539853 -0.12638316 0.083859175 -0.15440263 -0.30423146 0.39699402 -0.005115563 -0.07517997 -0.15804656 0.12110394 0.09546962 -0.15991423 -0.17575231 -0.21939652 -0.123410515 -0.35990894 0.19535549 0.050852276 -0.19679706 -0.07313431 0.30554676 0.019464357 0.1485264 0.19834852 0.16944745 0.12033396 0.0648384 0.17655127 0.013581677 -0.087996416 0.11229198 0.111293174 0.018948946 -0.13307458 0.015962902 -0.025014156 0.091088265 0.21709004 -0.12706248 0.0016639506 -0.051256165 0.162768 0.14879978 0.0047879675 0.012864706 -0.16908288 -0.061854195 -0.3379562 -0.029104397 -0.14909256 -0.09624411 -0.07075352 -0.17190239 -0.1424046 0.13202362 -0.119736806 -0.028976442 -0.16905002 -0.053250078 -0.029582504 0.28145307 -0.127159 0.13208297 0.09442362 0.29906964 -0.069520116 0.097890116 -0.22341236 0.30096003 -0.10118586 0.050920866 -0.17883863 -0.11301172 0.07613373 -0.26988652 -0.011737279 -0.098018475 0.03420088 -0.11928698 -0.18412726 0.030527977 -0.22110811 -0.13837606 -0.16754694 -0.21747635 0.0023550827 -0.0040523214 -0.15100196 -0.22134402 0.0026653646 -0.10302375 -0.27181754 0.09088514 0.077941604 0.021087442 0.22564514 0.21922483 -0.05979879 -0.20444533 -0.30365503 0.12726247 0.09667657 -0.163687 -0.005009474 -0.017379194 0.13361004 -0.12123176 -0.16133486 -0.000903668 -0.077804334 -0.25209644 -0.09949754 -0.11953203 -0.11986248 -0.16470233 0.085968845 -0.21253122 0.04592798 -0.092979275 -0.060441654 0.20197506 0.19165276 0.39454034 -0.003303582 0.25628808 0.09188272 -0.13512273 0.06807744 -0.08257614 -0.28303063 0.14371528 -0.28427094 0.16738042 -0.11390112 0.47163942 0.25324842 0.20977078 -0.21594937 -0.22806981 0.095345475 -0.23056921 -0.34430656 0.22509974 -0.050704397 0.08814518 -0.29598558 0.05013459 0.30552793 0.1701765 0.18359996 -0.1032322 0.17504306 0.2980761 0.31991637 0.19903535 -0.027916199 -0.37107676 0.07429609 -0.14632602 -0.073388524 
-0.10142808 -0.3137492 -0.24010707 -0.2592545 0.1097335 -0.51649016 -0.077714145 -0.21112628 0.10514186 -0.294841 -0.2919259 -0.22493191 -0.070416726 -0.558571 -0.4236632 -0.29678887 -0.14495474 -0.45706022 -0.28251985 0.062367905 0.40975758 0.29113838 0.09338388 0.25636795 0.03596602 0.16532822 -0.05513703 0.26394975 0.3493992 -0.14348438 0.052874397 0.22661972 0.30384797 -0.18352531 0.11094175 -0.03582392 0.2509033 0.0020913084 0.42381847 -0.045148436 0.058589786 -0.016453438 0.13408436 0.043131404 -0.10598795 -0.23132844 -0.05461411 -0.08421763 -0.25563836 -0.33453 -0.0880696 0.009551278 0.0031389864 0.19788226 0.028727181 0.1571624 -0.20373005 0.25818425 0.49628007 0.07370951 0.29831752 0.1330098 0.2618598 0.37846547 -0.060591977 -0.29662827 0.23680443 -0.17415026 0.23855168 -0.22377184 0.06561812 0.007807438 0.15082584 0.078044996 0.14021553 0.1672935 0.10101408 -0.14794652 -0.14633739 0.14209856 -0.30462712 0.15196864 0.11258992 0.11211951 -0.32922402 -0.17141731 -0.07363706 -0.2447993 -0.16551803 0.028027872 0.13274428 0.054849092 -0.1433997 0.2758474 0.07856055 0.06330302 0.019588657 -0.35684058 0.10596636 -0.13088554 0.04842979 0.042054225 0.031439204 0.07380033 0.10658759 -0.026483756 0.023985768 0.05338319 -0.11839856 -0.10286209 0.042766534 0.11864822 -0.19553702 0.072749086 -0.16132413 -0.01814483 -0.087803125 0.098075725 0.11207568 -0.03846779 0.23860887 -0.07052789 0.083287336 -0.05026036 0.13337573 0.32447118 0.24471478 0.2121392 -0.10128885 0.12915468 0.098616526 0.19614126 -0.059661213 0.0044262535 0.13547254 0.19399421 -0.10191514 0.05180928 0.10602095 0.031438086 -0.2252469 0.0728027 -0.11541472 0.05119941 -0.05239896 0.06500075 0.011647364 -0.1564249 0.1317617 0.07912211 0.072143 -0.020685716 0.1054542 0.12837692 -0.0022700026 -0.047257192 -0.2693423 0.059739087 0.037022814 0.20050903 0.05662254 -0.28785434 0.09023626 0.20098685 -0.29867685 0.0031543085 -0.06671105 -0.039868124 -0.17809169 0.08037886 -0.04391963 -0.17754185 -0.22386475 0.2305361 -0.08719346 0.04163852 0.056655526 0.018144917 0.13361545 -0.051160634 -0.02165713 0.18304859 -0.00079024024 -0.043841 0.06623939 0.04537691 -0.1449087 -0.11309393 -0.07158803 0.0015184181 -0.10234528 -0.10229993 -0.0286587 -0.22108825 0.1331611 0.024522267 -0.0134791555 -0.021134447 0.17816713 -0.1769125 0.010713903 -0.12955345 -0.0033689565 -0.027565751 0.02708778 -0.027324302 -0.12508105 -0.075320974 -0.11345939 0.13301946 0.053142667 -0.1400692 -0.08829862 -0.057599813 0.011949219 -0.1394735 -0.089695945 0.008280191 -0.21086891 -0.0018286865 0.14338288 -0.28670475 -0.4225092 0.024207043 0.17047559 -0.15305716 0.22190677 0.028070027 0.36899766 -0.17883545 -0.027712718 -0.21747972 0.10067429 -0.2854379 -0.024122031 -0.27363628 0.13204348 -0.063851885 0.10797167 -0.02764076 -0.19445486 -0.14426856 -0.010782129 -0.09807668 0.086704776 -0.37281454 -0.24419896 -0.255999 -0.05774498 -0.15469922 -0.3879503 -0.37243128 -0.09977747 -0.3736533 -0.1477932 -0.20074539 
-0.26234162 -0.45506105 -0.19516546 -0.22184658 -0.24559745 -0.1018092 -0.34188393 -0.4505238 -0.14135313 0.027655208 -0.25004128 -0.0129676815 -0.21713096 -0.028690306 -0.03698616 0.009749074 -0.26299664 -0.18784569 -0.29405573 -0.18329537 -0.14164114 -0.11293852 -0.2925639 -0.21993762 -0.10847194 0.012268101 0.12549105 0.09740442 0.041843683 0.014195749 0.0631033 -0.017708711 0.26399845 -0.32575122 0.03784063 -0.06341403 -0.14701107 -0.005797777 -0.09123717 -0.059895437 -0.07919911 -0.11920516 -0.12732744 -0.046583984 -0.039609257 -0.23191418 -0.17141321 -0.090893716 0.059505485 -0.08851237 0.035025902 -0.04334273 -0.03283001 -0.11501684 0.1122829 -0.21678983 0.015917622 0.13093057 0.07177536 0.14897132 -0.046899423 -0.08092314 -0.18915296 -0.14148939 0.1509493 -0.08623355 0.14718015 -0.012526434 0.026140533 0.0019946822 -0.104354784 0.03232574 -0.053577106 0.12317892 -0.082408845 -0.1235919 -0.2532355 0.09716397 0.04665969 0.051085517 -0.21648733 -0.14955959 -0.05846645 -0.2902785 0.15229072 -0.067849584 0.028361278 -0.020146167 -0.029051492 0.20897096 0.011636316 0.15154089 0.034925096 -0.12201904 -0.18026981 -0.06876208 -0.070399694 -0.31064114 0.05565932 -0.20422591 0.22166224 0.17029136 -0.21961571 0.058049653 -0.25515413 -0.3237529 -0.18526134 0.09058656 -0.11834648 -0.22333801 -0.07917767 0.025836417 0.16541354 -0.17702715 -0.14614071 -0.19914263 0.074345544 -0.105217464 0.0069403965 0.27814114 -0.015207171 -0.02021678 -0.19825993 0.0948609 0.17110999 -0.09210488 -0.15503784 -0.15815338 0.34942296 0.027348721 0.191325 -0.06963901 0.29080456 0.32619727 0.45854166 0.4222397 0.332765 0.10222577 0.4496465 0.19443348 0.035074107 -0.056822732 0.17037639 -0.08950069 -0.031851683 -0.2995765 -0.024198167 0.058232013 -0.04102718 0.050832577 -0.08257416 0.052102063 -0.07169746 0.07348564 0.05078523 0.17623103 -0.20373166 -0.14062239 -0.010767455 -0.04329609 0.4426267 -0.29571903 0.1752199 -0.11350366 0.39134902 -0.0385818 0.18636332 -0.0640168 0.5214164 0.049565516 0.22383513 0.19312556 -0.007347361 -0.12324328 0.34626618 0.31466022 -0.17581663 -0.009862265 0.013090158 -0.11314395 -0.03135115 -0.11184762 -0.022235766 -0.13585277 0.12347799 -0.006956795 0.12957975 0.19196247 0.0069457213 -0.09681573 -0.00017305442 -0.2011789 0.022283548 -0.166525 -0.021114305 -0.19317599 0.027919872 -0.28776634 -0.13220242 -0.17496338 0.13714182 -0.05632371 -0.13372935 0.017623266 -0.09018229 -0.05363531 -0.031225473 0.16576798 -0.06103593 -0.042568143 0.092139125 -0.14382146 0.18306196 -0.13646662 0.027394358 0.18258844 0.23465274 0.26066786 -0.031975217 0.11640421 0.047023218 0.20647089 -0.044164896 -0.09948878 -0.09458713 -0.5604326 -0.30106473 -0.37977812 -0.43210107 -0.42477635 -0.44384113 -0.20517929 -0.31759483 -0.18094644 -0.15549359 0.121758215 -0.0315476 -0.08636979 -0.18242893 0.17922685 0.33144376 -0.0175103 0.06114753 -0.20007816 0.10480838 0.22701725 0.31967768 0.14505781 0.21426101 0.111634135 -0.13280025 0.18460286 -0.05990635 0.15017971 0.085686475 -0.40914744 
0.04338343 -0.026138699 -0.08568247 -0.10550681 -0.292596 -0.041611474 -0.03916332 -0.11663342 -0.40006143 -0.24537103 -0.17935112 0.009726168 0.055367086 -0.18183777 -0.12183174 -0.356768 0.096141465 -0.11826415 -0.0058378084 0.24670376 0.25272727 0.100941904 0.24058734 -0.072717294 0.036363434 0.25183138 -0.018933436 0.11296559 0.08852198 0.22782308 -0.071216285 0.011029426 -0.38563278 -0.03649962 0.21082442 -0.17674327 -0.45055223 0.057524938 -0.21949418 -0.15268503 0.07415049 0.04424072 0.019148722 -0.3704053 0.18504223 0.16151786 0.16578943 -0.29710963 0.042525355 0.13792655 0.12882885 0.3902468 -0.094377466 -0.027197223 -0.14301565 -0.031995837 -0.05471853 -0.12076469 -0.11145051 -0.064222455 -0.3327951 0.15399234 0.15592672 0.033762496 0.3016288 0.21293452 -0.24310353 0.13084634 -0.2029824 0.17955703 0.13598546 -0.13637462 -0.058226846 -0.30731556 0.12856728 -0.3668653 0.026850313 0.010633194 0.064511955 -0.081019685 -0.13762175 0.041082475 0.06846926 0.27399018 0.13636744 0.01320557 0.088449545 -0.17628184 -0.08882606 -0.056057416 -0.09729241 0.04685378 0.09124844 0.087671705 -0.00067984173 0.17775415 0.16861658 -0.26118174 -0.29162398 -0.022690628 0.052755326 -0.11156927 -0.26632598 -0.40373328 -0.072674185 0.04771084 0.098742574 -0.10311512 -0.084189564 0.17194505 0.104757026 0.28763625 0.007474472 0.20909013 0.034893554 0.30676264 -0.13764736 0.22396934 0.10130121 -0.09727491 0.30217183 0.17985159 0.12951136 -0.05909325 -0.55173594 0.04787802 0.02308141 -0.0572384 0.021389028 -0.21306457 -0.1160965 -0.31681052 0.10310852 -0.05947602 0.08638573 -0.5433494 0.26044375 -0.247978 0.19255002 -0.18332027 -0.0036732017 -0.10758544 0.13581473 0.05548673 -0.08732624 0.15105864 0.021887587 -0.12124345 0.058079164 -0.005066646 0.064253174 -0.2555716 -0.15857841 -0.10496143 -0.22764695 -0.22666518 -0.20650779 -0.22363123 -0.17023596 -0.13854462 0.018733101 0.28786266 0.05703839 -0.10159024 0.19554454 -0.27474773 0.19402637 -0.27325916 0.26626408 -0.2328129 0.0043524047 0.0074510267 -0.047160044 -0.012038378 -0.03390635 0.08642061 -0.07844339 0.13290933 -0.27175972 -0.13880935 -0.062242735 0.038717378 -0.18258582 0.077930644 0.13553415 -0.16533238 -0.014880796 0.08041732 -0.35684234 -0.058049276 0.13506448 -0.00040223627 0.121015385 0.08133654 0.058062136 0.048743986 0.108736105 -0.0259372 0.0031339906 0.16522954 -0.028120495 -0.0065390933 -0.029486353 0.027834838 -0.10398221 0.17580731 -0.0521986 0.12155481 -0.11267453 -0.11709691 -0.039242726 -0.0049905796 -0.108987376 -0.12357302 -0.029005703 0.078553885 0.023055341 -0.019969875 -0.020929247 -0.031148486 0.09521929 -0.08873402 0.09015924 0.113836475 -0.1887409 -0.3270052 0.052479114 0.20794642 0.11341757 0.059785444 -0.15017602 -0.03619683 0.16249181 0.24873483 -0.1440071 0.01206675 -0.08006329 0.27065557 0.09683633 0.03390312 0.062493686 0.08417828 -0.17562824 -0.0787035 -0.004246895 -0.012019521 -0.067512214 -0.23219131 0.04326173 0.26330504 0.018378703 -0.069035694 -0.048334602 0.01901339 0.2484924 -0.058018778 
0.2854142 -0.2013414 0.045929786 -0.101303406 0.32611248 -0.014367875 0.13689251 -0.19907092 0.36236715 0.122250006 0.07644622 -0.053494025 0.01917623 0.15667479 0.031504598 0.102880195 0.06596071 0.14611147 0.07917318 0.056610476 -0.17272098 -0.19182177 0.09305178 -0.11470498 0.08325876 -0.01936991 0.25926864 -0.019309735 0.26327327 0.10020564 -0.17572893 0.15184432 -0.14211835 -0.03645016 -0.16579612 -0.059534293 -0.23722409 0.012431902 0.03852604 -0.04851093 0.038513694 -0.122371696 0.054565445 0.011522849 -0.16973801 0.05465377 0.09602636 0.0059447517 0.03195821 -0.023512784 0.13834195 0.043552548 0.06222228 0.03756263 0.036225118 -0.10703431 0.078254245 0.2481313 0.06251041 0.1318247 -0.14114201 -0.014962057 -0.29699698 0.0029114378 -0.035773076 -0.1510306 -0.23735054 -0.13732459 -0.08288599 -0.104510866 0.009035336 0.13463496 0.074154325 0.024336072 -0.0260129 -0.020576537 -0.176162 -0.10795293 0.18272145 -0.06599849 -0.03316798 -0.023672981 0.03595945 -0.08078329 -0.026443614 -0.084298745 -0.008871966 -0.062382504 -0.12331668 0.038925666 -0.021548137 -0.09638001 0.16094658 -0.015444365 0.12469379 0.015500428 -0.037929643 -0.12398897 -0.19776396 -0.23071165 -0.002140502 -0.0983061 -0.00148966 -0.21820349 -0.03312664 -0.19071601 -0.07887282 -0.059208717 0.011366013 -0.053469654 -0.033371232 -0.22310373 0.034201693 -0.056667347 -0.027681151 0.009158209 -0.12498801 0.038112517 -0.049580988 -0.14725126 -0.24418145 -0.16728443 0.045246705 -0.17600009 0.0016446642 0.1016975 0.17786364 -0.07117408 0.2155786 -0.14455903 -0.057938967 -0.20716785 0.0139569845 -0.17582974 -0.2857621 -0.19447383 0.15063144 -0.10030657 -0.26231194 -0.13387504 0.19640267 -0.14535442 -0.1948996 -0.03846309 0.09351632 0.031538185 -0.13492756 0.25512236 -0.30554458 -0.12135863 -0.2974043 0.025005713 -0.23301467 -0.36395413 -0.15001836 -0.29181492 0.31458336 -0.001695663 -0.13416873 0.10376381 0.056722652 -0.20513396 -0.1939979 0.019801434 -0.015365114 -0.093703054 -0.008473334 -0.47531685 0.3968315 -0.20215777 0.16117302 0.11588463 0.10484285 -0.12265843 0.23616959 0.513855 -0.24044669 -0.021745145 0.3175249 0.15430844 -0.14514928 0.07698915 0.20095846 -0.13312519 0.03732829 -0.07108222 0.15083855 -0.14020576 0.13388465 0.12435758 -0.007922696 0.06348178 -0.2329393 -0.048370287 0.09302384 -0.2506145 0.2617793 0.16485669 0.03306016 -0.017329177 0.0356005 -0.16226637 0.12133939 -0.14787684 -0.10825714 0.10920808 -0.07228978 0.25442415 -0.33287913 0.4236943 0.022639962 -0.060028385 0.020749053 0.21295656 0.38745204 -0.10712373 0.07280829 -0.18966413 0.22339524 -0.1705511 0.07694475 -0.20414568 -0.030639485 -0.030453363 -0.23727521 -0.5900686 0.1774153 0.052962385 -0.63315105 -0.08630552 -0.5264511 -0.05262611 -0.09576131 0.037669305 -0.021029448 0.1326803 -0.2666027 -0.021108223 -0.027978176 0.20686306 -0.22390796 0.035060793 -0.24527042 -0.39756107 0.03347613 -0.26774603 0.037486844 -0.32173482 0.029918369 -0.5327649 -0.14146638 -0.6043016 -0.08253881 -0.20277566 -0.43792823 -0.18351415 
-0.23801321 0.30014116 -0.0636206 0.21583742 0.20575225 0.14492917 -0.14817344 -0.1313592 0.088341236 0.20733337 0.13522688 -0.038059678 0.011751286 0.11685622 -0.0027887563 0.05319808 -0.22937246 -0.30407706 -0.19751406 -0.15637623 0.08622272 -0.29013747 0.13613817 -0.12890491 0.10198541 0.15902668 0.066143885 -0.013606979 0.05164736 0.21513462 0.20775463 0.13392268 0.09558146 -0.14117073 0.2487557 0.14866248 0.3718724 -0.154133 0.08671362 0.12380534 0.28501222 -0.21572462 0.1870837 -0.19231051 0.06776162 -0.02140874 -0.2617438 0.20094445 0.03813568 -0.06432622 0.058298707 -0.18255381 0.00910105 -0.13824001 0.036351312 0.057478644 0.0362622 0.23847806 -0.051208947 0.093148 -0.10240296 0.09280867 -0.058187976 -0.04604254 -0.041286297 0.33097714 0.19962355 0.20659271 0.15180655 0.08163605 0.23860003 -0.15832551 0.13994093 -0.08245769 0.2246695 -0.0433369 0.08404525 -0.057847463 0.05735494 0.27438962 0.05083937 -0.06850044 0.18876831 -0.102254994 0.090326935 0.06606692 0.14738397 -0.020845437 0.024959696 0.01094187 -0.13316752 -0.10560492 -0.5081355 -0.041095372 0.15221125 -0.029883644 -0.2107493 -0.22287424 -0.20879857 0.26684403 -0.25502998 -0.15189038 0.0015312498 -0.06084959 -0.23494901 0.028304763 0.22744161 0.22905168 -0.008488994 0.10993986 0.36529386 0.33869267 0.12302651 0.33202663 0.2648238 0.1453299 -0.06134226 0.1409082 0.018290589 0.14541353 -0.11104473 0.23972958 -0.019284379 0.14900783 0.054009866 -0.045982536 -0.045669038 -0.07508616 0.022032691 0.020674773 -0.11237018 -0.11287068 0.042237364 0.06519154 0.21909806 -0.07495998 -0.16055949 -0.0179543 -0.016783994 0.010005909 -0.11317215 0.19062966 0.029233875 0.014577021 -0.034135137 0.041343875 -0.028944382 0.1439809 0.017220952 0.25489384 0.07686742 0.09323842 0.0053610234 -0.014330891 -0.3021948 0.06628136 -0.21446887 0.11282681 0.26856038 0.03058617 -0.1444607 0.28440446 0.06261339 0.15713142 -0.07878281 -0.12020957 -0.11955286 -0.25489727 -0.09801061 0.07001509 -0.2761831 -0.2578667 0.21112348 -0.10609241 -0.18125308 0.015282385 -0.011423466 -0.40273747 -0.20861754 0.0753163 -0.10061529 -0.24965027 -0.10586994 -0.16397893 -0.19299735 -0.34626204 -0.26647446 -0.39058405 -0.382491 0.11740368 -0.048230987 -0.17206389 0.010039926 -0.08810207 0.03572374 -0.009439666 0.009102182 -0.12066177 -0.07642375 0.21244237 0.2969157 -0.1953598 0.06594731 0.16586159 0.028285062 -0.041767467 -0.007443862 0.14954251 -0.16130581 -0.0322611 0.006062246 0.10069946 -0.09348145 0.12556358 0.0976802 -0.087427616 -0.21781951 0.05385597 0.096033834 -0.26565745 0.012421627 -0.27275318 -0.32476956 -0.52962154 0.18484153 0.2800685 0.21878178 0.22721078 0.3165406 -0.103578314 0.64875376 0.17518409 0.25709158 -0.30117333 0.0310859 0.17046997 -0.088840485 -0.13060173 -0.07071108 0.26065654 -0.1178307 0.13381283 -0.09018007 0.38012412 0.07748999 0.18126166 -0.24900629 0.27693754 0.14280231 0.087048136 -0.10007417 -0.04088543 0.03682435 0.18758753 0.1585181 -0.05162061 
0.16937721 -0.029270887 -0.041917842 -0.05038257 0.37627563 -0.17807528 0.13745789 -0.12781176 -0.1574872 0.12319998 0.10489223 0.21983129 -0.060297422 0.17664824 -0.053201266 -0.06358481 -0.06312629 0.27684477 0.13682121 -0.082301825 0.34903908 0.20533353 0.29410982 0.12308419 -0.121351406 0.42186284 0.29492292 -0.061428666 -0.33816847 0.1617534 -0.28734744 -0.10581258 -0.35528573 -0.0117946165 -0.26642415 -0.22027706 -0.06807052 0.20904854 -0.04564972 -0.29741314 0.16039346 0.22981583 -0.20265888 -0.117776915 0.2367146 0.115787126 0.26660454 0.27486756 0.17332678 0.20618491 0.082685396 0.17242782 0.05528295 0.041378908 0.32092664 -0.06862674 0.19677344 0.09629685 0.111967 0.10236651 -0.30938846 -0.12928483 -0.035573836 -0.12579781 -0.06883375 -0.24895103 0.041426595 6.028488e-05 -0.023592664 -0.09116208 -0.22499439 -0.25602603 0.1171213 0.03355278 0.030382521 0.0012908849 0.14490522 -0.030895129 -0.20689487 0.09914561 0.14701174 0.1315235 -0.4118759 -0.029128501 -0.03908828 -0.10912223 -0.112665795 0.015470209 -0.075629406 0.08504909 -0.010319623 -0.030926751 0.06967732 0.057548553 0.10191638 0.0014415424 -0.18567245 -0.21986985 -0.25376824 -0.22355266 -0.08222326 -0.19752288 0.12789299 -0.22118707 -0.10988249 -0.0595439 -0.06617654 0.15875733 0.034206122 -0.46881202 -0.100407496 -0.19544125 0.09150449 -0.3946084 -0.37727976 0.34596363 0.10317987 -0.23688824 -0.1350889 0.071583234 0.23682609 -0.07330416 -0.14929251 -0.09370647 -0.041863166 0.152073 0.05220753 0.029413374 -0.1857768 -0.2411197 0.15358737 -0.008770121 0.19072995 0.028093534 0.17056182 -0.018110197 -0.10430985 0.0015956865 0.107252 0.04041542 0.21645156 0.008602183 -0.06532694 0.04964154 -0.019866576 -0.0946463 -0.1365552 0.0049569644 -0.107228674 -0.1757154 -0.19848228 0.13029654 0.0895958 -0.11704051 -0.1994476 0.13380818 0.43906784 0.13322785 -0.029499063 0.14492492 -0.01778145 -0.029584803 0.2024939 -0.27612716 0.19338748 0.18377657 -0.06114271 -0.053942055 0.035583496 0.033571407 -0.076989576 -0.17073113 0.24090394 -0.11845878 -0.027745249 0.44324023 0.048270978 -0.12778223 0.009445403 0.015486447 -0.16084963 0.03767135 0.05116118 0.09142087 0.10238759 0.037886064 0.2784769 -0.006683577 -0.17269167 -0.11366676 0.26464745 0.036828786 0.016433397 0.28737968 -0.11721944 -0.012927581 0.018224817 -0.05163446 -0.010671597 0.10283524 -0.017193263 0.095074624 -0.13446568 0.19751754 -0.0049980786 -0.00013447058 -0.118581764 -0.17790824 -0.089696355 0.1069152 0.063790545 -0.16003962 0.026309446 0.11462469 0.05910833 0.023600278 -0.053613067 0.019111428 0.142277 -0.017336989 0.021025253 0.34188002 0.18010797 0.10255644 0.08450365 0.15651385 0.10054028 -0.030042237 0.11272609 -0.07586436 0.27074102 -0.09396386 0.013812937 0.032254096 0.11590258 0.38465324 0.12392293 -0.19472627 -0.047362104 0.25911042 0.026864164 -0.06740236 -0.0063042114 -0.033277057 0.120249584 0.14365497 -0.17200503 -0.12752478 -0.05801633 0.1318817 -0.023948418 -0.15089735 0.050099213 0.0577818 -0.036473535 0.11754172 
-0.08243554 0.10726495 0.036905244 0.19836971 0.07215251 0.14913903 0.29494065 0.12605374 0.29169962 0.46390766 0.21555558 0.3804251 0.06510777 0.22823995 0.17649083 -0.113658935 0.037809514 0.063039474 0.14382522 0.0683518 -0.14219707 -0.041401252 0.16418569 0.27290052 -0.09624127 0.1647821 0.3275099 0.06261039 0.02831205 0.12098419 -0.13775581 -0.12668838 0.13152657 -0.14584751 -0.051364534 0.041756272 -0.3352962 0.13050145 -0.04093505 -0.18061028 -0.016837073 0.11160144 0.24639706 0.10819109 0.25081456 -0.07968194 0.14033587 -0.041296348 -0.3272045 0.069452554 0.11252144 0.12265792 -0.22897893 0.07072197 0.028439563 0.020446276 -0.49289492 -0.0028644397 0.21421827 -0.15320197 -0.14268546 0.024355102 -0.19638212 -0.1972225 -0.085029595 0.14822987 -0.22690111 0.097487405 -0.36845124 0.07318276 -0.33482334 0.098332115 -0.23007353 0.06533621 -0.10198983 0.24453637 0.016014563 -0.0756566 0.1020698 -0.23915985 0.04042311 -0.10534286 0.356123 -0.28339082 -0.40689227 0.31173384 0.049760286 -0.14062642 -0.24111074 -0.15493597 -0.033903837 0.083540566 -0.4583667 -0.07847895 -0.15278897 -0.0035986674 0.021414893 0.45261696 -0.08739987 0.062015634 0.008892831 -0.0016696475 -0.30771726 0.014894278 0.002272989 -0.32852492 -0.1570108 -0.03870573 0.31498423 -0.30667466 -0.33779076 -0.21119826 -0.041390363 -0.04086562 -0.112485975 -0.03069039 -0.14238887 0.09647401 0.029968701 -0.00021950583 0.17820403 -0.053161606 -0.21428116 0.109348856 -0.16812032 -0.11676457 -0.12597169 0.092793815 0.048584208 0.04712483 -0.19210105 -0.23108506 0.084252015 -0.045903083 -0.11256204 0.05889867 0.045093663 -0.02478751 0.20428313 0.026621137 0.0950844 -0.1987767 0.06407459 0.055831276 -0.110554926 -0.16569538 -0.119225 -0.08149361 0.14880943 -0.029164732 0.030326296 0.1230814 0.097453445 -0.08614187 0.01762542 -0.028787572 -0.16321987 0.12610927 0.064328305 -0.03775432 0.18486811 -0.032144442 0.19397296 0.050716527 -0.116069555 0.0021104123 -0.087764174 0.30124933 -0.17618634 0.13326064 0.19781408 0.03943687 0.024995413 0.24208717 -0.08804086 0.00026687642 0.127143 -0.16656046 -0.10387718 0.038332436 0.14257787 -0.12785505 0.0531792 0.13784586 -0.0438965 -0.03052526 -0.17643994 0.0073885955 -0.11721133 0.0146811055 0.11981239 -0.01126252 0.19329798 0.33147255 0.11191399 0.19466175 0.12879214 0.31340185 0.21562943 -0.15026742 0.02603385 0.23161075 -0.05755869 -0.13898762 -0.09391962 0.0020010236 -0.14972295 0.098546065 0.100228295 -0.113290295 0.054348364 0.0151598 -0.09571174 0.0141867325 0.13752443 -0.035419658 0.10128455 0.26238754 -0.033473622 0.14340654 0.17022353 -0.047684163 0.08020319 -0.10722042 0.19480506 -0.01036273 0.23902291 0.012916563 0.21957085 0.25556657 -0.005131511 0.27308953 0.36027008 -0.0105724735 -0.010210835 -0.2633191 -0.16362989 -0.12892792 -0.016540654 0.08491129 0.113819264 0.07843863 0.22748557 -0.088590026 -0.0060571926 0.15423547 0.059217904 -0.10026939 -0.10337385 0.049983554 0.4010208 0.07230457 -0.2401579 -0.25944233 -0.10306521 -0.0011222964 
-0.029584035 -0.06950016 -0.0105547635 0.031083591 0.0038551418 -0.11017228 0.22267328 -0.03743161 0.1504277 0.19820933 -0.057037402 -0.0054034404 0.13786191 0.19554855 0.029310264 0.20558181 0.11697606 0.44946086 0.39081493 -0.032678127 0.20774148 -0.009446113 0.44636172 0.43611035 0.11685965 -0.38904977 -0.027972646 0.06461239 -0.6305205 -0.2499651 -0.52702653 -0.30833292 0.08935352 0.038078874 -0.13520882 -0.09618166 -0.06293061 0.025170123 -0.21025763 -0.044565354 -0.009053783 0.07138233 -0.024058795 0.13258041 -0.0184876 -0.30461618 -0.02664544 -0.24019608 -0.1925491 0.10792207 0.15454377 0.067572236 -0.1084216 0.4588458 0.26369062 0.13740098 -0.01794748 0.06692869 0.2195562 0.10465572 -0.35706025 -0.12123273 0.006697721 -0.23323143 -0.3006359 -0.12559634 0.06741306 -0.2771239 0.057113223 -0.05692248 -0.1558877 0.21504404 -0.14180115 -0.33492357 -0.072013274 -0.051789887 0.10107687 0.00060121046 -0.10927946 0.20964229 -0.039946884 -0.015585864 0.1680365 -0.39893174 0.0025590153 0.1127592 -0.17364886 0.036761083 0.14609069 0.15169829 -0.07116268 0.10466087 -0.05182523 0.22618039 0.43717656 0.24137656 0.15545358 0.14823818 -0.19910488 -0.13047075 -0.11214217 -0.061371706 -0.098620065 -0.09152303 0.021979941 0.115019545 0.016587159 -0.20900817 -0.098708555 -0.16320269 -0.1863948 0.21997438 -0.12376114 -0.08700544 -0.014091575 0.0671425 0.054321837 0.13129707 0.14008948 -0.14683892 0.228344 -0.1365188 -0.038059562 0.18856218 0.2754367 0.12137402 -0.13725334 0.27964965 -0.06370855 -0.12241972 -0.005471844 0.27349785 0.1563117 -0.20275825 -0.015108902 0.14108807 0.07693349 -0.18976337 0.13802086 0.09638839 -0.3045319 0.19857155 0.2624729 0.0006570475 0.18956774 0.0215043 -0.04482913 -0.23790815 -0.14350197 0.07526671 -0.1763751 -0.06550388 -0.033434194 0.036568392 -0.24241002 -0.14074111 -0.27021882 -0.14037971 -0.29119316 -0.034122042 0.25676915 0.033239048 0.10789221 0.0064732074 0.23344065 0.20417301 0.10427039 -0.24991952 0.07106988 0.05176003 -0.010340079 0.12726791 -0.11844625 0.13499755 -0.05472431 -0.15063982 0.06964783 -0.021300113 -0.0008141532 -0.023974592 -0.18628743 -0.2639211 0.028411064 0.059776735 -0.011599026 -0.20309936 -0.120380946 -0.088402934 -0.046488997 -0.025667114 -0.063274495 0.16328429 -0.074073054 0.06530523 -0.23554297 -0.32447302 0.3061598 -0.28756523 -0.1927326 0.32844415 0.16893348 -0.033363204 -0.249615 0.1842202 0.17926474 0.12366321 -0.18490602 -0.0037412872 -0.06282608 -0.066065915 -0.43080294 0.1260671 -0.11825666 0.14241019 -0.05407566 0.086414315 0.09322428 0.014017386 0.10923663 -0.113136075 0.19795643 0.017335063 -0.3289977 -0.08751157 0.099387646 -0.020765632 -0.0479596 0.04717036 -0.028637143 -0.10116981 0.33604777 0.11417378 0.22609273 0.14578469 0.19397908 0.11014246 -0.037081186 0.14182448 -0.023257457 0.44976002 -0.0638688 0.018514797 -0.018602896 0.06667613 -0.006312096 0.12834004 -0.1426178 0.2459492 0.05241156 0.20864537 0.33533204 -0.09112617 0.14041793 0.030438652 -0.040345278 -0.10304683 
-0.11101842 -0.06756175 -0.057644464 0.049301807 -0.028402336 0.0009277753 0.037963476 -0.19748498 -0.021720875 0.112019815 0.0772218 0.18484055 0.08832157 0.14981832 0.1757162 -0.006371719 -0.16684976 0.19376355 0.14192326 0.026272831 0.029413458 -0.08432111 -0.0076729553 -0.24669985 0.24905813 -0.024662508 -0.07762191 -0.14598505 0.0776833 0.14695017 0.272205 0.26836008 0.10349425 0.11408973 -0.116187215 0.0648521 -0.2696155 0.08777907 0.053547084 -0.1945976 0.042994212 0.11656318 -0.04607097 0.10998461 -0.19861628 0.030520866 0.13268448 0.20228183 -0.119166575 0.21236822 -0.0074884957 -0.12431265 -0.12634021 0.2648197 -0.05268211 -0.021373024 -0.03571656 0.03517178 -0.05362131 -0.091311246 0.22969924 0.1351609 0.076918885 -0.059921373 -0.120335065 -0.33654165 0.032374207 -0.039840586 0.0533828 -0.026212329 0.080687664 -0.3710109 -0.03232345 0.055191588 0.1896991 0.06433313 0.05730452 -0.096231796 -0.026779762 -0.0785471 -0.07333262 -0.0047769346 -0.26782325 0.14933698 -0.36009294 0.15078175 0.23000467 -0.08302653 -0.09578917 0.18394196 0.22163117 -0.026749585 -0.26948425 0.19169983 -0.16328272 -0.036291625 0.27461246 -0.04720361 -0.008853703 0.07898764 0.28993592 -0.055946518 -0.049140543 0.21472886 0.14461957 0.039104838 0.051069982 0.047304533 -0.115309544 0.31997737 -0.066690445 -0.06241674 0.03890199 0.06923518 -0.22126009 -0.35648713 -0.17623597 -0.24673261 -0.25227082 -0.1293319 0.06434712 -0.08179957 -0.3619969 -0.12857316 -0.016864061 0.15537402 0.12217645 0.0057401285 0.08811509 -0.12108453 -0.11837779 0.11858466 -0.19196405 0.04526548 0.15336995 0.06506306 -0.058884636 -0.016722983 0.08398245 -0.2417904 0.010692896 0.21657316 0.21160321 0.14861588 0.063132964 0.09306241 -0.15406081 -0.12256233 -0.07382142 -0.12329361 -0.3773648 0.17570901 0.057000242 -0.12676574 -0.05372291 0.0428337 -0.08732483 0.3421425 0.29540008 0.04976062 -0.25902683 -0.18247083 -0.0710224 -0.09143782 -0.36114526 -0.3390054 0.13932952 0.30444634 0.1353174 -0.041917812 0.2207855 -0.27801135 0.09442304 0.06399113 0.074713916 0.300697 -0.028784864 -0.13498235 -0.23441696 0.0052301595 -0.026251083 0.029624531 0.08213021 0.030631632 -0.08809504 -0.14476119 0.2253722 0.18683408 0.037011575 0.07467254 -0.15152365 -0.0786517 -0.10069422 0.09282948 -0.18484145 -0.30244285 0.011292777 -0.09765833 0.06392416 -0.050578956 -0.08250206 -0.09769329 -0.031779736 -0.23377107 -0.030280614 0.07796751 0.22763564 0.054631166 0.15835647 0.16802204 0.22324517 0.22106473 -0.01575685 0.07007455 -0.2020251 -0.030574653 -0.11089292 -0.015039907 0.14891322 -0.080771804 -0.13213941 0.07687179 0.044465587 0.03279792 -0.20450409 0.15873052 -0.34499216 0.054073513 -0.3527632 -0.2507995 -0.17357653 -0.14030863 0.14199683 0.0031631293 -0.0733695 0.16251764 0.15835829 0.09462863 -0.045551654 -0.041206125 0.15192541 0.45327395 0.13943651 0.13418116 0.022952639 0.15292118 0.32788727 0.015142656 -0.038805164 -0.121073075 0.009815429 0.13537617 0.33800566 0.36386135 0.23835316 0.4497064 
-0.29758802 0.063260674 -0.19211987 0.04941137 0.14781049 0.024714682 0.09821426 -0.024807833 -0.30872554 0.3468831 0.13185488 0.12666065 0.022097496 0.23601343 0.19129597 0.2605762 0.21549162 0.23325208 0.14215715 0.06614276 -0.31227416 -0.06947185 0.17047265 -0.20402165 -0.0011560773 -0.02603289 -0.118524924 0.03988193 0.23401447 0.07867667 0.25818825 0.2491746 0.13607073 -0.04631521 0.03558409 -0.08739055 0.39134246 0.010738307 -0.012227576 -0.084685504 0.09822871 0.26560307 0.120799325 0.1887103 -0.035331037 0.26984403 0.17223452 -0.0057572015 -0.24129288 0.10724604 0.105857626 0.029057039 -0.061040927 0.088709205 0.19679134 -0.34064725 -0.062155757 -0.027359746 0.05474231 -1.2013334e-07 0.18567711 0.087136306 0.26609287 -0.20120084 0.15557623 -0.09066493 -0.0027583563 0.35968152 0.078365386 0.067131676 0.067065015 0.17001036 -0.007865883 0.05048835 0.053702403 0.013739611 0.17355041 -0.007502267 0.3222341 0.15883341 -0.09397127 -0.09959146 -0.022876754 0.038433705 0.05696509 0.24048477 0.10321316 0.061184246 -0.20856325 0.17342554 0.054464187 -0.10664702 0.2557858 0.26885286 0.29409152 0.22507598 -0.089847885 0.15789956 -0.03442787 -0.36616752 -0.24054402 -0.089573555 0.07463432 0.013707873 -0.17574108 -0.15971276 -0.056699995 0.0152974455 -0.282827 0.23010212 -0.04009491 0.0888003 -0.033156287 -0.09914597 -0.11777009 -0.051833186 0.09199184 0.05779626 -0.024123097 0.050337233 -0.052096263 -0.22823435 -0.14664291 0.031545766 0.17298797 -0.11446929 -0.15150417 0.082331374 0.058917563 -0.003684635 -0.22639194 0.040648896 -0.2709599 0.3054836 0.04929513 -0.05406599 -0.008159382 0.04679435 0.015605906 -0.36457253 0.21039963 0.13754705 0.077962294 0.07884151 0.052697536 -0.17398512 -0.2702174 -0.07401701 -0.026148167 0.029718727 -0.23883824 -0.2656051 -0.06887237 0.13248712 0.117877804 0.019111808 -0.025319751 -0.0703386 -0.062064026 -0.034364574 0.14528681 -0.15916264 0.0020195749 0.040086467 0.06188427 0.030071832 0.13916348 -0.04933013 0.12473449 0.06720866 -0.022471122 0.015968882 0.11815594 0.25098056 0.2130874 -0.012554403 0.047106463 -0.076338306 -0.055231214 0.059114885 0.14993176 -0.21817951 -0.14804456 -0.032188464 0.06573363 -0.17111138 -0.10003406 0.07442504 0.18353353 0.1332676 -0.17312916 0.029753301 -0.1319944 0.0414952 -0.14696804 0.11874254 -0.06542153 0.05884831 -0.060567655 -0.018262533 0.07091444 -0.08120189 0.10829301 0.121154256 -0.035125703 0.093226396 -0.06236055 -0.20916574 0.08070311 0.03501851 -0.072304025 0.13874993 -0.34930256 -0.08139348 -0.00026153386 0.10905087 -0.038005963 -0.15039186 0.025836634 0.13763401 0.29796708 0.12089011 0.35640067 0.1602487 -0.04971488 -0.015510575 -0.21068013 -0.053888023 -0.16773733 0.07989626 -0.061184645 0.19234502 -0.06287846 0.08315181 -0.14059766 -0.08902539 -0.3216251 -0.22526719 -0.033008944 -0.2917754 0.10618712 0.06265395 -0.17828155 0.17292677 0.3070944 0.2767726 0.17630447 -0.073953 0.2815326 0.00090497924 0.398981 0.28320435 0.25310397 0.046194386 0.22617397 0.43422672 
-0.18906064 0.1502383 -0.056192365 -0.060238067 0.13404438 -0.0028857503 -0.101613306 -0.09717182 0.07568656 -0.006126813 -0.09806213 0.028869005 -0.07291447 0.057397623 0.22934806 0.2623804 -0.054583095 0.14250004 0.17396544 0.2835542 -0.17203408 -0.0023899546 0.31000048 0.18261129 0.2558453 0.15635598 0.03360433 0.003450536 0.18180788 -0.08301279 -0.021497268 0.0873183 0.019942794 -0.018354133 0.21024132 0.1995889 0.44775903 0.079018995 0.14889216 0.15122367 0.23815607 0.026315445 0.20970097 0.09153756 0.14244474 0.018492367 0.02576444 0.036529224 -0.09315989 0.07702312 0.028988704 -0.025231574 -0.04405825 -0.07667863 -0.050934162 0.15499103 -0.015311309 0.057710707 0.17696278 0.30276856 0.08736345 -0.21462384 0.20150723 0.035326518 0.1240787 -0.0070107807 0.08495448 0.30223364 -0.036422156 0.030197745 0.22250983 0.16385545 0.08714114 -0.14488032 0.17190821 0.21891017 -0.06664952 -0.011543187 -0.10674514 -0.10464482 -0.018705212 0.13090976 0.1537285 0.033979416 -0.1642195 0.029539542 0.018384714 0.051364947 0.002990562 0.11457829 0.0015530674 0.117465645 0.21751562 0.13168171 0.24994904 0.33172294 -0.21953009 0.08407055 -0.16985859 -0.019875703 -0.39965126 -0.09860661 -0.08434805 -0.029687265 -0.17404112 -0.049046624 -0.16173679 0.021906 0.20332995 0.15081044 0.0760634 0.2085878 -0.13408805 0.1739224 0.09179675 -0.08339949 -0.0010268986 0.11699969 0.029680343 -0.12054642 -0.18140298 -0.19551425 0.14887851 -0.20571814 0.1252947 -0.027366908 0.1469532 -0.011149885 0.11925452 0.12804641 -0.014275536 0.2916464 -0.15664643 0.2595526 -0.2799135 0.026059661 0.051674414 0.11769204 -0.03213759 -0.06960972 0.08782037 -0.12884603 -0.13697615 -0.051411744 -0.1369955 0.38113052 0.108388685 0.07156178 -0.23569481 -0.14634782 0.052342158 -0.048981287 -0.22804642 -0.08809944 0.006465278 -0.019054672 -0.13155594 -0.04994678 0.14271942 -0.026657946 0.17052518 0.48680085 0.46148732 0.24353138 0.27551728 0.33032715 0.10816576 -0.05501133 0.08710439 0.11091552 0.16686706 -0.1109729 0.14692317 -0.04464141 -0.10316224 0.16390641 0.073121674 -0.09363654 -0.37050626 0.16693026 0.008039242 0.12036147 -0.04579943 0.15909623 0.21549696 0.23634173 -0.07822469 0.12907615 -0.05164146 -0.10113257 0.026382735 0.069612935 0.18576209 0.139232 0.06792897 0.45639047 0.062613584 0.25006324 0.09167176 0.2769084 0.08846091 0.21969296 0.20429939 0.062062573 0.004210316 0.001201699 0.18937536 0.10678688 0.062144123 -0.11132117 0.052204415 -0.21569693 0.059849434 -0.23832463 0.04578739 0.08086698 0.24385053 0.093406685 -0.021880286 -0.048551757 -0.11177687 0.13528751 0.07928272 -0.054066353 0.07121322 -0.14535749 0.09389736 -0.102815785 0.019634187 0.26334786 -0.34317014 0.13726835 -0.05421542 0.017235879 -0.13480437 -0.2127649 -0.051774975 0.07463593 -0.18029073 -0.15018173 0.08327629 0.0182748 0.10906502 -0.22117743 -0.058492683 -0.22088201 0.10637966 -0.1395692 -0.14988896 0.19792776 -0.22136982 -0.11749315 0.199246 -0.21188517 -0.19262499 0.025859917 
-0.35936067 0.14331293 -0.13522734 0.18035316 -0.28690615 0.06859597 -0.019426143 0.017752418 -0.12917054 0.26191625 -0.08654893 -0.27081862 0.10832415 0.31054875 0.068196826 0.042780943 -0.19183975 -0.18822156 -0.30677384 -0.17849645 -0.09409545 -0.3385026 -0.48646864 -0.45241338 -0.07963465 -0.22675735 -0.18342207 -0.09190844 0.079136536 -0.02388084 0.17932259 0.01749338 -0.24695082 0.015810212 0.09667166 0.027595742 0.1262686 -0.061634943 -0.088110484 0.124639004 0.11409547 0.055730592 0.19340205 0.16348128 -0.0062738964 0.0021789663 0.12516896 0.060069963 -0.04204663 0.018249553 -0.056080513 0.09229536 -0.059022587 -0.10358879 -0.1651703 -0.010760592 -0.287023 -0.23748913 -0.28372097 -0.25276613 -0.23915854 -0.133653 -0.28525513 -0.17413025 0.2587368 0.11687833 0.23039529 0.4452675 0.13423675 -0.15765879 0.1611921 0.1370753 0.11575608 0.15390609 0.2106887 -0.07390243 -0.03267277 0.2858785 0.33431256 -0.07622317 0.08487021 0.12621188 0.02827022 0.04680281 -0.08894744 -0.015007364 -0.010766458 0.12637548 -0.37792334 -0.31096363 -0.39486355 -0.38739488 -0.512354 -0.30225885 -0.082493365 -0.1993697 -0.08465092 0.14053561 0.04197481 0.116528586 0.20296648 0.19399959 -0.16033974 -0.3311067 0.005063007 0.07872392 -0.048864055 0.033002898 0.08764643 0.07287108 -0.19958413 -0.07952268 0.074818745 0.0384789 -0.15144867 0.251989 -0.04336751 0.24439426 0.19004986 0.22003172 -0.23268804 0.03501121 -0.0383011 -0.38707832 0.17157295 -0.33124837 -0.093215264 -0.15469556 -0.010432443 0.034429934 -0.22735476 -0.06624936 0.035681784 -0.33266395 -0.103235826 -0.23064394 -0.02267738 -0.16496252 0.2142409 0.10346468 0.11596773 0.15693964 0.3169225 0.018524218 0.0031504622 -0.026575748 0.01316255 0.17773893 0.050961714 0.31022498 -0.034779266 0.24864815 -0.15663856 -0.013432476 0.11313239 -0.23423623 -0.22505392 0.021315917 -0.12646122 0.047389895 -0.16391414 0.20060715 -0.06283007 -0.17692563 -0.25029024 0.064522095 0.04351431 -0.3181788 0.071731284 -0.042013336 -0.050319638 0.19737343 0.11079873 0.20401455 0.14418477 0.052454308 0.1883109 0.03921922 -0.15972228 0.040202733 -0.07505166 -0.00218653 -0.052354757 0.16670285 0.031888746 0.020831343 0.04728704 0.095712036 -0.12131167 -0.011698222 0.095489286 -0.2864578 -0.20148021 -0.15424514 -0.17590986 0.20190167 0.046700824 -0.082430735 0.20442317 0.036442228 -0.1902758 0.13915695 -0.101369865 0.26264188 0.112697385 -0.12602475 0.025678676 -0.032661065 0.0932337 -0.26655498 0.023505678 0.04378735 0.00521984 -0.031941455 -0.1840718 -0.044639703 -0.024030993 0.08536216 -0.1113795 0.15098062 -0.44222724 -0.039455973 0.09193076 -0.0704228 -0.16213839 0.13042665 -0.09068313 0.14122194 -0.2129912 -0.14024416 -0.14931905 -0.076550454 0.017477458 -0.08030445 -0.025328098 0.15752362 0.06284046 -0.3048433 -0.06722863 -0.009467745 0.04954519 -0.12075285 -0.52131706 0.23949738 0.15554734 -0.008704819 0.18829438 0.13852166 0.17922227 0.102602586 0.17573561 0.08058086 0.049646858 -0.012412764 0.031096622 -0.028006334 
-0.06859949 -0.38233757 -0.0016463974 -0.18785508 -0.13018449 -0.24588312 -0.20621309 -0.3571993 0.021903744 -0.31983602 -0.08798562 -0.07408748 0.15486073 -0.6327823 -0.32477126 -0.24298906 -0.18164407 -0.5667014 -0.11030394 0.13104449 -0.046304606 -0.062887855 -0.01177034 0.03124631 -0.14449736 0.15613346 0.01080759 0.19215812 0.45402867 0.14426416 0.296824 -0.10782551 0.15203361 -0.2869662 0.07943914 -0.15955567 0.31565803 -0.17166068 0.13070507 -0.0070902505 0.14713402 0.0031144307 0.039730504 -0.080228396 -0.07198576 -0.17018752 -0.016244752 -0.09018143 -0.10110833 0.0031909891 -0.24930711 -0.10773301 -0.15146674 -0.03723167 0.021879492 -0.061790477 -0.17578118 0.019767668 0.13095117 -0.02635908 0.17835034 -0.13105094 0.08015905 -0.15203932 0.26046565 -0.32190326 0.24864681 -0.20808478 0.2532319 0.03263452 0.3537817 0.059181508 0.47882292 0.030404147 0.0933534 0.28168285 0.22715056 -0.12293595 0.42330107 0.42979994 -0.08317373 -0.015921047 0.21153124 -0.24645776 -0.07167628 0.06442657 -0.0191253 -0.100875914 0.16172193 0.119263485 -0.04794675 0.023587942 0.19758373 0.09716169 0.28026736 0.17055866 0.29543674 0.1566834 0.3076131 -0.27741563 0.27203962 -0.17841052 0.27892965 0.11136375 0.20852946 0.0110473735 0.04113403 0.436875 0.1214758 0.15798533 -0.13278687 0.3817869 0.0066956216 0.10082285 -0.235348 0.090685524 -0.09208482 0.17539915 -0.04112522 -0.038660277 0.11919766 0.052475985 0.0117464205 -0.279493 -0.037057612 0.36610568 0.016956007 -0.032538567 -0.101384655 -0.24865606 -0.007109782 0.069428265 0.024216417 -0.47110772 0.021192579 0.080028124 0.16832368 -0.23013595 -0.049914945 0.16086297 0.07190947 -0.17041984 -0.19423309 -0.054616794 -0.053359717 0.06301698 -0.028016867 0.0180962 0.08685479 -0.12310189 0.03234019 0.03418417 0.094079405 0.06763845 -0.15209556 0.028576737 -0.10046587 -0.31588316 -0.29476327 -0.11134637 -0.015327834 -0.23814031 -0.15340848 -0.34395102 0.09689067 -0.038836155 -0.30874404 -0.20939264 -0.047524564 -0.12959406 -0.12095011 -0.2952829 -0.036842354 -0.30403766 -0.11767343 -0.15192448 -0.034423646 -0.22189015 -0.17761776 -0.2964892 -0.008209794 -0.22059204 -0.1424402 -0.0232226 0.08561922 -0.14150463 -0.25757083 0.15779364 -0.06449764 0.04147633 -0.09957149 0.16602042 -0.06615162 -0.21758597 0.20528197 -0.045326687 0.015082878 -0.10848036 -0.069504686 -0.025000818 0.042535935 -0.18043467 -0.06749934 0.07457086 0.123393916 -0.18887427 -0.012925699 -0.080672055 -0.0028173886 0.017639304 -0.055171613 -0.0011074976 -0.04644831 -0.2894958 0.112840675 -0.06938529 -0.035419308 -0.29019588 -0.035446208 0.09556887 0.08367072 -0.06570257 -0.22885817 -0.06188588 0.3919487 -0.38414565 0.05579153 -0.046359133 0.11428358 -0.13462895 -0.17329851 -0.11493217 -0.09007709 -0.10084432 0.17737095 -0.17694627 0.2569758 -0.01610159 -0.16016412 0.18249828 -0.020005293 0.2031557 -0.15774006 -0.009618477 -0.016311347 0.08538342 -0.20827425 0.0828633 -0.0879089 -0.14981198 -0.15385151 0.093147516 -0.0122503415 -0.059312794 -0.11539447 -0.4612603 
0.1558551 0.51769394 0.3272384 0.34927046 -0.16845377 0.3031288 0.07093905 0.18137166 0.035124984 0.064614475 -0.14992924 0.09591154 0.11182723 0.015309846 -0.008886364 -0.13549756 -0.013653663 -0.12148498 0.06887692 -0.078604504 -0.16333926 -0.13798554 -0.021220684 -0.13757348 0.35282984 0.20395313 0.055557605 0.084529385 0.079556674 0.4867868 0.43834072 0.13507587 0.1733129 0.21177648 -0.046053145 0.1836997 -0.006628832 -0.027089959 0.02671752 -0.14025635 0.18303469 0.08702234 0.02944642 0.25979516 -0.07064985 0.010411003 -0.080809295 -0.18001701 -0.08583077 -0.052845087 0.042468194 -0.15621191 0.29926917 -0.16359048 -0.005656072 0.077777825 -0.13236952 -0.005558118 0.0051777493 0.014077527 0.3326542 0.2965026 0.21036433 -0.04303473 0.14480585 0.17374094 0.28810048 0.13602059 -0.094215944 -0.13249691 0.27559128 0.1002645 0.1738716 0.041319486 0.02171641 0.36043474 0.18018086 -0.05197477 0.04367727 0.1316885 -0.18457924 0.19847585 -0.14486909 0.07831185 0.0039468715 0.044335023 0.06336438 0.03085188 -0.292732 -0.047884297 0.36641645 0.04744326 0.02407118 0.31289014 0.2606776 -0.047795117 0.08529546 -0.099156685 0.06975067 0.36815685 0.2645642 -0.19375707 0.13833381 0.12737572 0.28960404 0.20289089 0.2097108 0.16642468 0.10244281 0.20204288 0.105373845 0.19712524 -0.08587962 0.13780059 -0.021067401 -0.21559176 -0.023254896 0.042515643 -0.040075615 -0.010295363 0.08025692 0.16450424 0.1845123 -0.12904637 -0.11372665 0.19353081 0.011006209 -0.010185688 -0.08414208 0.2693517 -0.120391294 0.5120308 -0.002560221 0.1391848 0.013500127 0.1807442 -0.16321129 0.27107263 0.05623959 0.077679574 -0.35268706 0.30695182 0.060665503 0.2002528 -0.05617087 -0.16896814 -0.043890312 -0.13915925 0.1249467 -0.031716052 -0.1112276 0.19752236 0.118615694 -0.048033755 -0.29721808 0.007602965 -0.111681454 0.094542496 0.06502209 0.04940029 -0.123777 0.35698032 -0.2130428 0.18607073 -0.16087991 0.005884719 -0.027278095 -0.16953549 0.13541888 0.07322151 -0.2037741 -0.42555836 0.11100043 0.022717996 -0.24565266 -0.04854293 -0.11791032 0.12991923 0.012686315 -0.07538697 0.09375089 -0.17341945 -0.09762331 -0.016112246 0.10286446 -0.15459764 -0.05795528 0.17225946 0.21440467 0.014672448 -0.08225705 0.033663973 0.05175339 0.04612488 0.17124185 0.4771843 0.1888029 -0.08833828 -0.109107964 -0.29649654 0.17506514 -0.006892671 0.11172701 0.021348871 0.18781848 -0.07886876 -0.10128557 -0.102724224 -0.029762413 -0.14406627 -0.14023666 -0.1912049 0.12486458 -0.34848195 -0.0395724 -0.0793784 0.013776014 0.04620835 0.032099295 0.06960212 0.4013042 0.13584583 0.0970595 0.07106183 -0.22488321 0.73076713 -0.05895795 0.32022744 0.28737625 0.26457438 0.16215546 -0.07561371 0.5260426 0.117225006 -0.115217686 -0.09567047 0.06448118 0.040304277 -0.08442796 0.36773357 0.062415052 -0.05979027 -0.082214095 0.12062917 -0.088246346 0.06125644 0.15928714 -0.13747361 -0.07351907 -0.047630824 0.049149618 0.16134605 0.16545317 0.19611844 0.25604957 0.26267585 
-0.11827578 -0.05283544 0.13764377 -0.059943296 -0.22776978 -0.1244596 -0.0417466 -0.123835966 0.10239694 -0.254276 -0.105411336 0.13032193 0.24005689 -0.44236472 -0.0009946382 -0.064689234 -0.09649815 -0.4308995 0.00010552863 -0.1534084 0.13172619 -0.28226614 -0.09882313 -0.021546014 0.06892634 -0.070858166 -0.09446944 0.005228324 0.1822119 0.0486141 0.16419442 -0.0033072003 0.16037935 0.063560694 0.3570301 -0.080861785 -0.13694385 0.14692523 -0.08674802 0.13915904 0.15125775 0.0023087582 -0.2526619 -0.08884313 0.09265623 -0.078776225 -0.04684941 0.16808426 -0.13364947 0.07383395 -0.0235128 -0.014551122 0.16108689 -0.1624177 0.0964105 0.2524415 0.21145643 -0.23609845 -0.25733566 0.09843121 0.12364382 -0.15146899 0.25102124 -0.02174726 0.20078033 0.043285355 0.29007524 0.20518304 0.16905299 0.1494584 -0.051494688 0.18494919 0.08263551 -0.1313066 0.04850455 0.16893195 0.04552916 -0.14866523 -0.13898571 0.20468195 -0.046812944 -0.10034888 0.08220992 0.25452244 0.13195612 -0.013651789 -0.035842933 0.2378062 0.23797248 -0.26515144 0.09840499 -0.04295681 0.19308622 0.13316503 0.10943289 0.43218097 0.331694 -0.02718772 0.21495734 -0.034867376 0.08499011 -0.20465058 0.056742985 0.0060649845 0.15397327 0.028210009 0.028356994 0.24363399 -0.14661449 -0.094969 0.06251184 0.22659442 -0.0071835434 -0.043509364 -0.06178262 0.05572028 0.032467663 -0.29763725 0.08663894 0.17568813 0.19093354 0.0516617 0.09952841 0.20045961 -0.018428246 0.033110224 0.19362126 0.12010872 -0.03228712 0.122839004 0.045213353 -0.09008836 -0.01566232 0.08827389 0.25731617 -0.01479924 0.20643042 -0.054313872 0.21036337 0.2836317 0.033985455 0.07514662 -0.11119436 0.11465697 -0.022901814 -0.1362717 0.0105700875 0.13625377 -0.14961265 0.04972347 0.055358764 -0.04314713 0.020014733 -0.17957975 -0.100461714 0.05349397 -0.09259919 -0.039114207 0.06703258 -0.08894265 0.11900421 0.32348892 0.058155827 -0.12026215 0.3074071 0.15120547 0.18720053 -0.35180897 -0.019453164 0.1426373 -0.022331469 0.38292238 0.27651408 0.15932314 0.017783865 -0.27689308 -0.18684752 0.021091044 -0.07274995 -0.06428895 -0.07040315 0.028542487 -0.08773317 -0.22442488 -0.10972673 -0.17304324 -0.036682796 0.08127543 0.02335925 0.05773026 -0.26132604 0.19960745 -0.055969268 0.0043678493 -0.0013640068 0.013414007 0.557067 0.13926464 0.04559385 0.1661881 0.11667863 0.05989077 0.20651183 0.12822261 -0.028862791 -0.2987786 0.09479448 0.22611074 0.072871365 -0.034793224 0.13247661 -0.087663464 0.078369886 0.10788166 -0.15978983 -0.15086773 0.042278755 -0.13296106 -0.11989716 -0.3038936 -0.19918717 -0.08483303 0.03430984 0.045755744 0.15165658 -0.4152532 0.191251 0.0967798 -0.15678108 -0.20930621 0.08893444 0.19642161 0.1312597 -0.040218465 -0.17227636 0.3891193 -0.103478745 0.34942406 -0.3488468 0.38307574 -0.097260654 -0.090518706 -0.3335342 0.032536168 -0.13004893 0.06844076 -0.18103862 -0.11505246 -0.017894559 -0.03357796 0.1630708 -0.03804105 -0.2609818 -0.16408867 -0.13095166 -0.055024713 
0.104632735 0.24867694 -0.054633193 0.011049426 0.063153334 0.2594642 0.026301675 0.13060646 0.26871052 -0.08894424 0.16453116 0.024376996 0.04488946 0.008375823 0.03903821 -0.1815157 -0.056988224 -0.036343604 -0.1403959 0.14649314 -0.031926427 0.0004603086 -0.076437995 -0.21600682 -0.2765833 0.10763357 -0.32331952 -0.12814799 0.29195938 0.11733749 -0.17294843 0.09625126 0.1578896 0.042407032 0.3240255 0.22366169 -0.21418491 -0.1251554 0.03774879 -0.05310263 -0.027290342 -0.15053792 0.11944473 0.16870347 0.17012843 -0.21131033 -0.14977431 -0.055923995 -0.24618623 -0.08527986 -0.11918615 0.3237651 -0.14826982 -0.13760756 -0.052140206 -0.17516358 -0.38769194 -0.120746836 -0.18859303 -0.24874218 -0.08967262 0.10515743 0.27119362 -0.02105893 0.3383261 0.32802972 0.37045962 0.14984833 0.06281441 0.37678173 0.034448016 0.2058099 0.019129181 0.11860942 0.18564343 0.11759976 0.06697789 -0.20162027 0.21580274 0.034526344 -0.026503451 -0.043468446 0.013411048 0.08747734 -0.17246939 -0.08052316 -0.22910996 -0.19974686 -0.18481693 -0.05723881 0.03627893 0.036199067 -0.52571666 -0.14496925 0.2567691 0.10976215 0.16853334 0.3422223 0.18408367 0.4852508 0.227388 0.19017813 0.07939732 0.2500977 0.12442837 -0.2994479 -0.17291951 0.07067055 -0.12388762 -0.11253146 -0.12546565 0.40674022 -0.07061921 0.3032695 -0.074501865 0.17264722 -0.021825748 -0.048486218 0.01900832 -0.17191087 0.24370006 -0.10044562 -0.06002065 -0.01236823 -0.09085262 -0.036236055 -0.24857192 0.12353773 0.2905178 0.30106756 0.09620254 -0.09360295 0.06633395 0.08371024 -0.10943462 0.07637029 0.14665821 -0.41233087 0.005331806 0.10869098 -0.2990609 -0.1304102 -0.11970495 0.07785151 -0.09264544 0.17184332 -0.27407172 0.2914846 0.16628474 -0.06256347 -0.05067747 0.13258533 0.16740991 -0.10717134 0.13253418 0.05235906 -0.51688385 0.20562577 -0.05039741 0.05113927 0.11550883 -0.1353307 -0.09283275 0.28241974 -0.16370732 -0.31292835 0.055170488 0.10978504 -0.38513246 -0.14628683 -0.029388426 0.10829848 0.0069051418 -0.16135652 -0.07577484 -0.07842176 0.12994075 -0.030711904 0.01563658 0.31842965 0.18106855 0.10380138 0.09124221 0.20237628 0.07016677 -0.09518446 -0.23709507 0.074914075 -0.1804766 -0.06973741 -0.22926664 0.033171404 -0.23635042 -0.10074419 -0.109366804 0.11288704 -0.21692693 -0.1799152 -0.2088301 -0.026230289 -0.076666564 0.12578404 -0.00085644267 -0.15650856 -0.048585847 -0.06346466 -0.0743443 -0.31217498 -0.0048637865 -0.04567502 0.1444455 0.17817973 0.21967466 -0.08361885 -0.05398464 0.28479898 -0.015672803 -0.004861705 -0.022098085 0.11574228 0.05218633 -0.00396821 -0.116750054 -0.021912798 -0.13152595 0.08433578 -0.18534297 0.105566874 -0.17233625 0.09265298 0.065219454 -0.015768413 0.10868266 0.21835303 -0.070324294 -0.24759425 -0.13338387 -0.28101528 0.059382815 0.18684247 0.24650322 -0.39057896 -0.17236367 0.11498717 0.31121826 0.2203306 0.05715118 -0.024308803 0.40269595 0.27754155 0.2594023 0.04411207 -0.1383822 0.015375037 0.067437135 0.1725945 
-0.0720514 -0.23478416 -0.22238323 -0.24238512 0.1751717 -0.16171838 0.110193826 -0.3434188 -0.009871548 -0.23102948 -0.13229308 -0.108270876 -0.19712915 -0.028422708 0.060154535 -0.01238536 -0.0018897086 0.17711802 0.17817059 0.1512676 0.35765156 0.37493396 0.1258028 0.35231674 0.10582748 0.0044964147 0.12128114 0.14873652 0.23431322 -0.33055246 0.2172392 0.0030715617 0.07788922 -0.40084878 -0.24562006 -0.28709596 0.13849609 -0.0474901 -0.25106004 -0.2715886 0.19394661 -0.026977036 0.033819295 0.2644197 0.03753863 -0.06364301 0.054457147 0.06582093 -0.022144713 0.048951343 0.21011722 0.072535805 -0.2353738 0.04326274 0.0156240435 -0.025117852 -0.003138408 0.13311903 0.07628944 -0.107848436 0.2719138 0.21540059 -0.15370709 -0.22834563 0.28941345 -0.114014715 0.3984498 -0.30810925 0.074970245 -0.12343949 0.22365119 0.27095634 0.06295929 -0.06908795 0.07704058 0.1686012 -0.06991447 0.02073729 0.093756266 0.098164305 -0.1757471 0.12681147 -0.105286576 -0.12041069 -0.17343172 -0.085276574 -0.10244145 -0.28715953 -0.051953495 -0.11277272 -0.41962785 -0.023733782 -0.30359876 -0.068550795 -0.13587193 -0.28861746 -0.0025172345 0.09823263 0.4507226 -0.07417066 -0.2213895 0.05011513 0.23848127 0.0645021 0.18979084 -0.112855114 0.15112472 0.0223262 -0.22510205 -0.17414732 -0.119503364 0.1335005 -0.10277103 0.07512551 0.09250994 -0.089208424 -0.17319782 0.04363937 0.19170494 -0.03061689 -0.112934366 -0.03907767 0.19391376 -0.29951108 -0.001077171 -0.21908985 0.14593683 0.03193073 0.0783085 -0.35478106 -0.07005931 -0.02525784 0.021438224 -0.16923597 -0.29117724 0.07920728 -0.40762374 -0.110700585 -0.13675773 -0.09400428 -0.2241116 0.03932598 -0.059009995 0.14446954 -0.17282015 0.118443154 0.1359125 -0.30046186 0.1263061 0.08462788 -0.06128229 0.09311664 0.12803839 0.039045718 0.14839333 0.0957156 -0.0019438758 0.28067702 0.06852036 -0.015810229 -0.10725717 -0.03653578 0.04555499 -0.056918044 0.44679683 0.009798148 -0.052671093 -0.0579081 -0.19623443 -0.1350904 0.0769969 0.048866898 -0.3445673 0.23613353 0.10964414 -0.21228907 0.03644139 -0.03701744 0.04587058 -0.015113791 0.10366907 0.094854794 0.0450412 0.32619095 0.023452539 0.065693416 0.21679705 -0.02358903 -0.01916677 -0.16521429 -0.058974702 -0.07263349 -0.3791602 -0.122366376 -0.27842203 0.2677452 -0.11534635 -0.16734487 0.060787328 -0.08072556 -0.20701717 0.17160127 -0.008609845 0.01704702 -0.18896532 0.1432929 0.2033431 -0.25270835 0.14124939 -0.026784716 0.0865291 -0.017373925 0.17654394 0.2504837 0.1270001 0.30114496 -0.06991029 -0.12132574 -0.040303376 0.19828428 0.16863392 0.016126359 -0.04805041 -0.048140433 -0.16773616 -0.5977705 -0.29092392 -0.22597903 -0.27859163 -0.06083349 -0.062765904 -0.06296532 -0.16069801 -0.09146251 -0.023950983 0.049166683 -0.044651788 0.15285498 -0.036573045 -0.32132956 -0.036629118 -0.039208043 0.04825897 -0.11524755 0.31311482 0.15838106 0.36159408 0.46061283 0.1057313 0.45281708 0.37448257 0.15096119 0.17868942 -0.1521435 0.11908257 -0.22282761 
0.1538535 0.17091103 -0.10170507 0.19150618 0.1663069 -0.016539013 0.11708605 0.141376 -0.21874025 -0.29081726 -0.032772295 -0.21059558 -0.35488245 -0.13580023 0.124601744 0.023764223 -0.20266294 0.051147565 0.34970754 0.03679997 -0.020427965 -0.05734672 0.048739772 -0.22286758 -0.0754184 -0.04722952 -0.118721694 -0.33137077 -0.006286715 0.08074665 0.2306805 0.081563585 -0.06351805 0.025934156 0.11977406 0.3267206 0.13002834 -0.15855996 0.23771 0.19509827 0.06819666 0.12904032 0.19123302 0.089287445 0.058803666 -0.0605047 0.20465979 0.0055287182 -0.1166956 0.011974122 0.056838375 -0.15613331 0.036146697 -0.2413024 0.08334273 0.06545626 -0.049300663 0.122343905 -0.1089065 -0.013237962 -0.08708394 0.29668713 0.11372684 0.07114889 0.1068464 0.121806495 0.2831767 0.063235015 0.16026321 0.059508108 0.2886146 -0.10436739 0.2751585 0.051750656 -0.011201067 0.2944868 0.14553054 0.13906696 -0.0023103345 0.30285954 0.061753854 0.14230408 -0.0006688245 -0.05428754 -0.0012334329 0.0064897076 0.11611843 0.04517176 0.04176178 0.17964114 0.10563081 -0.022804206 0.007998193 0.13192317 -0.058748562 0.03615571 0.15957272 0.3101907 0.12717554 0.21005036 -0.040134944 0.18237196 0.1270083 0.049619496 0.25806946 0.07993759 0.027786965 0.08772509 0.2248384 -0.3613083 -0.11170784 0.37047943 0.05536726 -0.10386573 -0.5339218 -0.019861216 0.008932794 -0.076600835 -0.25985524 -0.035659403 -0.015671246 0.023211543 -0.09662 0.16707723 0.06502773 -0.1685135 -0.17995827 -0.0107034175 -0.25671074 0.24457438 -0.06682296 0.035366096 -0.07683841 -0.031107202 -0.12827083 -0.019399824 0.22738841 -0.21514508 -0.066017255 0.13846998 -0.027664635 -0.36374184 -0.4323805 0.051179096 0.099918224 -0.5830976 -0.16388413 -0.019607203 0.06924696 -0.1602677 0.122712255 0.08891941 -0.0019355967 0.16583644 0.29784495 0.11257075 0.2327957 0.11217189 -0.074922524 -0.008432556 -0.04535691 -0.15231007 -0.043166082 0.049564295 0.20921978 -0.018604964 0.0059061204 -0.08575452 0.029540122 -0.22687761 0.09737887 0.08238914 -0.04721297 -0.17859843 -0.14760241 -0.2861465 0.09929755 0.03753594 0.0103512285 0.05022888 -0.06612424 0.19132881 0.052902054 0.06867828 0.0024860508 0.01791796 -0.038703654 0.005649278 -0.26854277 0.1316152 -0.023292463 0.0072771134 0.13214493 0.2464485 0.23385602 -0.101679 0.09450678 -0.2039312 -0.20145477 0.10773526 0.099406295 0.026330933 0.008949756 -0.08207245 0.1014516 0.004502998 0.19188061 0.053022962 0.015420786 0.015906347 0.16743678 0.03298917 0.11302426 -0.22638935 0.05543407 -0.1061731 -0.28623012 -0.12972063 -0.40748572 -0.105691284 -0.1285403 -0.10246681 0.07623736 0.061999783 -0.25589606 0.39293817 -0.12345903 -0.030609023 0.27013624 0.020042583 0.09887093 -0.031099707 0.24516365 -0.1583858 -0.06010924 0.047681604 -0.045561273 0.057954777 -0.0087444885 -0.043959934 0.07015001 0.11062075 0.19048865 -0.09399842 0.1768501 0.19456767 -0.16535285 0.122111276 0.08537179 -0.034165427 0.1532225 -0.1305886 -0.11789366 -0.0015022325 -0.03072821 0.06213857 
0.2580515 0.36929187 0.3566785 0.3577049 -0.4724107 0.5220601 -0.33860496 0.054107834 -0.23872882 0.01735566 -0.06508772 -9.050223e-05 -0.08163678 -0.0037689798 0.014907724 -0.4078235 -0.14013098 -0.13475722 -0.19857219 -0.05164963 -0.37763137 -0.26367587 -0.07233664 -0.15518844 -0.06870445 0.100037545 -0.218357 -0.30537775 -0.29485506 0.22758144 -0.15759718 0.10999101 0.3022495 0.28697386 0.20640393 0.6348643 -0.33532003 -0.13083503 0.27536628 0.14028448 -0.3884241 -0.29898268 0.14418775 0.09144397 -0.08569969 -0.14983651 -0.13909826 -0.04520721 -0.1865616 0.062003076 0.04948886 0.10449115 -0.23331204 -0.14203182 0.022317525 0.026498158 -0.19324549 0.026721252 0.15924636 -0.11270412 0.17233479 0.09365455 0.2329969 -0.03748528 0.39126933 0.096789934 0.11668267 0.42963776 -0.0965473 0.27617708 -0.09143376 -0.023703124 -0.040571515 0.2481531 -0.0462322 0.06918934 -0.049206663 0.2658427 0.19203211 0.17172468 0.06532997 0.259134 0.3499223 0.037594486 -0.13108806 0.13238995 0.3828146 -0.006881823 0.03323075 -0.058732618 0.2785372 -0.12191093 -0.17652416 0.21762277 0.20392385 0.16538201 0.20542012 0.17316183 0.22873323 0.37044317 0.10334806 -0.033095144 -0.10336871 0.1800286 0.06607503 0.21560003 0.040836997 0.07613444 0.19082975 0.24854693 -0.098407984 0.018929828 -0.18326089 0.13197759 -0.018245561 -0.03428666 0.12660277 0.1601219 -0.09842872 0.024840966 0.14314851 0.093369976 0.063476816 -0.03827275 0.10306426 0.10668071 0.087295726 0.18621795 0.4676685 0.3037697 0.046574216 0.22882795 0.1443754 0.37232894 0.26806128 -0.16255413 0.29093486 -0.04502416 0.09939909 0.06944324 0.10704309 -0.15109721 0.013101247 0.05872614 -0.11478871 -0.21389411 -0.31186426 -0.14823999 -0.07838455 0.13061479 -0.19580211 -0.026048329 -0.0809153 0.23811954 0.15190747 -0.040688697 0.3008988 0.10148309 -0.053317565 0.40991777 0.022054562 -0.12846239 0.11420852 0.23440795 0.0725253 -0.35509166 -0.055480156 0.09962926 -0.10803322 -0.079217635 -0.07860421 0.02038495 0.11310704 -0.098920226 -0.14945239 0.07431609 0.033885 -0.026894115 0.12959346 -0.033377264 0.167625 -0.05820045 -0.058168955 -0.1881286 -0.115628645 -0.0111292945 0.086921826 -0.06894346 0.04234693 0.16279176 0.11682379 0.22038887 0.20117837 0.13754581 0.2021841 0.05307931 0.31883365 0.14516458 -0.1016168 -0.20279796 -0.3594083 0.081975594 0.1289644 -0.074495494 -0.09000104 -0.06540814 -0.033582214 0.0976939 -0.13290408 -0.1725075 0.022140188 -0.11819741 -0.13607153 -0.17182682 -0.096946545 0.14840737 -0.1969272 -0.058540914 0.013357385 -0.17100617 -0.19657136 0.0344037 -0.098416254 0.21170865 0.062725 0.50954825 0.08049105 0.34435105 -0.081659384 0.29715833 -0.01668001 0.15809315 0.2037122 -0.15691958 -0.15591317 -0.24803656 -0.048544575 -0.14791474 0.06713386 -0.014485252 0.31128842 0.12814295 0.25026792 -0.028771231 -0.10870462 0.011917556 0.28169215 0.039583806 -0.16436747 -0.14564402 0.3071222 0.21664949 0.073472515 0.3184481 0.08836451 0.392904 
-0.3390922 -0.2897462 -0.15197739 -0.25160208 -0.52051204 -0.16199943 -0.21133737 -0.3052998 -0.26752064 -0.082436875 -0.17147371 -0.06790059 -0.36718452 0.031402692 0.17132415 -0.2990389 -0.12681411 -0.19663514 0.081102744 -0.18877207 -0.21538788 -0.30770898 -0.03168835 -0.15460308 0.2608232 -0.52723813 -0.098820955 -0.07098957 -0.34012648 -0.24653706 -0.10699563 -0.20260468 0.39355934 -0.18655573 0.16058084 0.04046748 -0.14688839 0.021920752 0.08599001 0.30526885 -0.37411892 -0.037682135 0.08464479 -0.15438537 -0.27126855 0.35030276 0.040970918 -0.060446505 -0.044002958 0.2824006 0.30394596 -0.019014843 0.15224275 0.18055412 0.53110904 -0.12466271 -0.09012248 0.19838634 0.27367213 -0.052998673 -0.18274876 -0.22436479 -0.113850296 -0.03359025 0.38122696 0.08700734 0.21238627 0.1049222 -0.056628443 -0.011468961 0.0741606 0.21224117 -0.27824774 0.15298133 -0.02127606 -0.13935935 0.03890258 0.18908045 0.17927791 -0.3307881 -0.15006854 0.2326487 0.08192235 -0.08404393 0.17031398 0.034203164 -0.10337189 0.2699206 -0.013696237 0.018155156 -0.10635793 -0.0107845655 0.12519304 -0.023773842 -0.056305487 -0.07903312 0.022745661 -0.14394437 0.07516441 0.048842013 -0.14699994 0.28242734 0.0036452108 -0.03158377 0.059328444 0.26341602 -0.008787451 -0.014599258 -0.14261098 0.09641637 0.047596455 -0.21741953 0.023387726 -0.09865293 0.06944011 0.063892044 0.116855435 -0.19564782 -0.10374849 0.12652391 -0.2078377 -0.27425876 -0.2323632 -0.03582973 -0.12149104 -0.17599553 -0.17172995 -0.19484542 0.09290276 -0.17020991 0.1854063 -0.0062031173 0.0043422435 0.00991898 0.28334504 0.0788963 0.05045998 0.14056422 0.070443995 -0.07974455 -0.2663829 -0.037612926 -0.27868158 -0.08835238 -0.060817014 0.06941731 -0.18349263 -0.28197005 -0.09395297 -0.096787505 -0.18877451 -0.12545113 -0.12364739 -0.1309169 -0.03320775 -0.13334607 -0.08011283 -0.13062826 -0.12911314 0.07955748 0.05120637 0.14052138 0.12805884 0.18480396 0.021192 -0.14511766 0.026203414 0.03500141 0.16614376 -0.048689276 0.07672191 0.0011389253 -0.06287364 0.03784668 -0.11059755 0.090858124 -0.17163543 -0.2393701 -0.08777479 -0.2684626 0.074522205 -0.21728942 -0.30603728 -0.10530647 -0.078398235 -0.07694082 0.057845328 0.02825828 0.15167148 0.12638053 -0.15826744 -0.19609714 -0.016516386 -0.09816972 -0.020249551 0.09940868 0.11564069 0.015849475 -0.032363337 0.072436586 0.023641527 0.010881874 -0.030861206 -0.27328888 -0.08091299 -0.064346746 0.096192054 -0.02711376 0.21760187 -0.23429291 0.08651445 7.332027e-05 0.08915627 -0.030779736 0.014393 0.04946401 0.22837411 0.050431997 -0.032004967 0.2912416 0.24272507 0.11520248 0.27084544 0.2973197 -0.36955968 -0.19910909 0.031055382 -0.22792181 0.050012868 0.06764837 0.26687637 0.033142865 -0.20808923 -0.27456826 -0.09371769 0.194155 0.11546846 -0.030460093 -0.13946635 -0.15847456 0.044951588 -0.30594334 0.12953809 0.16634823 -0.0841489 0.017068652 0.2157533 0.3600208 0.08263711 0.10600229 0.4278029 0.17058162 -0.068269335 -0.016289156 0.025908528 0.33218607 
-0.12053044 -0.24599412 -0.086775176 -0.2146249 -0.3460981 -0.049530182 0.072787195 -0.033973362 -0.029646585 -0.001336571 -0.19397533 -0.013159336 -0.13943692 -0.13448535 0.018790135 0.038062777 0.013841881 -0.04317432 -0.177872 0.10631093 0.035874452 0.0004846456 -0.0010827704 0.0026784136 0.06753315 0.1460871 0.28645003 0.07000626 0.14476581 0.047774497 0.23751308 0.06603517 -0.021311544 0.11161946 -0.07905733 -0.011662432 0.12401179 0.08654683 -0.0027543665 0.14176808 -0.019914309 0.025694145 0.13458382 0.11330452 -0.048220407 0.18914366 0.25710276 0.022659328 -0.22640157 -0.0103216795 0.13494031 -0.20825663 0.21425106 -0.11029413 0.051917613 -0.09615377 0.14161661 -0.049359728 0.1409684 0.15297338 0.26095054 0.03874147 -0.0128025105 0.17392199 -0.23617981 -0.19295634 -0.33664137 -0.31077176 0.059203655 -0.020223482 -0.35372576 -0.01988684 -0.28245407 0.081287585 -0.21846588 0.101312734 -0.16681749 0.26237792 -0.18207757 -0.20403655 0.08465339 -0.012545056 -0.30605593 -0.17030661 0.14833356 0.08107397 0.15855215 0.016863102 0.13220939 0.07596632 0.19221886 0.1724109 -0.0040235915 -0.20897272 -0.2738748 -0.13514921 -0.46179435 -0.3725509 -0.3293188 -0.28544948 -0.17061983 0.005969817 -0.19382288 -0.3833029 -0.28150365 0.1172208 -0.022171494 -0.346907 0.23504163 0.32539755 0.045035902 -0.13409299 0.25248545 0.1259143 0.2634306 0.019467438 -0.02583293 -0.13985996 -0.17971629 -0.071769126 0.14108522 0.020833345 -0.21935248 0.12822218 0.24221434 -0.008147968 -0.08767501 -0.23078902 -0.23355043 -0.017770916 -0.15770164 0.11663844 -0.198057 0.041711833 -0.2242567 -0.27070296 0.11422927 0.21300343 0.05868661 -0.27928996 0.009485549 0.12624496 0.19667952 -0.088414 -0.07554742 0.20029859 0.2351887 0.028171502 -0.061315868 0.024421182 0.13288222 0.035663765 -0.29796985 -0.24009028 0.040297333 -0.11683072 -0.035402983 -0.14681342 0.08984934 -0.3581794 -0.17309536 0.1724982 -0.21730758 0.016310932 -0.491059 0.13375822 -0.05123996 0.16788802 -0.20402086 0.18238601 -0.11834234 -0.102034405 -0.100451745 -0.040363114 -0.09370894 -0.04544545 -0.1210039 0.17387407 -0.20699969 0.2881938 -0.09754588 0.006877487 0.04769026 -0.05014248 -0.057271875 -0.15150109 -0.077639274 -0.020905685 -0.104575194 0.02642242 -0.030157732 0.16174866 -0.28377837 -0.029634174 -0.12846489 0.19212784 0.011962303 0.28492275 0.16027969 -0.0670684 -0.016910091 0.14155947 0.22243401 -0.2291198 0.14101668 -0.035565462 0.21597739 -0.11130665 0.045020394 0.08471662 -0.04487918 0.06869416 -0.0032914532 -0.010130302 -0.067239806 0.20074481 0.22286962 0.055657387 0.047296844 0.09902219 0.30501872 0.1475673 -0.2135082 0.2191898 -0.05632161 -0.21649559 0.23567286 0.19574468 0.14053315 0.15330788 -0.3723009 -0.24789259 0.09834947 0.16092336 0.20655742 -0.007881662 -0.022374028 -0.1921877 0.104126714 -0.08471598 0.005987854 -0.07898816 -0.11534601 -0.056640197 0.3038876 -0.055347204 -0.027743354 0.069946796 0.10879067 -0.073266 0.004462071 0.23469532 -0.0720072 -0.07586814 0.10454429 0.151847 
0.2336148 -0.20362388 0.123783894 -0.15457936 0.14497375 -0.08010055 0.13496947 0.115410335 0.35888642 -0.14634767 -0.074309 0.12128063 0.342951 -0.011083189 -0.1713337 -0.1715467 -0.003972113 0.045415126 0.14500579 0.11246482 -0.020475749 0.079228304 0.13412596 0.0664745 0.015960606 0.0908762 -0.15365748 -0.17892781 -0.2952765 -0.03030998 -0.07291841 -0.25653514 -0.048578084 -0.034844916 -0.21115988 -0.06164919 0.06617552 -0.003802013 -0.22944582 -0.08079071 -0.115527764 0.07194992 -0.16580413 -0.46918577 0.19381943 0.029857125 0.0660873 -0.045768853 -0.27884388 0.16550262 -0.025206767 -0.051215786 -0.12915719 0.043456867 0.08340984 -0.11294492 -0.008110042 -0.0029310626 -0.11630607 0.07296776 -0.4740372 -0.10044399 -0.06538039 0.0006015999 -0.077028506 -0.15055463 -0.03758361 -0.0076054567 0.16440234 -0.03670759 -0.03785914 0.013005549 -0.15246807 0.10073792 0.024084497 -0.053536262 -0.04013216 0.072274275 0.0058430913 -0.16867816 0.0379217 -0.0019896026 -0.052261513 -0.19798467 -0.09596965 0.079982534 0.029904837 -0.02977571 -0.11359051 0.09249942 0.23107038 -0.01389504 -0.16440402 -0.054605715 -0.40490082 -0.016243985 0.07720186 0.12200071 0.17645228 0.0013193127 0.26833194 -0.29607776 0.18635455 0.2745255 0.24231318 0.032156687 0.0851841 0.05885957 0.08072194 0.03416371 -0.11535439 -0.09376859 -0.10174796 -0.16570263 -0.25687048 0.047654603 0.057328533 -0.23138517 -0.18042472 0.051510204 0.24108763 0.08561776 0.053445976 0.04106658 0.096204065 0.2535098 0.3885287 0.3082223 0.39001378 0.12572186 0.11988962 0.16557814 0.17734008 -0.08660369 0.26248604 0.22437026 0.22249882 -0.1389119 0.19826457 0.22432467 0.053287044 0.079617806 0.14698558 0.111411534 0.10451126 -0.0033343022 0.11813803 -0.024599971 0.13171463 -0.12307109 0.15534708 -0.09983834 0.1863872 -0.0039604837 0.07123011 0.10946628 -0.089367636 0.2441813 0.13020952 -0.013927889 0.064472884 -0.15793441 0.19567166 -0.16930497 -0.07311156 -0.02930235 0.060124613 0.22954316 0.05661466 0.20183499 0.06703306 0.18612316 -0.11945503 0.14047728 0.23299101 -0.08927577 0.15093967 -0.03961394 0.037955306 -0.279456 0.11642238 -0.14742196 0.11201619 -0.0288114 -0.024783896 -0.09413093 0.06558861 0.19593467 -0.08925472 0.2592459 0.21303917 -0.054957263 0.20048557 0.27511197 0.07743884 -0.18632004 -0.15256216 0.09887883 0.027318625 0.24148518 -0.17963281 0.014164719 -0.22651824 0.17592622 -0.13452089 0.12721471 -0.055243727 0.081214346 -0.05620005 0.025076287 0.0140184695 0.024108568 -0.18074577 0.06073239 0.011558492 0.023287894 0.05136328 0.10309972 0.17346019 -0.10454201 -0.27327025 0.31297565 0.1218061 0.06477737 0.21702468 -0.22288163 -0.066056244 -0.01633523 -0.13637099 -0.07646909 -0.038132194 0.08291287 -0.14249153 -0.09987765 0.10706817 0.044153392 -0.020020617 -0.10068592 0.01964531 0.27379757 -0.13890624 -0.2847427 -0.13320014 -0.2264545 -0.24594657 0.014528603 -0.3643623 0.020929124 0.13180369 0.053706028 0.24905407 0.10800237 0.025114741 0.2216254 0.08257761 0.27501655 
-0.25188965 0.17408471 -0.07818039 0.12467217 -0.14479946 0.10426719 -0.023827687 0.16589564 -0.08505533 0.011742709 0.284924 -0.030570416 0.017398903 0.34888092 0.11254596 0.118518464 0.0495822 0.09023367 -0.20606041 -0.120108955 -0.06609974 -0.14547619 0.17646073 0.028610358 0.34811136 -0.24021828 0.22664395 0.051571615 0.015245162 0.055256784 -0.3051632 0.15988645 0.009812234 0.17460829 -0.011043149 0.19779165 -0.05688737 0.00542368 0.15364142 0.0406155 0.061147273 -0.03230888 0.16432242 -0.06521626 0.07530261 0.08747802 0.12626557 0.03949048 -0.12044096 -0.04554064 0.10961055 -0.07884415 0.07866783 0.11490467 -0.2116284 0.16587257 0.11380295 0.03530904 0.040779233 0.21268897 0.14209233 -0.039902754 0.075528696 0.14802389 0.33118847 -0.0055339993 0.16380224 0.22653021 0.0911471 0.06050171 0.18319401 0.044947483 -0.13171986 0.11061785 0.016799081 -0.12582229 0.077878274 0.14573374 0.24559903 0.09665533 -0.016339054 0.05189138 -0.12353539 0.016036397 0.11299074 0.082037285 -0.22914006 0.12246498 0.24487504 -0.13786763 -0.010028962 0.1770421 0.25783977 0.04788501 0.11668283 0.48330352 -0.006216697 0.052132003 0.124369115 0.06469045 -0.18172139 0.17751944 0.22100706 0.10960394 -0.20294808 0.16930579 0.03525923 -0.1034161 -0.040042784 -0.1572261 -0.111879036 -0.19880654 0.13480246 -0.07726465 -0.14069042 -0.061971556 0.2782745 -0.27002546 -0.20148188 0.07916081 0.2848921 0.07156891 0.003158326 0.07385043 0.15723696 -0.11272375 -0.06408385 -0.19396509 -0.01333472 0.31556317 0.18696511 -0.09843004 -0.1610039 -0.21303543 0.102686614 -0.15238689 0.13845716 -0.00022914395 -0.13250768 -0.16021325 0.20010215 -0.0066683004 0.023692438 0.20546912 0.08268945 -0.07805103 0.20156613 0.12139437 0.26735324 -0.00665109 0.15889366 0.08530075 -0.12220311 -0.25630483 -0.019511104 -0.10716465 -0.041874517 0.1714593 0.10649294 -0.10928816 0.13208976 -0.04172588 -0.0643796 -0.18616311 0.26109895 0.13447641 0.03588312 -0.497402 0.4718047 -0.18351404 0.2138531 0.009448969 0.08120803 -0.2206826 0.04904345 0.31295305 0.0263016 0.16461554 0.18123144 0.09494765 -0.2240616 0.21391527 0.23003887 -0.12354432 -0.33689326 0.27523276 0.1884177 0.0075322287 -0.3057033 0.06017935 0.27666345 -0.07495391 0.48672783 0.15350205 -0.16060272 -0.017942283 0.6443254 -0.046730984 -0.044163916 -0.39327005 0.103650756 -0.3792282 0.024735954 0.11463205 -0.02376381 -0.12928745 0.0844519 0.41461787 -0.0719629 -0.010843273 -0.07704418 -0.12629211 -0.05869733 0.25267032 -0.09949944 0.048379913 -0.068238206 0.28167772 0.1794311 0.024327986 -0.15255365 -0.023114007 0.29481775 0.2577513 -0.2814351 -0.26143938 0.03148373 -0.0966046 0.09602198 -0.3802766 -0.35681775 -0.0319487 -0.22598864 -0.2540649 -0.066106446 0.21242103 -0.2335739 -0.08155699 -0.34473336 0.040382687 -0.066395916 0.1620436 0.022206614 -0.09647095 -0.09832483 0.14222343 -0.27722588 -0.13511668 -0.12182418 -0.000937775 -0.5727019 -0.1877301 0.08669357 0.19927074 -0.16952544 0.05130043 
-0.008068533 -0.16038784 0.02299117 -0.18122016 -0.08889117 0.12576593 0.21426196 0.15100613 -0.27534086 -0.09369745 0.065651424 0.030853253 -0.32944795 -0.33369535 -0.10469365 -0.16190268 -0.3896904 -0.2639361 -0.10418417 -0.16825469 -0.110772446 -0.4036176 -0.11416674 -0.32611433 0.26769206 -0.0813559 -0.2364374 -0.036960427 -0.31542322 0.20183101 -0.15059382 -0.087777235 -0.13678801 0.14824039 0.1623359 -0.18198185 -0.11198573 0.085862346 0.026736 0.28999197 -0.38672382 0.23926696 -0.02460382 -0.024338154 -0.13454844 -0.12193207 -0.062760025 -0.45222437 -0.09203072 -0.2438363 -0.025480924 0.015605063 0.017442739 -0.08358239 -0.01436535 0.29437888 0.1541322 0.106697336 -0.05982379 0.26074 0.42624727 -0.035775606 0.0012902145 0.26887682 -0.08304733 0.18501803 0.096844226 0.05215466 -0.032452192 0.045431215 -0.10509211 0.22012727 0.06965242 -0.06338093 -0.1492475 -0.20146105 -0.24972261 -0.14468798 0.16736816 -0.3377339 0.14409032 -0.11382322 -0.021012014 -0.20802715 0.22197293 0.07560556 0.044790886 0.29951507 0.20536283 0.3462101 0.055408094 0.30425298 -0.058402266 0.24745597 0.39441043 0.016222468 0.061256956 0.033375442 0.0080233915 -0.07513576 0.27751958 0.18486233 -0.09333327 0.17218062 0.20174725 -0.021736164 0.07686862 -0.07076883 -0.013249294 -0.47292802 -0.007634698 0.15117943 0.015585985 0.008401865 0.052836757 -0.05121564 0.14118187 0.2083967 0.14117311 0.032640617 -0.14695194 0.14041033 0.16447984 -0.09963622 0.010582336 0.0774807 -0.17485681 0.27067927 0.11081197 -0.12534122 0.0057278303 -0.3842234 0.13573202 -0.19674529 0.23099959 -0.09091188 0.10364307 -0.32683352 0.37577885 0.27589273 -0.16025862 0.13842517 0.12620153 0.20553152 0.08585889 0.038491715 0.032310948 -0.11297626 -0.091572516 0.06532915 -0.16110674 0.12535332 0.13215448 0.11133352 0.13640563 -0.105638266 -0.023249807 -0.07307805 -0.17927955 -0.03850067 -0.08391583 -0.21860111 -0.10531725 -0.004540988 -0.26637363 -0.19816776 0.0363225 -0.12441956 -0.28802285 -0.23100094 0.10327921 0.283797 -0.106261455 -0.09212598 0.05951534 0.48265848 -0.17033514 0.07422605 -0.11420854 -0.4134595 0.0057858387 -0.19724526 -0.19351643 0.08420168 0.0054855905 -0.19920477 -0.32303995 -0.17406176 -0.53402746 0.09476775 -0.17668062 -0.026333384 -0.12028863 -0.29824156 -0.08429674 -0.30487046 0.16217348 -0.097517416 -0.44133434 -0.0044662715 0.05817275 -0.22447422 -0.065272614 0.014136356 0.030939572 -0.16321847 -0.13069767 0.30914533 0.2315465 -0.14286922 -0.15514512 0.11675792 -0.074397944 -0.3242627 0.15297809 -0.21633384 0.20967962 -0.34743863 -0.119745426 -0.15357092 -0.33608314 -0.34816837 -0.20136987 -0.27792427 -0.3516016 0.109205194 -0.010734813 -0.21911865 -0.3567208 -0.11393274 0.28893465 -0.23772058 0.1991531 -0.19887096 0.25138175 0.05320293 0.037803896 -0.17815524 0.016420742 0.1960372 -0.010760321 0.087308705 -0.015859386 -0.0006457506 -0.13216662 -0.09433273 -0.3426861 -0.12065068 -0.082797915 0.09967553 0.11733811 -0.057430077 -0.4015289 0.133938 -0.20739047 -0.38561165 
-0.20546195 0.24116132 0.16799898 0.21017669 0.2566634 0.09877484 0.12026864 0.04128026 -0.068724796 0.0579461 0.11104236 0.10324994 0.008334758 -0.11420332 -0.24635693 -0.004845394 -0.04107394 0.027394367 -0.28851658 -0.025162296 0.14571063 0.18519586 0.11613063 0.27229926 -0.15915054 0.33332 0.32623398 -0.19441803 0.04955659 0.28126505 0.28384718 0.0036620435 -0.33136138 0.14303367 -0.16138418 0.1191426 0.07473321 -0.0554148 -0.10355542 -0.2798044 -0.19113775 0.04167984 -0.021150649 0.075171955 -0.06660883 -0.013226511 0.1951856 0.21929385 -0.18881112 0.12185421 0.06324921 0.022302166 -0.057631508 -0.011331673 0.09555729 -0.13932855 -0.14617725 0.066004716 0.12377997 0.055030957 -0.2690969 -0.23255935 -0.13144773 -0.023606338 -0.29953054 -0.007852878 -0.40805253 -0.14570527 -0.24455903 0.09728387 -0.29996276 0.10850117 -0.27397037 -0.012279592 0.027003977 0.12214436 -0.09562792 0.07451828 -0.10755645 -0.03410635 -0.17025036 0.16337764 -0.082945146 -0.09293874 -0.08084427 0.0072775516 0.059642315 0.10169156 0.12249901 -0.04287162 0.12103453 0.03762974 0.0015352202 -0.095193155 0.017889222 -0.013800755 -0.37185574 -0.19297698 -0.2249627 -0.07214562 -0.35385144 0.122619376 -0.0061593596 -0.0424113 -0.027295861 0.022902245 0.30440322 -0.19476072 0.027238632 0.15190938 0.37370756 0.026830135 0.0027156589 0.29903337 0.07070137 -0.123307206 0.13688323 0.060690068 0.15137957 -0.07110609 0.033774868 0.1578324 0.24990338 0.09972627 0.026499098 -0.036774874 0.075049154 -0.09142354 -0.26642758 0.033966742 -0.12544057 0.23833866 -0.19605502 0.17510833 -0.15826023 -0.12391152 -0.10837074 0.22321492 0.028487995 0.026530594 0.123239934 0.39170885 0.10020817 -0.28117734 0.22271195 0.095568545 0.032019436 0.13443778 0.19630477 0.11913179 0.3321298 -0.083799414 0.098819785 -0.0072734854 -0.12754093 0.24256131 0.13410705 0.0152579695 -0.1388413 -0.1842351 -0.15202 0.35716295 -0.2165974 0.15209608 -0.19819634 0.30286542 0.10107037 -0.027998958 0.109480016 0.038334925 -0.06922079 -0.009951944 0.19303273 0.034022667 -0.34422472 -0.21910864 -0.101793095 -0.12271977 -0.06312635 0.040257733 -0.27888075 -0.092342675 -0.08335 -0.29019666 0.030650012 -0.17863214 0.059786018 -0.030740574 -0.14328435 0.13191855 0.21733461 -0.2184607 0.13077484 0.46279678 0.13580066 0.19251502 -0.08611127 0.19988386 0.110005215 -0.054118346 0.21304116 -0.15643123 -0.06640571 -0.25259414 0.21277095 -0.07904108 -0.049911626 0.41452548 -0.22975583 -0.19092427 -0.21046495 -0.14677322 -0.25947222 -0.08943849 -0.1174504 -0.20776625 0.060064357 0.15223442 -0.17078756 -0.17221688 0.19869721 0.063740864 0.061163787 -0.21305062 0.05737342 0.7344501 0.21760629 0.3213552 0.4489689 0.12668064 0.6505867 -0.11601818 0.101463705 0.06484168 0.20921014 0.108699255 0.14950003 -0.09918229 -0.114762396 0.3503204 -0.16693713 -0.11119935 -0.3975058 -0.39990205 -0.056872033 -0.23199545 -0.4258293 -0.37408385 0.115933426 -0.18226394 -0.24189807 -0.100139685 0.16487865 0.036519933 -0.077899985 0.071236305 
0.024616126 -0.052387767 -0.08341181 -0.12598969 0.0501542 -0.16493031 -0.2970892 -0.16320473 0.05563622 -0.038530216 -0.11556801 -0.12255085 0.10798854 -0.25877154 -0.21918759 -0.25248122 -0.11229711 -0.2746616 -0.17572193 -0.1524036 -0.12078154 -0.25351444 -0.2444364 0.16741161 0.13153103 -0.14574364 -0.011666523 0.048528396 0.18490294 0.09482879 -0.016226744 0.07321354 -0.1372685 0.18751025 -0.028000418 -0.07923983 0.052358706 0.27081105 -0.16890907 0.14862148 0.07565724 -0.1331328 -0.09793781 -0.2122234 0.27455488 -0.051140945 0.042929847 0.0329376 -0.16268402 -0.041523673 0.27112952 0.061990168 -0.19220084 -0.0016318929 0.066371605 -0.2680777 -0.112534404 0.0335559 -0.02700676 -0.25372487 -0.3865252 -0.14102115 -0.03526744 -0.18708654 0.4005092 -0.10349966 0.24542971 0.0021062493 0.24219313 -0.2714059 -0.02100754 -0.1282086 0.18223023 -0.20586763 -0.015179854 -0.22802703 -0.21911807 -0.06728002 -0.028436072 -0.27790773 -0.13541383 -0.010687354 -0.24889727 0.18612365 -0.098996215 -0.021208981 -0.06410498 0.17197396 -0.07264842 -0.08965169 -0.326692 -0.09122013 0.13720484 0.057708833 -0.12035717 0.06336936 0.3110089 -0.14381485 0.029436307 -0.1963033 0.0066470164 0.0041987975 0.20822985 0.013746901 0.06277299 -0.04092235 0.055440173 0.27331835 -0.029560301 0.06834457 0.006416763 -0.14716363 -0.09346313 -0.26187855 0.02517176 0.08084737 -0.08106109 -0.18159771 -0.18256162 0.19880344 0.16567983 0.0830462 0.14453211 0.23396811 0.17930017 0.23165865 0.2621545 0.43405154 0.17479879 -0.32076085 0.08753058 0.011600307 0.15808068 -0.17113087 0.027814986 -0.10996469 0.13265885 -0.12901957 0.06422311 0.11637304 0.15205427 -0.24578343 0.2516909 0.29709014 -0.10836066 0.17379579 -0.13554852 0.20428607 0.043515403 0.11240889 -0.037755832 0.063307084 0.07417452 -0.2079978 -0.019796293 0.07144721 -0.059035044 -0.04333029 0.066655956 -0.20530497 0.012904289 0.13937265 0.26011106 -0.28271574 -0.02064368 0.04813104 0.050833847 -0.048016153 0.2510393 -0.17220137 0.0334233 -0.1415388 0.3187895 0.016078854 -0.05152006 0.22163075 0.10583685 -0.27024853 -0.05558653 0.12802024 -0.13371275 -0.08816258 -0.044059027 0.033117164 -0.20265815 0.08787861 0.055616755 -0.1328939 -0.0017160848 0.16444986 0.056959733 0.05008056 0.38314995 0.2854426 0.274555 -0.056067925 -0.10664629 0.1760604 0.062626876 -0.14359301 0.1762701 0.108839 -0.0502532 -0.02782008 -0.34696242 0.020946255 -0.079006575 0.11344947 -0.1827464 -0.1461019 0.0390204 -0.08298966 -0.37407583 0.10259961 -0.07535488 0.13112617 0.112854406 0.095700264 0.059049457 -0.24460892 0.26618475 0.1926943 0.30412787 0.2916829 0.00067655067 -0.110446 0.06662574 -0.07032079 0.25529027 -0.2552273 -0.21740265 -0.15016896 -0.06530558 -0.28557578 -0.34947544 0.095843114 -0.24509867 -0.15341821 -0.28294674 -0.0316452 -0.09720733 -0.123951234 0.072723955 0.015306761 0.24079977 0.14177482 -0.063241065 -0.076819755 0.3557578 0.32634553 -0.03469663 -0.15238412 0.036396563 0.16534081 0.06560055 0.21560526 
0.021901459 -0.054450948 0.028205743 -0.0927275 -0.22267754 -0.13425408 0.2009153 0.021749817 0.32830226 -0.007840767 0.037321687 -0.08453815 0.4777319 -0.21169707 -0.17039864 0.11968658 0.28406748 -0.19291587 0.120294325 0.014816591 0.081553265 0.038668048 -0.27422425 -0.10837927 -0.25228554 -0.1300625 -0.2757319 0.052226733 0.14787737 0.050845433 -0.008018454 -0.12089852 -0.04009654 -0.2541178 -0.08986994 -0.25871247 0.079685114 -0.12236701 -0.25740662 -0.17176595 -0.017459303 -0.11934373 -0.19710518 -0.17337617 -0.059294112 -0.26808396 -0.33616346 -0.0936865 -0.022312498 -0.10344813 -0.15522516 -0.033017453 0.057260863 0.08436061 0.112561464 0.2090875 -0.0402679 -0.09018985 0.011969888 -0.12833865 0.22530696 -0.010355131 0.023891916 0.020855939 -0.08625157 -0.20043986 -0.074715875 -0.26272708 -0.035705786 -0.2127352 -0.15042701 -0.25233084 0.122772 -0.16680825 0.11251654 -0.120416984 -0.030792972 -0.3019772 0.039813507 0.025888031 0.17324466 -0.17953148 0.066468745 -0.049092058 0.14225538 0.08647526 -0.015640378 0.16692202 -0.0766631 0.027590133 -0.07494479 -0.11851706 -0.3496019 -0.13846835 -0.22826566 -0.15977174 -0.12931027 -0.15216775 -0.014694527 -0.08289009 0.28883514 -0.27665785 0.11615799 0.07259223 0.21441728 0.054557223 0.44918427 0.1354464 0.003125453 0.21630357 0.09654249 0.11519611 -0.049521845 -0.25546077 -0.013410043 -0.25391433 -0.107991464 -0.020463333 0.1000729 -0.26527217 -0.09269803 0.1501811 -0.17213887 -0.20283021 -0.22742261 -0.07142056 0.045844115 -0.10360611 0.1861937 -0.1888626 0.20911974 -0.22311404 0.042904984 -0.24546303 0.43908083 0.19644596 -0.009430408 -0.036597013 0.07578994 0.034772698 0.19425198 0.023212515 0.11714886 -0.10771772 -0.013703373 0.17266443 0.025355574 0.05863038 0.17410015 0.04871765 0.097532436 -0.09301503 0.15737917 -0.07944747 -0.022079276 0.23961845 -0.098226175 -0.040539116 -0.31322414 -0.08891637 -0.36997664 -0.35508227 -0.07935787 -0.36427507 -0.28851464 0.055775363 -0.20966536 0.26684654 -0.08004335 0.0012863248 -0.0027052402 -0.32660726 -0.29011732 0.0064049973 -0.14606416 -0.13820033 0.006550722 -0.102156326 -0.123927265 -0.08453422 0.0058039734 0.09414532 0.1741468 0.22154102 -0.06996994 0.019800197 -0.12524518 0.22625118 -0.24769908 -0.23898764 0.044222075 0.016659042 -0.32301772 -0.30899373 -0.0064877723 -0.09838049 -0.14119141 -0.38357976 0.0015730351 -0.1625088 -0.07580815 -0.14264038 -0.19172566 -0.5799183 0.09677814 -0.061502714 -0.013527419 0.20394579 0.1699452 -0.047541108 0.13647567 -0.099504374 0.03024179 -0.13199292 0.028159708 -0.2587184 0.020920666 -0.08360216 -0.11172495 -0.00035666465 -0.32159638 -0.27095282 -0.17773901 -0.13219641 0.0035145283 0.021922035 -0.10950402 -0.24801283 -0.087133855 -0.27770814 -0.06697441 -0.2088168 0.21526457 0.10027469 0.08343784 -0.04846277 -0.0025407253 -0.10796106 0.04889307 -0.056334026 -0.36517775 -0.1304865 -0.5283908 -0.26890117 -0.21914841 -0.11845412 -0.35817704 -0.2083616 0.14594428 0.036942013 -0.45325586 0.3444452 -0.022547247 -0.11619809 0.20590149 -0.31762078 
0.10878626 -0.28645602 -0.30343744 -0.018282577 -0.17024933 -0.1366952 -0.29989734 -0.43172097 -0.10430198 -0.36101103 -0.24015734 -0.233589 -0.131481 -0.2749397 -0.37366208 -0.3252199 0.023803508 0.06776985 0.085122526 0.32030624 0.38698724 0.27414668 0.54697996 0.35691538 0.2453588 0.3621117 0.3384087 0.17845158 -0.12005494 0.25257224 0.19444968 0.043129526 0.08711282 -0.43735102 -0.17668363 -0.11334162 0.055058345 -0.117412575 -0.1363163 -0.035171125 0.031179057 -0.041718815 -0.12429561 -0.13653047 0.028815767 -0.027893582 0.0030429175 -0.028002094 -0.17428881 0.14120021 -0.0083336355 -0.2412294 0.10597417 0.23896308 -0.002675303 0.22106993 0.20738405 0.33381557 0.2589236 0.3070668 0.26400113 0.3459334 0.006318902 0.39468995 -0.5432774 -0.17331222 -0.19813927 -0.45523995 -0.042693306 -0.11657086 -0.06211669 -0.27780643 -0.08170579 0.10407445 0.003411054 0.07296874 -0.23518433 0.18951873 0.05220215 -0.2761378 -0.038278606 0.0067621204 0.10598426 -0.39983973 0.20206846 -0.09543344 -0.03306499 0.0040234188 0.35690784 0.2805512 0.3549771 0.28504074 0.37053853 -0.010630744 0.13463676 0.52112377 0.07396852 -0.0022549117 -0.0975055 -0.15556975 0.05781973 0.027343648 0.08897818 -0.121711716 -0.1385035 0.23286176 0.07306714 -0.1457821 -0.013033278 0.088613264 0.06058554 -0.20718881 -0.03848553 -0.05097916 0.06547807 -0.2638147 0.0040810015 -0.21565677 -0.14698772 -0.07374067 0.34518105 -0.1273005 -0.28809315 -0.022534452 -0.084717065 0.18919091 -0.13744532 0.3023607 0.098145194 0.17914124 0.10566088 -0.17831428 0.34138897 0.12991609 0.15562984 -0.08241073 0.08372516 0.02359959 -0.082651205 0.04863334 -0.036101546 0.08312331 -0.010853147 -0.07110304 -0.021728907 -0.07630067 -0.018327933 -0.10696103 -0.13745558 -0.083852045 0.02942826 0.019938815 -0.15379488 -0.120246395 -0.23467408 -0.141209 -0.22039686 -0.25529256 -0.24891911 -0.09384004 -0.013620976 -0.12747031 0.34064108 0.17486519 0.13734874 -0.12585077 -0.010258611 0.1474621 0.17974472 0.03517062 0.093908004 0.18310735 -0.06653983 0.10811411 -0.090496525 -0.23962575 0.016099049 -0.1276097 -0.09218689 0.05843121 -0.23078218 0.036959574 -0.2158214 -0.14845924 -0.009612877 -0.065569066 -0.018494926 -0.013109939 -0.034648225 0.027569475 -0.0058922283 0.10187294 0.27840036 0.29769877 0.013985664 -0.30858952 0.14252926 0.022210147 0.107914224 0.03592444 -0.23031385 -0.040825736 0.022449955 0.17601624 -0.32420138 0.06615611 0.20078336 0.12827379 -0.034699757 -0.10170165 -0.064486794 -0.113810286 0.022691615 -0.008605748 0.10866638 0.11571089 -0.13336985 -0.012808329 -0.055583056 -0.15609285 0.14127243 0.016566008 0.027312333 -0.009209991 0.14063786 -0.21784078 0.2122631 -0.16728908 0.16976252 -0.07460479 0.13065587 0.005669357 0.103047594 0.24961922 0.32739466 0.32050523 -0.1176348 0.07269247 0.11576187 -0.14195825 0.07495038 0.120152235 0.29310665 -0.21134676 0.08782243 0.008875467 -0.11472722 0.20210929 0.120883964 0.122859776 0.024471398 -0.09628445 0.2134633 0.06848124 0.05010187 0.054311395 
-0.21031025 0.040488075 -0.2627344 -0.013933312 -0.11464146 -0.054348197 -0.27968082 -0.42591524 0.26094493 0.3228135 -0.23364997 0.002063703 -0.08190722 0.27921844 0.29948717 0.31903568 -0.01605697 -0.17306979 -0.07837571 -0.11005936 0.15003967 -0.00012536556 -0.07305886 -0.09075263 0.19439074 0.1701769 -0.15209681 -0.066586025 0.18193564 0.19656824 -0.08814489 0.034918584 -0.31383687 -0.20599833 -0.11789503 -0.24716902 -0.29000813 0.022523446 -0.079492725 -0.041471865 0.036039215 0.090132274 0.019206239 0.05245382 0.08964211 -0.03499598 -0.06678108 -0.002436578 -0.095802546 -0.08489694 0.15707557 0.048991524 -0.12620863 -0.11757601 0.20417099 0.0025611524 0.1665105 -0.14760812 0.033244006 0.00062048156 -0.108052336 -0.11477536 -0.057078645 0.26597056 0.12594956 0.23601553 0.06751064 0.122141674 0.14484447 -0.1351472 0.14404324 0.06627136 0.14218242 -0.2523663 0.08402785 0.067163214 0.020501662 0.14455935 0.16220652 0.18705647 -0.20458607 0.19033009 0.16595899 -0.17361054 0.051682148 0.17375533 0.1217237 -0.00027966872 0.30491924 0.07358208 0.18692951 0.044638123 0.14302143 0.24104983 0.27511674 -0.10315665 -0.17146245 -0.24485402 -0.07865425 -0.03796787 -0.028741924 0.052976362 0.005394184 -0.04405006 0.108546585 0.24116917 0.08323824 0.22183056 0.2085158 -0.030298958 -0.045672644 -0.09565393 -0.29207742 -0.08015903 -0.3403711 -0.26186013 0.00017450441 -0.13956404 -0.31172818 -0.15634581 0.11284796 0.05202064 -0.20661335 -0.056340795 -0.30418673 -0.060385115 -0.46638685 -0.3348625 -0.38022465 -0.05960192 -0.14450482 -0.15777466 -0.06333485 0.16498329 -0.26787856 -0.16324611 0.11873979 0.019355401 0.08239476 -0.0014157793 -0.0061342395 0.04027489 -0.102976464 0.03653437 -0.11848884 -0.24407831 0.1544521 -0.17580311 -0.17793539 -0.37469193 -0.23956338 -0.37702513 -0.08582218 -0.21369088 -0.22017287 0.011273782 -0.05508862 -0.16859207 -0.16969928 -0.07647878 0.011491423 0.114554614 0.11495948 0.106256016 0.229689 0.11731985 0.017874286 -0.032601885 0.052263323 -0.10403926 0.27611914 -0.2872729 0.02669663 0.08069349 -0.1698616 0.145491 -0.19071193 0.22354405 -0.042438485 0.0028356304 -0.38253075 -0.0938312 0.0414246 0.105128214 -0.08835997 0.10824295 0.31107923 -0.16763127 -0.074963704 0.20937356 0.19923241 0.07326602 0.36367825 0.3271302 0.11931783 -0.036246162 0.1804679 0.0058243093 0.15828842 -0.14243747 0.146173 0.0018369197 0.06535865 0.1588464 0.07663976 0.032695606 0.075280085 0.13220133 0.25246835 0.14473012 0.124893576 0.343434 0.11486593 0.17643026 0.097696856 0.20058925 0.14651693 0.19314384 0.030796949 -0.060284555 0.07410458 0.37141883 0.21658996 0.10795675 0.12619203 0.039909333 0.01888641 -0.15507399 0.2499268 0.383384 -0.026742877 -0.302124 -0.15534748 0.18689989 -0.14330997 0.3442691 0.16817321 0.09458768 0.17787907 -0.111167006 -0.03078434 0.23733166 0.23556083 -0.015165315 0.42888716 0.2702962 -0.24005848 0.32826433 0.23395343 0.47901496 0.46248114 -0.0010994605 0.21542595 0.0019466305 0.108336866 0.15473941 
-0.32174093 0.104405314 -0.09397554 0.15973645 0.10832249 0.19099107 -0.24789354 0.017249372 -0.3951153 0.0637021 -0.15780637 -0.32526475 0.101443596 0.27222395 0.068293415 0.060313284 -0.058243882 0.0722913 -0.12259026 0.010991104 0.13252929 0.06007733 -0.028146187 0.18617246 0.2486368 -0.032673404 -0.1886454 0.08957259 0.013472755 0.013498777 -0.05166919 -0.1345124 0.051714335 0.022903467 0.0012200058 0.004058659 -0.21889478 -0.12969062 -0.015249144 -0.0893556 -0.032536823 -0.1221325 -0.025903918 0.052861925 -0.15350267 0.22630595 -0.06030058 -0.0746442 -0.09947584 -0.05917287 0.062112425 -0.21536165 -0.05482302 -0.14863646 -0.108219735 0.3235718 -0.07278734 -0.03641542 0.1437072 -0.04880755 0.121387236 -0.08781293 -0.08024062 -0.16120705 -0.04153155 -0.10609433 0.050578654 0.030033777 -0.006522554 0.0307798 0.0073287194 0.30621457 0.13818151 0.108248025 0.024554992 -0.16703814 0.01573812 0.24007635 0.09748113 -0.17424059 -0.06949214 0.39260462 -0.2121268 -0.24943778 -0.16674092 -0.07659535 -0.16412772 0.010556927 0.022468952 -0.07189883 -0.16948427 -0.0039354465 0.01927093 0.06558109 0.26738238 0.019339107 -0.11593633 0.2880709 0.166968 0.06685897 0.2758183 0.23677382 0.17257859 0.3088981 0.27940452 -0.058000475 0.089631855 0.28969103 0.20412673 0.14058153 0.15786004 0.080910094 -0.097546965 -0.0823123 -0.09297108 -0.25261188 0.04858342 0.0002842481 -0.21860722 0.219356 0.006626333 -0.018153219 0.21423277 0.12152247 0.13724642 0.28577086 -0.018108746 0.03158992 0.20186837 0.11664437 -0.2459065 -0.029964825 0.057269618 0.15506978 -0.02840454 -0.4461902 -0.14773917 0.23936725 0.13476458 0.12176708 -0.0163675 0.15121816 0.14429118 0.23526986 -0.16544573 0.010588589 0.30700353 0.23572718 -0.16093162 0.075347506 0.13191786 -0.42770222 -0.16886394 -0.13972211 -0.07384098 -0.3165115 -0.45680216 -0.07354635 -0.044461004 -0.13103019 0.079775564 -0.2838572 -0.37442753 0.008106976 -0.33693293 -0.2182387 -0.2305741 -0.10627512 0.13631155 -0.06481432 -0.23465109 -0.0070600477 0.023808975 0.17396641 -0.21718816 0.07443592 -0.20194507 0.10137319 -0.06779741 0.1879559 -0.11666439 0.084286235 -0.07138656 -0.112373576 -0.205901 -0.14724454 0.22727612 0.026015272 0.052953728 -0.13662791 -0.14663924 -0.23212835 -0.017260052 0.37557516 0.10460766 -0.21485673 0.12124668 0.05615653 0.04499877 -0.5024592 0.13198315 -0.015243519 0.22326624 -0.24024469 0.21318603 -0.074109 0.010397942 0.13400842 0.24780671 0.12378067 -0.111216486 0.21619843 0.26663822 0.20808223 0.035061255 0.10112333 0.18869673 0.11265489 -0.08393288 0.15760788 0.124974065 0.13069695 0.115324564 0.36027437 0.0021589086 0.41843 0.017568806 0.28524885 0.15964271 -0.14426734 0.3890892 0.094960496 -0.21279374 0.14770833 0.23275705 -0.025880367 0.071688294 0.37209883 0.18195142 0.050167065 0.031542037 -0.023800999 0.16332047 0.34259066 0.2683104 0.0048805424 0.1046684 0.23026961 0.03489072 0.16941866 0.4623379 0.07906484 0.3109903 -0.05615042 0.35056397 0.24251014 
-0.2076932 0.030798668 0.044414766 -0.08729624 -0.13980876 -0.07501151 0.011165342 -0.14297238 -0.32591927 0.12274877 0.038017165 0.42067078 -0.18632887 0.21278399 0.3449241 0.0056607174 -0.1350964 -0.016317753 0.20119475 -0.07381302 -0.08360442 -0.05874062 -0.13948528 -0.023664182 0.05841518 -0.37917688 -0.29357156 -0.18579343 0.034867376 -0.32125336 -0.120354675 -0.20551674 0.25146654 -0.08891322 0.14542262 0.1560009 0.10542287 0.32402343 0.08565387 -0.021343663 -0.17245743 0.38301075 0.078090414 0.0013672663 -0.39670274 0.27927992 0.08712208 -0.022845298 -0.23271772 0.24067555 0.26656625 0.05887387 -0.09645115 0.22296801 0.10616756 0.03621258 -0.15957724 0.15877983 0.21521702 -0.13582516 0.13644119 0.15788752 -0.14530495 0.094338395 0.07270954 -0.22492668 -0.03176264 0.01812362 -0.23946035 0.32770598 -0.17620522 -0.13409084 -0.09411149 0.20047095 0.19017066 -0.18588617 -0.20494018 0.07502861 0.17958783 0.044351224 -0.07819007 0.1315652 0.0717295 0.23602413 0.09646181 0.003020366 -0.04106716 -0.067904614 -0.17675717 0.122356676 0.037996612 -0.2986284 -0.026195137 0.004608527 0.02757963 -0.045956813 -0.08006879 -0.25179157 -0.030000756 0.21770374 -0.2615269 -0.065242514 -0.22202304 -0.21806936 -0.28998324 0.43730977 -0.054295544 -0.1722612 -0.012201804 -0.049657367 -0.046954125 -0.15747333 0.0312614 0.2663359 0.1915629 0.10076831 -0.08126957 -0.0034700066 -0.04629415 -0.12287977 -0.30758712 -0.12247295 -0.3027078 -0.067111865 0.12356059 -0.19509561 -0.50203544 -0.1813344 -0.17791812 -0.2227699 -0.19318898 0.25171766 -0.25056902 -0.02634745 -0.3163829 0.18419361 0.015775556 0.024542676 -0.21388288 -0.10980637 -0.09317968 -0.19415905 -0.018626116 -0.18935126 0.10649894 -0.036769632 -0.1666544 -0.077389605 0.045090668 -0.113126 -0.13380428 0.2362478 0.039282255 -0.2557203 -0.20749764 0.08235002 -0.039197717 -0.16524173 -0.28901193 -0.17314082 0.026864817 0.03669023 -0.08353096 0.33670074 0.107698604 -0.08270792 -0.18898539 0.0855301 -0.07111484 -0.006022129 0.04622799 -0.26338285 -0.34311688 -0.22685349 -0.16753237 -0.10490218 -0.17000484 -0.03350142 -0.1388008 -0.063557126 0.11349954 0.09886762 -0.026653912 0.024175087 -0.13336015 -0.0044165975 -0.003588497 0.021528812 0.19570088 0.032836035 0.008046626 -0.3033965 -0.13481629 0.10599093 -0.07596751 0.055419944 0.105028324 -0.27652153 0.0076357396 -0.36083725 -0.14204693 -0.05868649 -0.08539473 -0.44728804 0.15665467 -0.27316 -0.08153395 -0.064318456 0.17559123 -0.16251867 -0.040387567 -0.12328437 0.019582042 0.11292453 0.03052655 0.09377928 -0.06207446 -0.08032692 -0.20750755 0.04227522 0.10205134 -0.03012338 0.0032479211 0.0266254 -0.07934177 0.23262985 -0.14156786 -0.044647526 0.049637403 0.26240543 0.11540501 -0.34919286 0.04806236 0.33392188 0.052173436 -0.24886827 0.4526962 0.19585904 0.3952808 0.04747665 -0.123495616 -0.2817122 0.18214644 0.099928975 0.08024665 -0.44263592 0.037248574 -0.04955506 0.18687108 0.21874493 0.17783771 0.07900277 0.33821717 0.19043595 0.30027056 0.1727929 
0.017207481 0.4275844 0.37577388 0.45853043 0.46158585 0.2950429 0.42252567 0.5730718 0.2157644 0.111489736 0.22044247 0.35621026 -0.032255143 0.29704034 0.034209367 0.27187943 0.055071294 0.5524868 0.007449502 0.007898551 -0.1557616 0.30037865 0.12053228 -0.20003553 0.26383647 0.12232444 0.069500245 0.043435693 -0.1720238 0.091199055 -0.012497309 -0.25105086 0.12166595 0.3591812 0.16890994 0.41274503 0.08186035 0.27187455 0.13362649 0.061922424 0.23165405 0.12268699 -0.024286129 0.26787698 -0.013430145 0.15168095 -0.01614166 0.0857967 -0.1147951 0.04763441 -0.012855267 -0.065715216 -0.13031135 0.14721873 0.17684498 -0.32109076 -0.15297475 -0.022859726 0.21492444 0.11664315 -0.19008242 -0.041934405 -0.0076632565 0.009304434 0.0065559554 0.20536222 0.2053912 0.12525223 0.22902867 -0.015359731 -0.16036318 0.30668545 0.18548937 0.27823663 -0.14786538 0.10065426 0.03427757 0.33758736 -0.13925861 0.32962713 -0.08836433 0.1747486 -0.022277268 -0.25557753 -0.04869575 -0.25309408 -0.22562978 -0.013758234 -0.20626621 0.20290871 0.120884165 -0.17881508 -0.034707464 -0.036788896 0.1952651 0.11782953 0.12775682 -0.10378152 0.01623736 0.4448466 0.43118975 0.20004588 -0.16883653 0.24083254 0.059883192 -0.021245852 -0.16779545 0.151353 -0.22124298 -0.13896698 -0.22095099 0.086316384 -0.10831034 -0.3117781 -0.33466578 -0.1329386 0.013625132 -0.16052179 -0.20441116 -0.1085201 -0.16553263 -0.1785661 0.12798442 0.0092595685 0.094409615 0.20837806 0.029927827 0.012591052 0.08976114 0.36028242 0.22776958 -0.019083327 0.08525706 0.04481807 0.25631744 0.14822467 -0.08620916 -0.2560021 -0.3019129 0.14011903 0.0015126315 0.07530239 -0.2994514 -0.1926425 0.010934079 -0.19652432 -0.3419646 0.024634784 -0.015861735 -0.07016259 -0.18597752 -0.081157826 0.1046576 -0.015346833 0.077841975 0.15855168 -0.19106928 -0.011643263 -0.07519842 0.13209794 0.09206787 0.03524251 0.23465155 0.3488239 -0.2037953 0.30162442 0.0015306995 0.059829727 -0.11132816 -0.18616329 -0.0021419036 -0.005385678 0.055809792 -0.31255326 -0.13404119 -0.19249325 0.053637117 -0.3505829 -0.41339573 0.35615408 -0.04105954 0.13003324 0.0032948782 0.12952492 0.07904183 0.052858353 0.24363112 0.072838545 -0.33215672 -0.022570357 -0.13103175 -0.1101285 0.41250575 0.11037623 0.18758202 0.23682536 -0.030333819 0.105142444 0.15943697 0.58474165 -0.19342306 0.16919278 -0.13029562 0.3480406 -0.09606729 0.130831 0.16411355 0.023318827 0.11516494 0.07651647 0.18851449 0.044256225 0.08810316 -0.0748285 0.15318839 0.03647296 0.13666403 0.016730413 0.35397318 0.077971704 -0.26213968 0.28035054 -0.034313507 -0.23595598 -0.062355045 0.4826891 0.39605656 0.4337688 0.0036565727 0.36932188 0.07449516 0.10554918 0.002939755 0.3522144 -0.026353555 -0.058333203 0.23005675 0.17456597 0.14677201 -0.11347096 0.13283993 0.0742425 0.115249716 -0.17332721 -0.07101257 0.050812848 0.27150705 -0.14223212 -0.033513103 -0.14357482 0.34994742 0.12515736 0.037952054 0.13807587 -0.123396546 -0.047677025 
