10 864
0.102176405 0.03501658 0.075286 -0.021243177 -0.07971749 0.05403958 0.046158224 0.023523945 -0.057348788 -0.14059706 -0.14150454 -0.096847154 0.081289425 -0.059036367 -0.182779 -0.053662494 -0.0006977862 0.051284056 0.17380154 -0.112572104 -0.037647583 -0.13571681 0.002781753 0.10791289 0.23656954 -0.018517144 0.094976604 -0.08146417 -0.18114522 0.00036498267 0.09516636 0.014638188 -0.027973458 0.01807865 -0.20780544 0.014839506 -0.13522294 0.035298627 0.055451885 0.15675785 -0.15188615 0.012263704 -0.086314715 0.046591587 0.027482843 0.11759544 0.27275035 0.072564505 -0.004433963 0.0313667 0.14543897 -0.020043947 -0.19221187 0.12389525 0.021263078 0.026292382 0.2353845 0.026855486 -0.13299413 -0.073449776 0.028714431 -0.049321372 0.05126017 0.06116531 -0.14286119 -0.12373787 0.045147143 -0.046565827 0.06317031 -0.02944819 -0.0063579725 -0.11532362 0.05481293 -0.08504629 0.104733855 -0.12187329 -0.07935772 -0.10034284 0.12217711 0.060747832 -0.16890325 -0.0053959973 -0.010558445 0.100313365 0.22834516 -0.06776452 -0.052082706 -0.08494197 -0.080888905 0.010994574 0.11406814 -0.03434021 -0.22796455 -0.026925337 0.013549307 -0.0012133012 0.06582762 0.09035428 0.074218705 -0.023025785 0.028559124 0.014797609 0.44487986 -0.02683261 0.13504736 0.028744398 0.013883331 -0.0069478876 0.291208 0.04089469 0.119536996 0.09793465 -0.071911335 0.0058804187 0.26639244 0.06934611 0.12437921 0.022133024 -0.13336134 -0.052825447 0.3117355 -0.0041746404 0.15502293 0.03404672 0.06860248 0.004572689 0.05967829 -0.039874468 -0.017375167 -0.0011123862 0.15730084 0.1654873 0.12336341 -0.010175757 0.17784888 0.16239916 -0.14678487 -0.08054633 -0.07467225 0.057658814 0.16225241 0.0669382 -0.36809593 -0.1806588 0.16491258 0.040928785 -0.08595976 -0.1352686 -0.14914957 -0.07247954 -0.0036142196 0.12386171 -0.17979403 0.02393172 0.14991242 -0.10027374 0.043404836 0.04188993 -0.14603688 0.044299506 -0.059210304 0.027958922 0.03670785 0.17173673 0.099244915 -0.018345825 -0.12017251 0.0030351267 0.29170838 0.20237334 0.035981975 0.20740789 -0.4142381 -0.12021318 -0.12717266 0.21480922 -0.29604355 0.29617876 -0.23726775 -0.06872556 0.40352824 0.039973766 0.0033872102 0.32693088 -0.07594321 0.21926129 -0.18490545 0.023923062 0.29280782 0.3852881 -0.2980266 0.20528394 -0.63117355 0.29996184 0.44205204 0.32155603 -0.44767433 0.2553575 -0.20656137 0.23584615 0.36516973 0.107289046 -0.39459455 0.18968111 -0.14314291 0.13252662 0.23106086 0.3183223 0.16636841 -0.009165206 -0.1504288 0.078404255 0.1712873 0.117634036 -0.2317475 -0.20319992 -0.018494816 -0.03574668 -0.025406025 -0.015002061 -0.032313798 -0.09864377 -0.15238604 0.046919607 -0.19336112 0.096945815 0.113284744 0.08098128 -0.11707662 0.080185145 -0.08901302 -0.035009447 0.015800871 0.030387426 -0.17586778 0.12734419 0.05281461 0.118019514 -0.020248571 0.108639956 -0.5355702 0.13761252 0.06517759 -0.04192764 -0.007223165 0.0040822783 -0.07125101 -0.06551385 -0.16537187 -0.16397451 0.081290156 -0.04203917 -0.34490094 0.010735888 -0.010869302 -0.066093385 -0.040940918 0.056862812 -0.18824129 -0.21328017 0.37352273 0.07008466 -0.28452477 0.16308528 -0.63122815 0.08325209 0.5645049 0.17224672 -0.36243948 0.06788832 -0.8251037 0.28521863 0.37046817 0.25566685 -0.3999 0.31967208 -0.35582528 0.22647877 0.2615138 0.22364806 -0.24724445 0.22077098 -0.06947793 0.166226 0.20478015 -0.14838547 -0.107664265 -0.24995022 0.020822452 -0.067955546 -0.036485024 -0.1391484 -0.12998722 0.009929511 -0.15120597 0.1673238 -0.044388697 0.13771833 0.18352403 0.16833346 -0.18723972 0.19131021 0.07183349 0.14982405 0.12594612 0.16690002 -0.91805077 0.13665839 -0.08942481 0.019677628 0.24828771 0.076103576 -0.45630017 0.13097392 0.044506222 -0.04587515 0.20306793 -0.25877106 -0.65045863 0.30957583 -0.18234392 -0.5326315 -0.22418608 -0.17501113 -0.9965542 0.00080470176 -0.31590462 -0.695086 -0.36153316 -0.31509537 -0.74133253 -0.06728519 0.10255053 -0.2652859 -0.36986995 -0.1940771 -0.6688038 0.33233184 0.35940558 0.019845255 -0.5564983 -0.22610272 -1.2932267 0.4210429 0.30183914 0.10262596 -0.3772828 0.022905188 -0.76817596 0.34782723 0.27494767 0.19063358 -0.015302301 0.24574088 -0.2073775 0.32207102 0.22073309 -0.031158691 -0.11938748 -0.20858188 0.035297055 0.12848416 -0.06632372 0.013362582 -0.009713809 -0.18439077 -0.44963762 0.20980623 0.016048843 0.17974797 0.35335878 0.20315267 -0.6608897 0.27285418 -0.26993394 0.15087451 0.36022463 0.101392016 -0.9426924 0.23022082 -0.19648649 0.07270664 0.4858985 -0.24199632 -0.7905382 0.5051593 -0.11071624 0.45877004 0.026907727 -0.1806598 -0.4008734 0.3848128 -0.025926644 -0.565553 -0.3805777 -0.30634743 0.069084585 -0.10509724 0.028975468 -1.6595466 -0.4171795 -0.87814194 -0.36457247 0.21539105 -0.26514527 -0.36895806 -0.3340434 -0.46213108 -0.4916882 0.2930232 -0.15444581 0.067114145 -0.43121815 -0.30873471 -1.0552981 0.24470481 0.10421429 -0.07665573 -0.083610676 0.03903287 -0.7165073 0.33901656 0.11243857 0.21123938 0.060814884 0.19083886 -0.4336656 0.38144597 0.24898586 0.12133799 -0.09097006 -0.30821282 -0.08815655 0.077074625 -0.26947922 0.077973016 -0.021186342 -0.03327092 -0.49887434 0.14075316 0.23929238 0.09731164 0.23257232 0.08104537 -1.2011716 0.6413321 -0.1364713 0.26150727 0.23365597 -0.25789043 -1.2849388 0.41831532 -0.1997421 0.2070058 0.39798588 -0.2381982 -0.46348536 0.25074062 -0.27891627 0.028951291 0.0964706 -0.23465206 -0.42952612 0.5390011 -0.26247808 -0.7778966 -0.16365565 -0.72647786 -0.2778953 0.447564 -0.42144263 -0.6699602 -0.8088482 -0.581242 0.023534661 0.23000441 -0.065628536 -0.17246266 -0.28953165 -0.26827854 -0.59770817 0.1214186 -0.3826624 -0.23780546 -0.027224319 -0.3071116 -0.5987914 0.17778903 -0.18927723 -0.21531181 -0.012300615 -0.1141122 -0.35744214 0.122240245 0.03685747 0.42809385 0.21260855 0.28633395 -0.08741151 0.14283784 0.1585779 0.09597594 0.26588997 -0.33953634 -0.11647205 -0.07464121 -0.023818173 0.074597955 0.0074212076 0.07717768 -0.14826807 0.07643212 0.29132274 0.07387018 0.12366324 -0.03576076 -0.7185435 0.23984301 0.13670719 0.078867145 0.06597233 -0.2909668 -1.8680764 0.47473183 0.02093104 0.22474757 0.01670001 -0.1711732 -0.93066025 0.5639766 -0.24604094 0.18865603 0.073856525 -0.2641326 -0.90280414 0.62895745 -0.2080691 -0.19981514 -0.09393428 -0.83124703 -0.3906495 0.3519421 -0.36134776 -0.006391388 -0.28920445 -0.33715096 -0.58560026 0.31451926 -0.18289806 0.12913784 -0.21566014 -0.07632569 -0.47640333 0.069984935 -0.10790167 -0.36478046 -0.009162609 -0.28466702 0.027190981 -0.19421943 -0.1485286 0.116712935 -0.07423212 0.034529436 -0.054235827 0.054936264 -0.20121889 0.14167114 0.16534744 0.21735728 -0.017492622 0.06090431 0.08356402 -0.18162607 0.07613305 -0.2015552 0.09090273 0.044603195 0.09488857 -0.015934933 0.025897592 0.1064313 -0.19069895 0.22146831 0.031165184 0.051696446 0.07526592 -0.11031577 -0.055369344 0.28488907 0.12097505 0.19700983 -0.18662041 -0.21962301 -0.8545244 0.10223005 0.22903629 0.064309776 -0.14572029 -0.034945786 -1.1298575 0.23291278 0.088404566 0.100183494 0.036367185 -0.13418181 0.033706736 0.29858088 -0.121580176 0.16410902 0.09140243 -0.17636819 0.4508381 0.15573245 -0.045565493 0.24801217 -0.08191105 0.09089193 0.49007344 -0.11088539 -0.15619016 0.26104742 0.1402929 -0.08103036 0.6084884 -0.2649456 -0.3998044 0.07893364 0.21103467 -0.24582073 0.24576312 -0.025022892 -0.19815233 0.22212064 0.076981075 -0.046518967 0.24583358 -0.016709305 -0.41158703 0.080473505 0.013300316 0.007906967 0.06471341 -0.016271712 -0.14559451 -0.18489818 0.023315215 0.01646211 -0.02454498 -0.028886132 0.009087469 -0.027570846 -0.13009638 0.009007764 -0.17574681 0.13704483 -0.00045085893 0.36405 -0.28306028 -0.015717944 -0.2618718 0.5596859 -0.0238006 0.37435612 -0.26770645 -0.26490465 -0.022487402 -0.07936721 0.41442195 0.0745185 -0.4860363 0.17784889 -0.15629005 0.0028097616 0.47752404 0.21523617 -0.077639095 0.1381722 0.45253712 0.19597307 0.15070267 0.60478544 -0.080994114 0.09623458 0.94478184 -0.14749107 -0.026322594 0.63820213 0.13710952 0.17037115 0.98131704 0.047526795 -0.25059035 0.40362683 0.24929965 -0.043508675 0.42971998 -0.05491893 -0.39604393 0.2211007 0.08148698 0.00537069 0.19359031 -0.07824539 -0.37587607 0.28257403 0.12778 0.04589165 0.11130774 -0.14246076 -0.49970147 -0.06684844 0.09257941 -0.007723892 0.09286686 0.049700767 -0.03840413 0.010520266 0.050832268 0.08031333 -0.00091499847 -0.03692069 -0.09896357 0.016259123 -0.019261632 -0.044033933 -0.11210208 -0.12544428 0.011300743 -0.04905801 -0.04471509 -0.11698357 -0.092612356 -0.052073758 0.010275841 -0.08439622 -0.4007637 -0.19642632 -0.15567787 -0.1031914 0.13747732 -0.07862641 -0.35715526 -0.0031360663 -0.1317178 -0.6668068 0.4067787 0.066106915 -0.25390792 0.33344257 0.0694913 -0.600374 0.1558215 0.18882653 -0.0037297143 0.1862596 0.4494966 -0.23022902 -0.07614682 0.36272964 -0.1859312 0.3018162 0.307089 -0.11041495 -0.23458928 0.24517608 -0.095294565 0.25045803 0.24120502 -0.2361115 -0.3303648 0.09344913 -0.04195798 -0.08718617 0.24962938 -0.26433948 -0.42079562 0.15941864 0.08120799 0.039559893 0.046866428 -0.030410457 -0.112350896 0.12750667 -0.09550718 -0.13641547 -0.014594229 -0.0519025 -0.17662573 0.03100806 0.015183908 0.1363491 -0.018090215 0.11020878 -0.09199777 0.13714239 -0.04287826 -0.097046785 0.19871323 -0.073742814 0.10500405 -0.15318431 -0.29431397 0.022730049 0.2792996 -0.034241088 0.19839294 -0.26017883 -0.15079333 0.12690943 0.30216205 -0.26146802 0.23988429 -0.3563857 -0.09232162 0.049118996 0.32820648 -0.35692826 0.25413513 -0.5755727 -0.12320572 0.06544415 0.45300213 -0.3202156 0.1214382 -0.33005434 -0.043926127 0.27905458 0.45445123 -0.00013632388 0.19251029 0.18157873 -0.08925276 0.2249936 0.28445318 0.006986981 -0.10658945 0.15169455 0.011966704 0.04840337 0.30146408 0.004266977 -0.23434484 0.091441855 0.013168157 -0.34292272 0.16176602 0.05231693 -0.097622454 0.14774153 -0.102512226 -0.00801916 0.013416277 0.0069934963 -0.20529978 0.07763712 -0.03068246 -0.14683695 -0.052518234 0.09640024 -0.10991257 0.076187626 -0.1170003 -0.020636613 
0.07331 0.013643321 0.061150044 0.061292022 0.06699909 0.014978492 0.0735179 0.01576673 0.07524124 0.0249815 0.20525403 0.09916635 0.064133786 -0.00020200305 0.20143135 0.040926214 -0.07190593 -0.049412984 -0.030284116 -0.028801028 0.1548308 0.009923044 0.00074266025 -0.15868892 -0.10383578 0.15568742 -0.09279322 0.281294 0.100844115 0.026305536 -0.20002799 0.33479482 0.012545845 0.19600557 0.24814282 0.10377245 -0.19012369 0.16340138 -0.03489986 0.2300709 0.37170357 0.16992167 -0.10930681 0.1355143 0.15991811 0.06649394 0.010122116 -0.17250687 -0.06610693 0.08259081 -0.13892996 0.003933216 0.33669978 -0.107034944 0.012262277 0.11962907 -0.080814764 0.10620426 -0.17185178 -0.050947443 -0.008514461 0.14830917 0.015115295 -0.013655729 0.005716324 -0.084126204 0.10910287 0.07093619 0.046887662 0.009426205 0.05973447 -0.03948847 0.08518037 0.117236905 0.00493916 0.11348195 0.12556763 0.056590803 0.089275375 0.095217794 0.13047352 0.13276851 0.11889381 0.016455002 0.21523264 -0.12907192 0.15367089 -0.10373396 -0.24883318 -0.13847229 0.10121978 0.023280874 -0.203139 0.07497118 -0.31830588 -0.08632624 -0.30623952 0.24453028 -0.382143 0.2647494 -0.06866515 -0.26090205 -0.3633331 0.4304332 -0.35513753 0.2938589 0.18842325 -0.2362232 0.20735161 0.17179011 -0.44494578 0.1385978 0.104519546 -0.30789408 -0.57461166 0.15004458 -0.3938205 0.09100378 -0.12459748 -0.36012244 -0.26849 0.15213227 -0.28101414 0.15336193 0.20693046 -0.19930539 -0.00071090617 0.19350687 -0.059085533 0.105105825 0.16241552 -0.023379238 -0.027673392 0.12665537 -0.06134323 0.04998507 -0.25004643 -0.12324028 0.08569132 0.007872715 0.071022764 0.062493533 -0.1887851 -0.07475054 0.099729635 -0.014088198 0.12835641 -0.076113954 -0.10582307 0.1323867 0.04412214 0.025909107 0.216376 0.026465707 0.157473 0.03679717 0.22513734 -0.1465313 0.13010736 -0.067359395 -0.43432945 -0.19662894 0.17892238 -0.082576536 0.007574123 0.06836879 -0.55851793 -0.13369226 -0.3439598 0.44465178 -0.14238259 0.5169533 -0.21973039 -0.25082335 0.16129787 0.64903367 -0.3355925 0.8150029 -0.2365917 -0.48831314 0.37888676 0.5873828 -0.5413542 0.5750095 -0.26733842 -0.7627297 -0.32114097 0.44978252 -0.58671695 0.12338237 -0.08189518 -0.72574437 0.3111861 0.38927567 -0.5350594 0.080259606 -0.011263762 -0.46496028 -0.119547755 0.28564483 -0.40856478 0.01278684 0.016833035 -0.4210346 0.014577147 0.119084954 -0.2809654 -0.17733112 -0.03178335 -0.32846874 0.11923819 0.14910816 -0.22686754 -0.06986064 -0.3188422 -0.16929325 0.11542617 0.033714596 0.072665855 -0.023707466 -0.1178365 0.024917377 0.059619416 0.03511544 -0.040181905 -0.083854996 -0.2421562 -0.11982569 0.17714828 0.021802355 -0.0797014 0.025979862 -0.36853376 -0.20011312 0.13888094 -0.112883426 0.1979232 -0.23504975 -0.38233307 0.11375954 0.22290199 -0.014677286 0.12130654 0.12821813 -0.22442386 -0.049288053 0.6542783 0.4896623 -0.31489953 0.73793733 -0.37360263 -0.15533817 -0.24988447 0.6684961 -0.46380803 0.61897963 -0.12444774 -0.49561012 0.16613479 0.7314911 -0.32404625 -0.012996423 -0.36236653 -0.6631096 -0.2821132 0.5602878 -0.38000542 -0.59898305 0.09966856 -0.46703497 -0.1709805 -0.042305637 -0.5222682 -0.42979044 0.22942187 -0.3899699 0.08014348 0.05600914 0.037734624 -0.14976114 -0.02231433 -0.39457124 0.004974293 0.051463366 -0.19413164 -0.076188214 -0.2598295 0.018580964 0.047020916 0.09186444 -0.065396935 0.024869954 -0.08130814 -0.020299572 0.036205914 0.0878122 0.108223185 -0.07047656 -0.3225716 0.04045219 0.28265002 -4.8053334e-06 -0.030483278 -0.079155244 -0.09261371 -0.10833907 0.32929805 -0.1424083 -0.09597444 -0.18602937 -0.015622952 0.18026122 0.3606505 0.06507233 -0.26052853 0.19998822 -0.1141994 -0.16725509 0.46989992 0.3555092 -0.5253685 0.48832858 -0.0005702452 0.29717872 0.14992893 0.45546085 -0.01628193 0.046769198 -0.11965003 -0.22271049 -0.5282291 0.48201108 0.10805113 -0.5993362 -0.5034129 -0.42869672 -0.510365 0.51247966 -0.018563086 -0.927146 -0.08072839 -0.36275843 0.006781581 0.05289611 -0.19354597 -0.30430788 0.07582123 -0.12900233 0.09449338 0.109982766 -0.0018870196 0.08222475 0.074223645 -0.18254375 0.12311405 0.10672213 -0.17666893 0.07912624 -0.047191203 0.036143098 0.08141029 0.05021387 0.062091984 0.0087556 0.07000031 0.10201961 0.012092249 0.09913519 0.03593188 0.054803703 -0.010493217 -0.078040354 -0.060369737 0.18236426 -0.2665983 0.17531443 0.10635949 0.19543774 0.3642258 -0.20290898 0.022988364 -0.20376588 0.007781708 0.048255023 -0.32590336 0.12577106 -0.7392286 -0.018719371 0.3763247 -0.28543326 -0.59501994 0.20776828 -0.4452333 0.15083495 0.16805741 0.017338648 -1.2697245 0.61758125 -0.10328466 0.12533541 0.041742787 -0.29149702 -0.7964143 0.27516574 -0.065549105 -0.8438567 -0.23227476 -0.29176652 -0.7523161 0.2077848 0.2123489 -0.93065876 -0.1309125 -0.31308958 0.19888848 -0.13295248 -0.20127486 -0.36707604 0.19063261 -0.1346984 0.18826064 0.0051367185 -0.1283814 -0.022862079 0.083383955 -0.16714585 0.1351419 0.030521091 -0.16041386 0.06602102 -0.048733488 0.11228464 0.10550588 -0.040351942 0.16037764 0.035111822 0.049155228 0.12151202 0.16969642 -0.04835177 0.06070904 -0.021358827 0.03829807 -0.06935817 0.09970891 -0.10291646 -0.23009649 0.056593042 0.12957841 0.13311 0.2795387 0.12193442 -0.5730452 0.025083806 0.21121417 -0.17748922 -0.07166535 0.04717856 -0.39275354 -0.009074254 0.16864541 -0.5712898 -1.0837466 0.48373497 -0.4741612 0.38839558 -0.0169236 -0.12794866 -0.9487026 0.5739682 0.064251035 0.17034635 0.010944726 -0.28737205 -0.1489248 0.3197839 -0.17973396 -0.70304817 -0.13598472 -0.179568 -0.025353512 0.007455098 -0.12997058 -0.7038771 0.08485952 -0.55686444 0.15597868 -0.041615225 -0.076441966 -0.110265814 0.09134832 -0.18048982 0.045319907 0.032498688 -0.062457256 -0.032489773 -0.005983581 0.0743602 0.11564259 0.026028093 0.07090573 0.08450973 0.06771167 0.099550635 0.079037175 0.025608305 0.14713904 -0.041932423 -0.103687555 -0.003895702 0.2791813 -0.12664108 -0.052570183 -0.21304312 -0.17561023 -0.24334556 0.3358193 -0.06538752 -0.40988624 -0.058510713 0.22958538 0.15583643 0.39667672 0.09762173 -0.27982134 -0.07781675 0.05872353 -0.18018255 0.963909 -0.028025836 -0.12699234 -0.2847817 -0.630231 -0.68191 -1.2462683 0.4591211 -0.2306638 0.36499986 -0.3033395 0.014525418 0.429946 0.44856557 -0.15576744 0.13384837 0.094084054 -0.2403637 0.011973747 0.15253647 -0.3075353 -0.35560244 0.1870883 -0.31193328 0.08781244 0.08670071 -0.08406633 -0.06656675 -0.025259012 0.025485346 -0.0015810411 0.18832985 0.2551705 0.28786612 -0.2469943 -0.038948797 -0.045825105 0.12187348 -0.023027023 0.1279564 0.09048843 -0.015094001 0.0012822852 0.123264134 0.08914346 0.076108284 0.1744102 0.036663253 0.10404487 0.08570289 0.048519745 0.06362735 -0.0072855013 0.062592484 -0.03767436 0.24317187 -0.28517002 0.1089611 0.101016894 0.04264163 0.09937948 0.15853848 -0.33039427 0.14674017 0.32193786 0.20317188 0.057710007 0.20043986 -0.17581983 0.29247025 0.0018071432 -0.14304107 -0.07698811 0.14638132 -0.09366254 0.14838848 -0.4056717 -0.26398256 -0.20479326 0.16805825 0.065915026 0.47640243 -0.14986637 -0.22988182 0.9186815 0.2733138 -0.17926677 0.3277496 0.041453093 -0.4259333 0.5947965 0.2973548 -0.10569176 0.44369575 0.076349005 0.08249011 -0.04936002 0.40871295 0.35910532 0.5134366 -0.19257784 0.39127874 0.09807523 0.20082061 0.33495787 0.18872856 0.05081732 -0.057943 0.0044688443 0.1320121 0.1115088 0.10901391 0.07716737 0.14241323 -0.029624447 0.0297359 0.21536209 0.28335392 0.08373681 0.14985579 -0.008327149 0.20886002 -0.12554899 0.3411985 0.42373368 0.15539986 -0.024846261 0.1229627 0.051609926 0.18776487 0.18496434 0.2005226 0.22804473 0.11801753 0.16520868 0.16611359 0.14534156 0.17181025 0.35258192 0.29352182 -0.23322481 0.22656353 0.21754538 -0.03670741 0.16471756 0.19584952 -0.23299713 0.12490849 0.029266825 -0.50116855 0.011686336 -0.015018088 -0.029047329 -0.34017208 -0.124031655 -0.6704349 0.34203804 0.1366141 -0.21663125 -0.55764776 -0.39777938 -0.14133349 0.006148995 0.35225874 0.39989004 -0.14752911 -0.5637 0.29244334 0.2275852 0.124028094 0.48025098 -0.101248816 -0.11119647 0.13920861 0.057020374 0.027951589 0.17158745 0.13512407 -0.027227648 -0.11898457 0.03940239 0.02130906 0.34108618 0.07023728 -0.03423905 0.19847971 -0.014982225 0.023256538 0.16787378 -0.0054874388 0.29831725 0.1262823 0.10241262 -0.15972993 0.21644294 -0.10160148 0.05363554 0.20946293 0.079135925 -0.04062276 0.28371316 -0.01898553 0.17519681 0.09022317 -0.0068052057 -0.11658395 -0.049789768 -0.12633735 0.07898004 0.101390965 -0.025793787 -0.2885948 0.04911535 -0.203025 0.2905158 -0.117028736 -0.38354635 -0.11065463 -0.03422617 -0.63053745 -0.018053299 -0.2740851 -0.2726283 -0.23221181 0.17509316 -0.9218869 -0.22955242 0.065009244 -0.17555681 0.015801257 0.3586011 -1.1623877 -0.33388108 0.107056856 -0.0059048925 -0.037340537 0.47798622 -1.0321113 -0.14783596 -0.044513687 0.07293224 0.031105472 0.5120308 -0.22029951 0.15061636 0.124721535 0.119785294 0.064009465 0.4170643 -0.21758172 0.235822 -0.005664096 0.08512692 0.00956884 0.16972984 -0.26452595 0.0003875996 0.038870722 0.1409331 -0.061682448 0.15555677 0.0101498915 0.42123848 0.05187464 0.112134285 -0.00523042 0.23967658 -0.057764 -0.07361451 0.071735226 0.09514873 -0.008266654 0.022087421 -0.033549264 -0.15008874 -0.0737807 0.07716878 -0.07708646 -0.2694344 0.075341836 0.0048958124 -0.1716676 0.11695296 -0.0070249373 -0.0604049 -0.008067792 -0.019393625 0.01793146 0.14533134 -0.2981051 0.07295378 -0.2172723 0.017093843 -0.026857054 0.3026135 -0.35100234 0.2237423 -0.29970872 -0.13364768 0.2904518 0.17315283 -0.13503398 0.10336175 -0.35319117 0.20150386 -0.2590722 0.20442472 -0.20907937 -0.019191151 -0.403494 -0.0756712 -0.15397108 0.26009426 -0.24140128 -0.052061733 -0.14700733 0.18617542 0.22493665 0.16694073 -0.03728136 0.20506994 -0.022478152 0.11612649 0.003131202 0.14603925 0.02777036 -0.07331091 0.08439047 0.07168169 -0.0017637862 -0.017032322 0.078496 0.12068377 0.06668039 -0.0165149 0.12461439 
0.0107505005 -0.061734512 0.042981677 -0.098062135 -0.1224603 -0.11299168 0.035877686 0.011935639 0.045355935 -0.123414494 0.009465101 -0.08399216 -0.0339066 -0.07080819 -0.15579934 0.0426787 0.11038391 -0.014709204 -0.13397294 0.060897127 0.01341824 0.024977623 0.13718466 0.13166755 -0.15683545 -0.06249255 0.027606225 0.068614915 0.19176698 0.06407457 -0.012686929 0.020875046 0.10541288 -0.004475852 0.015885103 -0.0237033 -0.016579386 -0.014798868 0.011728277 0.012709819 -0.012648357 0.09949779 0.16010296 -0.123630084 -0.11169764 -0.10411076 0.09231474 0.28987524 0.06968837 -0.06540804 0.064233504 0.030295169 -0.37569088 0.004831557 0.0912924 -0.01918315 0.10419343 0.064649075 -0.27265033 0.13758266 -0.000486653 -0.008157635 0.13637987 0.040824864 -0.16765153 -0.022039616 -0.055922102 -0.04176413 0.038066447 -0.071684584 -0.1391218 -0.10503309 0.019816993 0.012868131 -0.10719719 0.039741077 -0.060437243 -0.006488527 0.07861715 -0.0718004 0.022409813 -0.12555443 -0.1970281 -0.02857357 0.22186111 -0.27991617 0.17123395 -0.1105717 -0.073949315 -0.071686246 0.29528546 -0.25809693 0.11605929 -0.25297078 0.14054795 0.03490305 0.58368045 -0.32994965 0.12954047 -0.21230899 0.034742832 0.14409606 0.4637237 -0.34779516 -0.041882496 -0.22324964 0.16126008 0.18892667 0.16305551 -0.22651821 0.2780475 0.058188315 -0.093520306 0.2648021 0.43125588 -0.120704986 0.33098227 0.26413846 0.18503986 0.26617208 0.09405936 -0.067354344 0.32367706 0.183331 0.016224802 0.008031899 -0.0041977013 -0.03844318 0.27093554 0.25914478 -0.2457141 0.2263914 -0.04811415 0.07764875 0.1103497 0.14543559 -0.23581536 -0.2335797 -0.05414076 -0.018988224 -0.020726457 -0.05978043 -0.083566785 -0.0054881754 -0.033654176 0.034067694 -0.09757223 0.08896474 0.12293517 -0.12302894 0.05846214 -0.110831924 0.06477742 -0.11205722 -0.19021447 -0.022211667 0.38943294 -0.23865888 -0.10657574 -0.2997351 0.012966754 -0.06322906 0.49640524 -0.2852613 -0.3369011 -0.08131785 0.053470343 0.089901604 0.5647557 -0.2945431 -0.03016134 -0.07174808 0.009969223 0.14233167 0.093353905 -0.38014564 0.11645424 -0.12734462 -0.20308742 0.040688213 -0.40367016 -0.4021683 0.3284077 -0.11475491 -0.48591384 0.066757016 -0.16201359 -0.28002363 0.3886361 0.10214193 -0.43853158 0.025705116 -0.057710122 -0.14685214 0.28268516 -0.18524511 -0.53415614 -0.05625636 -0.381065 0.18700725 0.14618377 -0.11958713 -0.61349475 -0.12139608 -0.11086952 0.08677991 -0.04978056 -0.14398855 -0.13965641 -0.059765916 -0.13317254 0.11740837 -0.03234518 -0.12190441 -0.272249 -0.10284917 0.00869035 -0.16564228 0.07111687 -0.07718453 0.009876439 0.06179069 0.30526102 -0.31097093 -0.31750676 -0.13976164 0.1068907 0.03459733 0.7149059 -0.44212556 -0.23170201 -0.13405097 0.09621219 -0.14999649 0.7337789 -0.6611919 -0.34319675 -0.07195899 0.08656094 -0.05554463 0.88601214 -0.50555104 -0.18895558 -0.21966912 0.028183946 -0.060042128 0.769738 -0.55379385 -0.0048463405 -0.55502737 -0.3723475 -0.16160597 0.3258212 -0.40127605 0.10355896 -0.07677341 -0.31101927 -0.0667408 -0.5762674 -0.11403196 0.17121911 0.34560356 -0.46279386 -0.17539866 -0.90321183 0.19625734 0.08834146 0.08963444 -0.5398874 -0.23971178 -0.6798281 0.35836163 -0.123692304 -0.12227593 -0.39758703 -0.13440925 -0.2581729 0.26008615 -0.23825395 -0.18561365 0.17574857 -0.07572248 -0.052116722 -0.05688153 -0.23807791 -0.25687543 -0.21863611 -0.10982876 0.02846015 -0.14866346 0.08935445 0.0036255734 -0.018366838 0.11660561 0.3586354 -0.32857034 -0.15384403 -0.26170242 0.15197712 -0.0010267494 0.7203713 -0.7388987 -0.45733443 -0.18648298 0.10516434 0.023556145 0.6369127 -0.96532094 -0.06056914 -0.13532405 -0.12831172 0.20723678 0.6811758 -0.6664517 -0.106096886 -0.16903692 -0.15016507 0.19105656 0.5740803 -0.5156952 -0.021725673 -0.2771886 -0.33242083 -0.2669166 0.105752975 -0.3492518 -0.032489166 -0.058493156 -0.37637234 -0.4499012 0.0018135953 -0.16659807 -0.19782287 0.21143466 -0.33402178 -0.3632295 -0.6540959 0.0903234 -0.2284979 0.12974365 -0.25915176 -0.2116337 -0.46466932 0.35269913 -0.168057 -0.1530682 -0.1916766 0.020267935 -0.12936728 -0.03484496 -0.23735677 -0.18489447 0.13395682 -0.06035543 -0.010883955 -0.051817458 -0.1458411 0.047121298 0.22022183 0.1605602 0.04769974 -0.18141183 -0.07637552 -0.18204576 -0.047215894 0.074075535 0.26105675 -0.28783542 -0.25200197 -0.039578285 0.31887147 0.3796218 0.5914664 -0.7161126 -0.2015988 -0.18303698 0.57646805 0.3595612 0.720706 -0.6790346 0.09099581 -0.0057156547 0.44473836 0.61424005 0.63522077 -0.22099397 0.2357689 0.039519463 0.33984494 0.66038716 0.6122267 0.08195779 0.2406437 -0.028747765 0.001935036 -0.026635416 -0.23830625 0.048750244 -0.091847524 0.14636253 -0.3881567 -0.2712921 0.20715337 -0.014347071 -0.43138123 0.26009348 -0.28674403 -0.405998 0.23425974 0.14779814 -0.5644465 0.23790728 0.08572511 -0.043517455 -0.06749046 0.051189415 -0.5977799 -0.2601996 0.14796035 -0.2627468 0.25260127 -0.20728347 -0.547085 -0.3487556 0.48927635 -0.046581935 0.05830128 -0.06799433 -0.31824455 0.027496245 0.5355862 0.4516163 0.041644666 0.13143617 -0.14128351 0.019139847 0.0673463 0.114024 0.002276216 0.0843324 -0.24292704 0.10333154 0.30441958 0.19747265 0.4697653 -0.021999346 -0.2519715 0.123635784 0.7083454 0.34684753 0.31170517 0.131528 -0.31015515 0.029238274 0.84578824 0.56060237 0.2407055 0.4220527 -0.20274232 0.05730231 0.6544639 0.5741534 -0.18776971 0.42606983 -0.21046032 0.26277333 0.37594694 0.11858536 -0.8936775 0.2887127 -0.37433457 0.24560013 0.16163246 -0.14054747 0.3669811 0.03408584 -0.60290813 0.47600403 0.08830053 -0.23284851 0.32844263 0.007790857 -0.69179434 0.17976467 0.27460083 -0.09386936 0.38455474 -0.049193937 -0.49656302 -0.10979285 0.4383802 0.15680936 0.34119308 -0.3413097 0.11898233 -0.18404907 0.2472466 0.13932598 0.04440898 -0.12775113 0.12888576 0.0681446 0.77701616 0.6258253 -0.21312603 0.19137543 0.10101705 0.20673376 0.20141013 0.111101344 -0.25593725 0.29466242 -0.071621016 0.2699133 0.32314342 0.22064021 -0.4334691 0.33660161 -0.3876626 0.06813257 0.46923396 0.22800624 -0.5801294 0.4283477 -0.5167851 0.13389724 0.6612411 0.029410562 -0.8424187 0.6331674 -0.58382034 0.16802588 0.6259301 -0.010720815 -0.11499162 0.33766496 -0.2731665 -0.13861258 0.3711902 0.023649199 -0.24692209 0.050172742 -0.39853153 -0.106445774 0.38443854 -0.11892578 0.25721523 -0.21959448 -0.4912663 0.14292611 0.3190725 0.14538722 0.67799115 -0.27350554 -0.19461519 -0.12899826 0.38648713 0.24047397 0.72053707 -0.39648673 0.09112424 -0.18968508 0.3924041 0.10477799 0.5888766 -0.5685615 0.38171682 -0.12777977 0.33139735 0.13588078 0.28522274 -0.31259704 0.18707561 0.16382048 0.48597312 0.55490124 -0.021450756 -0.17981997 0.23437984 -0.03975098 0.36863148 0.15029892 -0.27709958 -0.015960585 -0.03694507 -0.13238049 0.14594847 -0.004868588 -0.38490233 0.2843705 -0.17512937 0.097175084 0.40455922 -0.26029387 -0.62283283 0.5214144 -0.28452697 0.0845803 0.2890252 -0.27816534 0.019777356 0.32141957 -0.29998875 0.2813367 0.42465487 -0.13308337 0.7360673 0.1538941 -0.31491783 0.32638866 0.47450218 0.00750491 0.31477535 0.026530288 0.03631918 0.31240413 0.49511865 0.19764353 0.19847457 -0.10467252 0.36111182 -0.03022119 0.39902484 0.49946147 0.6934426 -0.41814035 0.6365685 -0.021526657 -0.02196941 0.42027658 0.63867253 -0.7516743 0.75215185 -0.109866954 -0.029842628 0.26014462 0.31110567 -0.46644288 0.5645929 0.113070965 0.0021111232 -0.04846785 -0.023585575 -0.12769398 0.319788 0.127483 -0.07552184 0.39924836 -0.094267756 0.087205805 0.12032726 0.1645591 0.20226416 -0.0280004 -0.07581713 0.1459724 0.012505902 0.07140627 -0.106706575 -0.08488078 -0.36697668 0.15729243 -0.22665511 -0.006503536 -0.049383357 -0.3987518 -0.29371423 -0.08132616 -0.31853986 -0.13238177 0.0044510504 -0.39168572 0.18428035 -0.17607969 -0.37750125 0.22554888 0.12745099 -0.020105258 0.26881465 0.029342802 -0.11303166 0.24944302 -0.009611314 0.16873261 0.4044968 -0.2252046 0.39195642 0.20069958 0.09127292 0.4211548 0.48896855 -0.44178468 0.76091796 0.010542915 0.20646328 0.48636878 0.431015 -0.48185277 1.0630575 -0.024270937 -0.24886093 0.403688 0.15066934 -0.40517613 0.92822677 0.21368675 -0.21493928 0.3537544 0.1759063 -0.24276836 0.5134884 0.32867655 -0.25167602 0.3270987 -0.05726417 0.03770069 0.239117 0.16970877 -0.09506304 0.01683867 0.03930463 -0.13561285 0.08080909 -0.285911 0.023192557 -0.22874168 -0.11929841 -0.24470945 -0.22846988 -0.161107 0.10543709 -0.3589065 -0.124825716 -0.3048904 -0.193234 -0.35461882 -0.24920568 -0.31150815 0.05620584 -0.44202107 -0.116166 -0.24700262 -0.37983868 -0.09576012 0.14292674 -0.4210159 -0.11776058 -0.07855311 -0.24602847 0.25416914 0.19470192 0.011310423 -0.15701242 0.5921182 -0.26624456 0.15937354 0.34263533 -0.22595024 0.3328616 0.33489323 -0.2953561 0.29674125 0.45562378 -0.4138298 0.5342377 0.12957999 -0.23532417 0.43874514 0.2411084 -0.55612177 0.8302564 0.18463215 -0.263961 0.084452875 0.032039735 -0.1952802 0.6242312 0.120874174 -0.214695 0.22019462 -0.037516475 -0.07999857 0.31282133 0.13820463 -0.15570368 0.10770937 -0.02055175 0.027790936 0.1595006 -0.021082696 -0.101063326 -0.037458323 0.02352676 0.012307215 -0.03782554 -0.13583818 -0.21237898 -0.114527315 0.17910314 -0.13450716 0.100602865 -0.17921753 -0.29105303 -0.10998959 0.24451509 -0.23458181 0.14255822 -0.3859923 -0.1259124 0.081407264 0.23927346 -0.18300857 0.055304676 -0.42393535 -0.017557003 0.0018966638 0.31786728 -0.15645596 0.21271022 -0.08849378 0.042981263 0.35145703 0.13985848 -0.08226872 0.26221827 0.08241765 0.001310278 0.21938951 0.0732055 0.20458779 0.20436831 0.25206223 -0.064364225 0.2796449 0.18483293 0.0061878804 0.39841133 0.063734576 -0.1719114 0.16744073 0.07864169 -0.09100641 0.22638485 -0.11728118 0.025444139 -0.13703573 0.06926907 -0.065985724 -0.05140162 0.022616042 -0.18612184 -0.018532291 -0.0024016642 0.02656311 0.047741544 -0.03856191 -0.092139564 0.06107992 -0.016542852 -0.01808563 0.040130343 -0.067819506 -0.15105033 -0.09649573 
-0.032484904 -0.09699098 -0.1118523 -0.076873116 -0.07917962 0.008107324 -0.0988555 0.036177106 0.00035870314 -0.039286584 0.011508877 0.0035159534 -0.10947366 -0.088661365 0.03425401 -0.077347785 0.01579329 -0.058070112 -0.13181831 -0.067986004 0.117208935 0.088310316 -0.036257032 -0.18960154 0.08762712 -0.15471904 -0.058960665 -0.13422388 0.081427924 0.012044292 0.014362799 -0.11884141 -0.04891166 -0.068029165 -0.00060699723 -0.025846055 -0.05740886 -0.009394649 -0.084644556 -0.020414554 0.16441219 0.19255957 -0.039366394 -0.08387373 0.056751605 0.12124729 0.03521988 0.3419975 -0.10755145 -0.08434452 0.28805077 0.07782306 0.080742545 0.2766703 -0.05380583 0.019857137 0.17609923 0.04542347 -0.16853331 0.04877276 -0.053946473 -0.015446663 0.12711552 -0.011413534 -0.32966432 -0.07493165 -0.0002287135 -0.011267125 0.094714314 -0.0622702 -0.07398882 -0.00073686516 -0.15724118 -0.073126055 0.05225172 -0.048897363 -0.0437128 0.040798664 -0.01859463 -0.026713913 0.19087839 -0.030827574 -0.036266565 0.027084667 0.013054424 -0.04610805 0.17214285 -0.17611584 -0.039009064 -0.10775448 0.09784481 -0.19386491 0.02704104 -0.14851762 -0.15850571 0.095373474 0.16896977 -0.2512478 0.17386712 -0.0646423 -0.09915182 0.2117624 0.15413508 -0.33796614 0.14332229 -0.14680071 -0.017697588 0.22318512 0.16630381 -0.29491368 0.46067193 -0.06405687 0.06916673 0.09996463 0.050650295 -0.11826802 0.32489774 -0.02842923 -0.056116696 0.07322271 -0.26253292 -0.034366935 0.16177684 0.13559191 -0.12105267 0.20651336 -0.19525647 0.049569383 0.33232018 0.2136236 -0.0731113 -0.025731266 -0.1469955 0.05062087 0.03429067 0.11393166 -0.10626991 -0.003486703 -0.02205673 -0.12088433 0.033551868 0.06851395 -0.25670564 -0.1248826 -0.07849705 -0.10272501 0.13403715 -0.01405881 0.04756886 0.15738769 0.16049495 -0.18535283 0.2173631 -0.22608003 0.101238824 0.14446402 0.34745067 -0.26985872 0.09490374 -0.22096479 0.045130443 0.11864409 0.6911609 -0.6590643 0.19807026 -0.38140854 0.052975077 0.2176915 1.0116192 -0.64074343 0.41304424 -0.41051605 -0.06774627 0.38893005 0.7619578 -0.38040295 0.6632106 -0.10977263 -0.20206085 0.33187047 -0.17589739 0.12247085 0.43718502 0.216791 -0.38598993 -0.08916575 -0.73340166 0.26070789 -0.008564609 -0.074927434 -0.3259851 -0.13685018 -0.61888325 0.20478062 -0.1606925 -0.14796108 -0.34610435 -0.12722282 -0.50457716 0.2582848 -0.24098928 -0.11162426 -0.219504 -0.017389392 -0.16279522 0.09861184 -0.055866323 -0.17542508 -0.24608316 0.030004716 -0.035247 -0.051820956 -0.040286373 -0.06098593 -0.08295614 -0.311028 -0.009739752 -0.061810732 0.12549566 -0.03094363 0.10378276 0.17628989 0.13167109 -0.22079405 0.16236848 -0.09126087 0.06626972 0.124885 0.56402624 -0.58408177 -0.06833326 -0.21370468 0.34630004 0.112332955 0.80760753 -0.6714243 -0.1688759 -0.31878665 0.1829536 0.34654096 0.58322996 -0.59093946 -0.08798734 -0.31810376 0.04730835 0.46366203 0.039900772 -0.2683995 0.17644885 0.0036411537 0.1649422 0.44533017 -0.12826519 -0.094039075 0.114372924 -0.093847424 0.20620501 0.08706343 -0.20733427 -0.10302786 -0.18481986 -0.45470703 0.05563978 -0.22676614 -0.6075282 0.14649235 -0.4207283 -0.14109041 0.0027566704 -0.38695973 -0.4285939 0.22264543 -0.62594074 -0.103813 0.01622974 -0.06993361 -0.2087591 0.16615862 -0.4430629 -0.2899409 0.07079485 -0.09830377 -0.029461 -0.043338217 -0.24455735 -0.071491085 -0.1980033 -0.16100632 0.049132556 -0.13472725 0.12370886 -0.1059678 0.10108978 0.06849038 0.22715545 -0.36471134 -0.25402263 -0.24770315 0.13952957 0.0533972 0.44972453 -0.66227174 -0.32491463 -0.41190028 0.31648162 0.20486596 0.3704143 -0.8290023 -0.3833778 -0.62402487 0.4177648 0.25907642 0.54164135 -0.5787295 -0.60668194 -0.65345895 0.7819982 0.5315104 0.5002926 0.0042567025 -0.30870342 -0.10853498 0.79102814 0.2917035 0.3990321 0.20672064 -0.030111404 -0.2009664 0.51603085 0.15935177 -0.008054393 0.13462864 -0.24865289 -0.015519207 0.337968 0.12895745 -0.109858565 -0.046020776 -0.23674686 -0.03427187 0.18189634 -0.08615705 -0.032848056 -0.1276081 -0.3758769 -0.40714416 0.1427979 -0.14090995 0.0153829865 -0.11581598 -0.2046323 -0.4131242 0.10062335 -0.35529116 0.024496265 -0.024050465 -0.5250189 -0.3404791 -0.0403647 -0.16130094 0.0050197407 -0.053365294 -0.08135679 0.0018360172 0.05693701 0.10611729 0.3752304 -0.2848991 -0.33897182 -0.1451116 0.16946185 -0.053549007 0.41405788 -0.46315697 -0.3466882 -0.06275505 0.3088368 0.1304594 0.5293254 -0.36147252 -0.41253754 -0.35666436 0.37087098 -0.298846 0.32748917 -0.17269665 -0.7179527 -0.3642991 0.4960306 0.0141877495 0.39389873 -0.23184688 -0.39965555 -0.06847255 0.7995127 0.5360864 0.5347286 -0.1809084 0.18036708 0.053944904 0.6173601 0.32871655 0.7453451 -0.23346236 0.2078945 0.1564328 0.38044333 0.42136592 0.2654099 -0.42354006 0.20462582 -0.07930682 0.5700896 0.2712981 0.27564803 -0.4193344 0.077947214 -0.24914195 0.15348862 -0.10909859 0.2496416 -0.3276527 -0.097575255 -0.1303595 0.08095084 -0.35613793 0.084071115 -0.090716384 -0.20631021 -0.04668141 0.11034455 -0.06907979 -0.12178908 -0.020137861 0.005196132 0.029304076 0.08657958 0.08888514 0.07725764 -0.0049305884 0.026074214 -0.11054847 -0.112480275 -0.2765169 0.21859172 -0.40191108 -0.061089423 -0.29218072 -0.41732088 0.05338098 0.3859423 -0.5726512 0.06810084 -0.3814671 -0.2660125 -0.28551173 0.20534444 -0.39782554 -0.20788501 -0.061231345 -0.22728765 -0.06582474 0.518958 -0.5685383 0.3310205 -0.20303142 0.30467445 0.44247797 0.4470853 -0.26494995 0.42942092 -0.419584 0.23267812 0.26914036 0.32291985 -0.18887413 0.30122828 -0.13847935 0.17030597 0.54602987 0.09978394 -0.44963345 0.3530265 0.111226596 0.24847335 0.20345494 -0.0848081 -0.06106775 0.12198184 0.3134905 -0.080837205 -0.0040075337 -0.118537225 0.05276282 -0.13108888 0.3143613 -0.18628334 0.2427149 -0.1363505 0.04482191 0.015090881 0.11736881 -0.12367327 -0.16264023 -0.11902848 0.08450287 0.15978107 0.089975476 0.07330925 0.09919201 -0.0860733 0.0076441932 0.09527643 -0.059472747 -0.45036358 -0.14932819 0.44872808 -0.42548943 0.26539543 -0.114349194 -0.6657442 -0.03849713 0.5218987 -0.56532896 0.39660746 -0.11239671 -0.75930965 0.023019847 0.1289282 -0.51755476 0.33379355 0.07654246 -0.4441063 0.3733969 0.49890733 -0.5640077 0.53421617 -0.18635581 -0.35717824 0.52710456 0.51958007 -0.043711573 0.5212332 -0.19553776 -0.16360651 0.30246878 0.26893786 0.04628144 0.2671783 -0.080645084 0.019156286 0.08550005 -0.17040415 0.13738099 0.15377747 0.21294662 -0.020101223 0.06532154 -0.28619936 0.10549768 -0.22944272 -0.056843318 -0.02260236 -0.026814064 -0.17121314 0.095224544 -0.14006978 -0.0028784361 -0.1568149 -0.08588881 -0.09016916 0.07579642 -0.20482539 -0.13526896 -0.12110788 -0.12512311 -0.16516094 -0.029193932 0.23511243 0.023948437 0.13114461 0.11659292 -0.025211925 -0.15457048 0.21903507 -0.087890275 -0.3662117 0.08003035 0.19079766 -0.23121004 0.33261463 -2.8468297e-05 -0.3030528 0.3852725 0.675064 -0.4237211 0.16516209 0.039722517 -0.273607 0.28440574 0.85226786 -0.67211556 0.30280176 -0.23431523 -0.13431214 0.54657155 1.2617565 -0.3021337 0.35803118 -0.05557229 0.12327729 0.3850376 0.90288395 0.049689624 0.22960865 0.22328566 -0.094531 0.29057145 -0.16629909 0.19674389 0.12704666 0.2430997 -0.27540916 -0.02839576 -0.3767407 -0.06757045 -0.27227932 0.23215169 0.08827573 -0.236825 -0.23264912 0.14852001 -0.45072198 0.0151262125 -0.025937472 -0.039561883 -0.25303358 0.17190914 -0.24226157 -0.05089453 0.17853275 -0.044562615 -0.042753953 -0.002742919 -0.11535738 -0.08282572 -0.027127817 -0.11598766 0.09070336 -0.16998453 0.32348487 -0.037371606 0.07779489 0.1526845 -0.043077737 -0.36521202 0.069463 -0.23329945 -0.001003636 0.2742526 0.08786705 -0.5085398 0.35021484 -0.40414554 0.021733025 0.31124604 0.054801904 -0.16641417 0.32303756 -0.17118643 -0.15366237 0.38631272 0.63134676 -0.3325112 0.019359972 -0.22604445 -0.13642807 0.40132403 0.7704025 -0.13256913 -0.07310866 -0.04192927 -0.022364307 0.30426314 0.49045083 -0.065887 -0.039285485 0.05001744 -0.058152813 0.24567631 -0.08339894 -0.26705518 -0.26488522 0.07572898 0.19405924 -0.24828655 -0.41467 -0.08934193 -0.38037372 0.17526548 0.24534294 -0.2465372 -0.3801136 0.11878452 -0.31732228 0.025407525 0.104518585 -0.19242766 -0.1283399 -0.010418141 -0.42285997 -0.21325062 0.16322088 -0.11703097 -0.03424837 -0.08093728 -0.079098254 -0.10497712 -0.16650638 -0.14714625 -0.13877633 0.18329921 -0.14659746 0.2436344 0.103885144 0.028848572 -0.13209733 0.10845136 0.085694656 0.2098408 -0.09787812 0.4441092 0.12334431 -0.013602309 0.43755624 0.0364032 0.26767358 0.54935527 0.0670415 -0.23528163 0.37396616 0.16437206 0.37280858 0.49437392 0.1465963 0.042797238 0.14953524 0.19492088 0.31299543 0.36589414 0.26505056 0.09364091 -0.11918528 0.2465244 0.26313004 0.17240113 0.28471568 -0.13386224 -0.36349428 0.22970608 0.38391057 -0.20097092 0.034942534 -0.4580673 -0.50304896 0.5350262 0.35309863 -0.18515942 -0.17186046 -0.09051484 -0.39584085 0.47511137 0.26339558 -0.033842918 -0.118136376 -0.18505827 -0.31451696 0.07757625 0.16438264 -0.26250654 -0.074130446 -0.039674222 -0.26782584 -0.10604262 -0.02808297 -0.1448153 -0.12411533 -0.1019936 -0.21552192 -0.04597318 0.046334457 -0.067346275 -0.063617624 -0.16100347 -0.026125865 0.027397083 0.11658241 -0.041051794 -0.24766862 -0.010078675 0.04384979 0.19864263 0.40896514 0.092327625 -0.24813196 0.14920168 0.2550316 0.5821199 0.26409918 0.33797592 -0.2549085 -0.05483973 0.3018241 0.67357737 0.36301854 0.5129126 -0.17372869 0.062461212 0.20763464 0.94684064 0.43341127 0.33521733 -0.11658563 0.014692561 -0.0046201567 0.8204641 0.5316389 0.19937973 -0.06184827 -0.14135323 -0.20446444 0.81853724 0.31261587 -0.12231912 0.060537267 -0.19662459 -0.24752998 0.5025336 0.4262349 0.12496346 -0.089258276 -0.1941722 -0.07312679 0.1243915 0.23000428 -0.16046658 -0.03264756 -0.10276762 -0.12713113 -0.056100287 0.091311306 -0.12999989 -0.051891573 -0.05251433 -0.009863398 -0.120934725 0.024111532 -0.021189632 -0.036486678 -0.09899659 -0.093849495 -0.14228342 0.11631934 -0.039658446 
0.0732163 0.10371366 0.1201782 0.04164076 -0.00047195368 -0.047294255 0.07450903 -0.02991269 0.09316529 0.075410135 -0.07214462 -0.059635602 0.16667627 0.12222324 -0.04871013 -0.04472403 -0.019457748 -0.019672835 0.2460916 -0.021762343 -0.017409105 -0.07775732 -0.25936922 -0.02921852 0.06114647 0.10565792 -0.10431673 -0.03871689 -0.029621145 -0.056209173 0.022931792 0.09959825 -0.18529326 0.119727366 0.2701573 -0.020757582 -0.16251533 0.23717889 0.05430834 0.13044287 0.13785627 -0.044069935 -0.1453318 0.22163221 0.056255445 0.20822811 -0.05917319 0.057674393 -0.11047199 0.14784361 -0.037032824 0.22535667 0.12941921 -0.013231349 -0.07692323 0.14037296 0.030624306 0.123199835 0.15757011 0.19046298 -0.0322962 0.1289855 0.1748393 0.30137628 0.12984337 0.16374634 0.012641602 0.18096936 0.1740608 0.15385433 -0.031119255 -0.05058758 0.060073514 0.06673091 -0.00641595 0.06638403 -0.026269175 0.022647623 0.020351993 0.13419206 -0.012071001 0.09914097 0.017220747 0.10900403 -0.1970129 0.30021676 0.0048064794 0.26032037 0.037669644 0.001375494 -0.20212704 0.2788053 0.0017480938 0.17382132 -0.0033197922 -0.21306314 -0.55965614 0.2912869 0.060431458 0.38868767 -0.21554221 -0.3594307 -0.95628124 0.47407767 -0.003097355 0.32382435 -0.24719085 -0.44857097 -1.1102817 0.3994966 -0.19634555 0.37512472 0.08373572 -0.33707592 -1.126812 0.5194927 -0.2523361 0.3124074 0.25469455 -0.3712548 -0.57655466 0.42058533 -0.21817239 0.17929505 0.3219536 -0.244461 -0.28843087 0.33576286 -0.28905466 0.15928507 0.2721398 0.047523204 -0.17243642 0.17692575 0.012356501 0.042766534 0.5467715 0.29691634 -0.02053447 0.24284028 -0.005944309 0.065263614 0.060059763 0.06458203 -0.07440332 0.11490326 0.01459219 0.06409755 0.06380696 0.043873657 0.014364462 0.020291379 0.20685744 0.08075711 -0.05476181 -0.089466564 -0.122170374 0.06968364 0.13832201 0.14549324 -0.17403112 -0.073695354 -0.57010084 0.3078315 0.14777742 0.2454257 -0.20240743 -0.4807945 -1.1525375 0.37236407 -0.21081638 0.15180725 -0.39219734 -0.680201 -1.5277582 0.466106 -0.17931087 0.04926202 -0.46226195 -0.937094 -2.092646 0.6115044 -0.93538374 0.3658466 -0.29741374 -1.0711254 -1.6297617 0.56590563 -0.7590808 0.31656724 -0.037775513 -0.79687047 -1.4027736 0.62416124 -0.5801187 0.30778304 0.0011195785 -0.53692925 -0.35860682 0.250609 -0.3496761 -0.055518106 0.32259312 -0.06790347 -0.17270145 -0.07779144 -0.06392018 -0.035240427 0.5092954 0.051437594 0.13209529 -0.026086876 0.057863977 0.042242065 0.43377158 0.33312058 0.11989486 0.015571636 0.18743749 -0.036863867 -0.029419282 0.073088795 0.022627994 0.008938781 0.0916303 -0.15753627 -0.15437004 -0.09001317 -0.16268419 0.23459977 -0.04307081 0.109626226 -0.2570934 -0.026467446 -0.96977127 0.3902406 -0.006600347 0.2534265 -0.11738448 -0.49367034 -1.9826496 0.8556275 -0.14682303 0.49584407 -0.14994228 -0.7894811 -1.0890839 0.9446372 -0.3276257 0.2764446 -0.4494073 -1.2438241 -1.0932486 0.9126835 -0.8082682 0.3585719 0.1602809 -1.2123287 -1.1459053 0.91459864 -0.8737672 0.6435723 0.5249474 -0.77334595 -1.7066106 0.9483727 -0.6045744 0.33894843 0.39881727 -0.56448925 -0.34885234 0.21905775 -0.37205884 0.06459488 0.5389152 -0.157974 0.15813813 0.05866663 -0.14102979 0.036578912 -0.023678772 0.0015373648 0.18410875 -0.16455856 -0.023270627 -0.1627165 0.1403878 0.2035627 0.0572629 0.04784187 -0.043274794 -0.005628694 -0.013713875 0.01886114 0.054220993 0.14252363 -0.13566624 0.14525689 -0.076745465 -0.042911503 -0.40411025 0.27985117 0.122134686 0.27864352 0.13972329 0.024829086 -1.1555461 0.6051736 0.05416573 0.5529659 -0.058652073 -0.31793436 -1.4087453 0.715265 -0.22944212 0.7499429 0.080730654 -0.1758787 0.42150226 0.36538473 -0.07440339 0.25277486 -0.31129593 -0.5602997 0.3253768 -0.043627743 -0.31907266 -0.25733116 -0.026694383 -0.5409319 -0.7319311 0.45863798 -0.32073516 0.31217676 0.056803744 -0.3458736 -1.4270957 0.6582872 -0.24210268 0.021365521 0.21126556 -0.44648233 -0.14560917 0.29156417 -0.28859928 0.0988997 0.27759546 0.028143799 0.16860195 0.055767063 0.017348692 -0.07410702 -0.14646117 -0.025622139 0.13239403 -0.06744741 0.0012540345 -0.09258905 -0.17094034 -0.005019275 0.05127316 0.23557025 -0.17401372 0.23422174 0.087533236 0.02832569 -0.06361193 0.25167397 0.21695149 0.23167948 -0.07572904 -0.119062364 -0.14349338 0.3946056 0.11092044 0.24638157 0.0010390942 0.04848555 -0.55884755 0.33938092 -0.14371136 0.3486907 0.065957986 -0.08718045 0.12328996 0.30593938 0.20473264 0.56165755 -0.10558375 -0.18455118 0.79763585 0.011937813 0.1962 0.16160226 -0.09795805 -0.45488933 0.019852087 0.25929612 -0.12398391 0.018074434 -0.51404226 -0.33719835 -0.72946024 0.4239398 -0.018473223 0.37866357 0.19007766 -0.014206483 -0.8355636 0.35124984 -0.021838274 0.35919666 0.08990874 -0.33686894 -0.051119287 0.17728937 0.05387709 0.36022675 0.13521877 0.19598748 0.1709555 0.07944345 -0.09242573 0.07615679 -0.091658205 -0.09541694 -0.035769515 0.095868155 -0.10949826 0.011084369 -0.35026455 -0.03994685 0.006307972 0.011397803 0.07817465 0.018828621 -0.0026634824 0.020265901 -0.13364081 0.08802836 0.2299799 0.02934012 -0.23740606 0.06427746 -0.0314907 0.27186266 0.1251341 0.32285818 -0.025221793 0.17909497 0.30955502 0.06257631 0.19224425 0.18558173 0.08180756 0.07912732 0.43813893 -0.18879929 0.35319203 -0.019819906 -0.15490392 0.061622318 0.42629415 -0.119076185 0.5375322 -0.116018966 -0.33887032 -0.112932 -0.377638 -0.026380511 -0.22897829 0.1053575 -0.30757326 0.07947787 -0.34877518 0.0042475625 -0.09398999 0.43282926 0.1861819 -0.000937909 0.70619726 -0.28029278 0.1708409 0.19483052 0.3173099 -0.0030320813 0.34139994 -0.033382844 0.28429046 0.10085508 0.1832541 0.028644606 0.10600279 -0.011834598 0.11914011 -0.162554 0.1582529 -0.20074396 0.19514334 0.0042874333 -0.10928445 -0.0252656 -0.13120978 -0.03253431 0.19079874 -0.13813075 0.26779383 -0.12603168 0.10696962 0.08149767 0.22761731 -0.15850526 0.05609645 -0.09176928 0.059622373 0.14975058 0.13350458 0.05865166 0.26024166 0.12248665 -0.01922051 0.25823948 0.49448925 0.047204606 0.23970754 0.1451016 0.00174078 0.062128924 0.5941492 -0.05942812 0.24320026 0.02634683 0.008846861 0.2216225 0.5916041 -0.24540432 0.5615714 0.19851641 0.00033785228 0.3066627 -0.41402906 -0.51721954 0.35912752 0.05075178 0.15430191 0.17180872 0.14150696 -0.2957253 0.06605428 0.15210177 0.26163116 -0.1703736 0.4245951 -0.014413763 0.09579611 0.35786536 0.36915442 -0.14157055 -0.042681165 0.053433795 0.11834548 -0.04852157 0.18169948 0.06938513 -0.067537874 0.11754532 -0.006721068 -0.13355243 -0.05335691 0.023987256 0.013144372 0.016571708 0.0042901784 0.033609036 -0.29190487 -0.10941691 0.10541185 0.0673753 -0.01708518 0.043930862 0.12868398 -0.058956362 0.17235884 -0.13622873 -0.040908907 0.026812302 -0.061048716 0.10733648 0.19263361 -0.24846761 -0.0688654 -0.028410353 0.08458541 0.14630526 0.0861075 -0.07841161 -0.24069287 0.22523515 -0.096036665 -0.1168765 -0.02450597 0.11584026 -0.14899772 0.20545116 -0.16620211 -0.09324509 -0.46541443 -0.09490825 0.12270132 -0.10377519 -0.11991999 0.06478977 -0.8397499 -0.46510375 0.217221 -0.2162981 0.20459175 -0.002419646 -0.5322207 -0.2878039 0.091940306 -0.23679808 0.029051524 -0.072535545 -0.00033673324 -0.19947213 0.34019345 -0.0828226 0.023571596 0.14465389 0.2678197 -0.18320003 0.14558178 -0.42359874 0.22577877 0.04787858 0.14324939 -0.10913708 0.14629279 -0.25030315 0.017984109 -0.1833311 0.16182749 0.03172523 -0.20801969 -0.09532473 0.0042110593 -0.047751874 0.15052111 -0.05066427 0.16077533 -0.093587145 0.008508793 -0.01964901 0.17458463 -0.12445142 -0.007868414 -0.14124678 0.09259274 -0.08837108 0.310883 -0.0643077 -0.2810399 -0.058738243 0.103750445 -0.11246725 0.15893197 0.1772706 -0.36373588 -0.0783772 0.11299922 -0.14471759 0.052855905 0.27204564 -0.36111337 -0.15530635 -0.033323467 -0.6037298 -0.36634842 0.10954493 -0.3854095 -0.5052084 0.05363773 -0.3784145 -0.6214069 -0.44442153 -0.024725307 -0.75218695 0.1427563 -0.1790805 -0.55745393 -0.15128832 0.18572499 -0.67411053 -0.21971117 -0.39912197 -0.30861187 -0.1468849 0.21929976 -0.60811734 -0.22166826 0.033221487 0.011252108 -0.016305307 0.30268523 -0.18719211 -0.26005787 0.26471868 -0.07019868 0.121255465 0.1769039 -0.0511114 -0.14986306 -0.2295049 0.09322978 0.027315013 -0.15786538 0.114068046 -0.20927028 -0.078932524 0.121341825 -0.026986443 0.07338118 -0.06977624 0.036833752 -0.027107775 0.093056485 0.11353717 -0.113717176 0.003248241 -0.14823008 0.03777148 0.14181285 0.13096862 -0.10132127 -0.031356838 -0.046611853 -0.16103329 -0.044026725 0.23524886 -0.47824398 0.10098027 0.19456021 -0.36688137 -0.23985194 0.19837691 -0.46914098 -0.04884627 -0.12203383 -0.48642954 -0.29389086 0.245158 -0.3515672 -0.20235914 -0.049979754 -0.46794733 -0.2903694 0.075250134 0.002961479 -0.37238765 0.01946768 -0.1274766 -0.29237756 0.038616423 0.36219934 -0.42852446 -0.2174751 -0.23157984 -0.0186322 -0.08088118 0.3290903 -0.07218951 -0.3316448 0.16339166 0.111185156 -0.00038595975 0.21636955 0.040498026 -0.1342885 0.2291419 0.19465835 -0.015503805 0.04579613 -0.020904034 0.11116464 0.005440562 -0.011512091 0.050891344 -0.0063956417 0.07170902 -0.04311078 0.034359366 0.054082517 0.04645776 -0.07846142 -0.015931325 0.0583332 -0.033434715 0.029678555 0.09931543 -0.042639993 -0.087404855 -0.29648915 -0.056868635 0.05987483 -0.038468428 -0.24783024 -0.12409551 -0.3410901 -0.11622457 0.035227228 -0.1881747 -0.16507557 -0.1404731 0.008477199 -0.26725313 -0.011419815 -0.1256709 -0.2938707 -0.33199042 -0.3688914 -0.38523793 -0.09645205 -0.2503508 -0.2493624 -0.30616692 -0.042021047 -0.3619472 -0.14885211 -0.20642167 0.049243815 -0.46775737 -0.22227906 0.012684547 -0.029119523 -0.16635986 0.080106676 -0.5600548 -0.10964465 0.015188223 0.23186626 -0.16444077 0.14601192 -0.3676093 -0.291022 -0.12015219 0.26918027 -0.18872531 -0.19300601 -0.18320146 0.008128397 0.14966199 0.2537565 -0.14667058 0.08148371 0.10049203 0.19720249 0.12157159 0.03511859 -0.00054898445 0.07826916 0.038603444 -0.12488269 0.060464416 
-0.116954945 0.015431434 -0.09413017 -0.009898443 -0.034730457 -0.09042438 0.05715761 -0.094899714 -0.088257045 -0.02940767 -0.11711832 -0.07686287 -0.085218824 -0.10974724 -0.099025026 -0.07159713 -0.18209367 -0.12863387 0.027172117 -0.07181319 -0.28280604 0.033538762 0.03852989 0.024719013 -0.024033334 -0.12514946 0.14672385 -0.10231856 -0.24987419 -0.053648423 0.09115188 -0.21934427 0.062912434 -0.18454164 -0.032640096 -0.06065267 0.10803317 -0.20086329 0.09990406 -0.2623321 -0.0466735 0.051107883 -0.13568892 -0.051353928 -0.00011222673 -0.06179145 -0.04269618 -0.115080655 -0.074686185 -0.006678676 -0.022892507 -0.14082201 0.116473995 -0.20454502 -0.16661978 -0.004667034 -0.22569789 -0.14666432 0.038121168 -0.27008867 0.008554196 -0.14733903 -0.39219832 -0.18857257 0.29067194 0.22169955 -0.047635257 0.011647297 0.12753084 0.05211047 -0.08289969 -0.016466817 -0.034128115 -0.11881456 -0.12186588 -0.14381933 0.0010302789 -0.11262973 -0.069951095 0.07331248 -0.3509191 -0.05160198 -0.0379639 -0.089191735 -0.19477513 0.20990902 -0.2998312 0.2043534 0.1789679 0.13270278 -0.22017449 0.22392744 0.071398035 0.16204077 0.14843366 0.12433918 -0.2137053 0.25020686 0.15335663 0.12139253 -0.05443719 0.12580211 -0.060608126 0.07983369 0.119486086 0.08524514 -0.074345045 0.08130669 0.50899196 -0.13898365 0.12203979 -0.2573296 -0.19705993 0.12460372 0.4253506 -0.32656038 -0.034751978 -0.30247092 -0.18166962 0.040223528 0.2727453 -0.3705552 -0.1958457 -0.4868949 -0.028473007 -0.21766917 0.21753477 -0.31368175 -0.5582712 -0.4709042 0.06439391 -0.18147418 0.057650875 -0.21316957 -0.2869646 -0.3061181 0.49504226 0.17754547 -0.15594722 -0.10071189 -0.11937477 -0.07582072 0.32496157 0.07674184 0.034854334 -0.071387224 -0.111339875 -0.09615363 -0.15773474 -0.1791484 -0.28302863 0.082202576 -0.45661223 0.068788104 0.037233878 -0.165192 -0.5086572 0.16488935 -0.17946912 0.19189604 -0.077595934 -0.15906794 -0.5890637 0.33924648 -0.03807623 0.12545522 -0.20892455 -0.13789001 -0.607058 0.26062468 -0.089601934 0.22697997 0.14515945 -0.12956329 -0.22657475 0.1472268 -0.19696811 0.34095824 0.023794752 0.047235083 0.87231493 -0.043237727 -0.2161694 0.157061 0.3076911 0.28299373 1.5059409 -0.6509461 -0.18528393 0.061120514 0.49492103 0.27651554 1.3096436 -0.73578626 -0.14741245 0.080360144 0.748617 0.121357106 0.98307127 -0.663449 0.035329927 -0.15794748 0.49533385 0.027938986 0.3640231 -0.49795067 -0.086818516 -0.16828603 0.35199064 0.30908847 -0.030484343 -0.14972211 -0.036768015 0.045413386 0.37975413 0.3766527 0.010199926 -0.02257161 -0.22343265 -0.2533989 -0.2842879 -0.19166824 -0.33620396 0.043902878 -0.08901643 -0.23031315 -0.16328485 -0.2863752 -0.4340876 0.27664044 0.2514339 -0.06855142 -0.43947378 -0.3714883 -0.7968235 0.30947286 0.12823977 0.0011932937 -0.44455048 -0.28840506 -1.206482 0.34963933 0.038999047 0.29069856 -0.22943337 -0.20413384 -0.07250729 0.06901742 0.026830819 0.19779138 -0.086053796 0.033826508 1.048362 -0.30498773 0.2470452 -0.16577387 0.047590736 0.40521932 1.3572917 -0.75128543 0.352565 -0.05629581 0.32719168 0.7182182 1.3878742 -1.0421485 0.41755155 0.19148351 0.54129606 0.40511784 1.0991981 -0.9578923 0.3722097 -0.003558735 0.49426895 -0.27140343 0.6173396 -0.58802986 0.16792 0.0682797 0.32839724 0.24952045 0.009777756 -0.21927838 0.24181825 0.5077159 0.56281286 0.6549966 -0.067085624 -0.06726766 -0.19184834 -0.13768621 -0.18863946 -0.16991436 -0.072027564 0.011597403 0.10525373 -0.14855608 -0.41961142 -0.19925907 -0.3457258 0.07310626 0.25598177 0.05456883 -0.6428833 -0.34283632 0.08417771 0.11108532 0.15648705 0.25817865 -0.52071583 -0.1841446 -0.109596245 -0.039739527 0.26821467 0.24721113 -0.2621331 0.07817276 -0.16596599 -0.13914406 0.33536446 -0.06883062 -0.25322998 0.2029308 0.5378195 -0.2439308 0.4234008 -0.118528046 -0.29217458 0.47260255 0.8028847 -0.6187819 0.54890895 -0.4686774 -0.27819803 0.807159 0.92960495 -0.6806568 0.69000036 0.013932059 0.013305075 0.47691855 0.67668384 -0.4427877 0.68407214 0.36092246 -0.36537606 -0.070978604 0.58234155 -0.5997182 0.5313739 0.32612875 -0.3359551 0.40981925 0.19788529 -0.6730628 0.5190123 0.18815807 0.5032131 0.43207592 0.06894957 -0.11597138 0.06846079 -0.13584097 -0.23168932 -0.14638624 -0.10771451 -0.24725522 0.1501952 -0.24758202 -0.407976 -0.13641772 0.28608644 -0.32678598 0.20036401 -0.17152198 -0.55252945 -0.32126382 0.007635855 0.07757694 -0.04114949 0.13280769 -0.428952 -0.04157865 0.03465499 0.060138557 0.08901103 0.149153 -0.2061889 0.17760217 -0.012896001 -0.09375198 0.27423033 0.08383717 -0.06039364 0.29256558 0.3972378 -0.49633092 0.39279744 -0.32191965 -0.21043214 0.3557227 0.47669384 -0.55953217 0.6461184 -0.27422664 -0.48070365 0.34156105 0.6860404 -0.2873885 0.5389175 0.38198748 -0.4719033 0.3605019 0.5399849 -0.25529873 0.46835902 0.381259 -0.5070771 0.13496646 0.3158215 -0.24027689 0.60039586 0.3436803 -0.4163549 0.26560864 0.2640193 -0.37673104 0.36849928 0.1273948 -0.06598464 0.033164047 -0.018168902 -0.102407925 -0.06801988 -0.17004624 0.075361215 0.020198194 0.36483866 -0.61635244 0.010327516 -0.35174692 -0.21912622 0.28442493 0.53896505 -0.8303201 0.3747117 -0.2517749 -0.4381992 0.070970364 0.32276392 -0.50965303 0.11189687 0.11052686 -0.5706626 -0.048337188 0.34264395 -0.45310193 -0.031993806 0.06370291 -0.25015622 0.12410665 0.2817223 -0.49711442 0.03433061 -0.20599604 0.041896194 0.15077332 0.1296205 -0.41206065 0.19731559 -0.08541599 -0.042242672 -0.025303015 -0.020637017 -0.053647507 0.35044876 0.11233505 -0.5609902 0.035202272 0.37519386 0.10070628 0.3105937 0.40184793 -0.69612855 0.16532771 0.09439082 0.11282613 0.25956678 0.145243 -0.54433113 0.02648282 -0.16651693 0.11437753 0.10134221 0.37845987 -0.67687297 0.12432607 -0.024473948 0.13058509 0.14205746 0.20812155 -0.4188765 -0.07312123 -0.042083845 0.041475557 -0.0004720167 0.115170255 0.27089435 0.13234213 0.23691405 -0.17753865 0.155452 -0.02320203 0.14893338 0.520869 0.46919233 -0.452256 0.32637602 -0.017940134 -0.10569321 0.1515773 0.5057991 -0.9018361 0.2496631 0.27887407 -0.07966747 0.31768927 0.59587926 -0.7522167 0.23689905 0.13064049 -0.4449272 0.14332478 0.14497524 -0.30093846 0.028871648 0.09062483 -0.11263877 -0.054344743 0.3812878 -0.025343185 -0.037544373 0.35018942 -0.08499366 -0.087786436 0.24637023 -0.017897889 0.028983708 0.3398394 -0.2800209 0.033656854 -0.40768522 0.09299299 0.11025029 0.09040586 -0.47343737 -0.11515535 -0.22468042 0.3106957 0.004292203 -0.06532595 -0.4973856 -0.035530303 -0.15450679 0.21224102 0.028345129 0.05025709 -0.4624401 0.23479028 -0.11401893 0.08013281 0.004809067 -0.020303816 -0.07584105 -0.20614383 -0.044128694 -0.15630096 0.074673764 -0.0077521363 -0.08083061 0.21950102 0.08082275 -0.17721221 0.015670897 -0.023585789 0.27308795 0.31376424 0.31230932 -0.37269735 0.15020634 -0.03345396 -0.00999952 0.35911047 0.790377 -0.36740738 0.16314837 0.054745995 0.0107337255 0.60181445 1.0558827 -0.3167481 0.0059436974 0.14092411 0.24223581 0.38214502 0.6569622 -0.07237788 -0.16993989 0.13763577 -0.002817724 -0.013501211 0.2687961 0.11504269 -0.106718995 0.293718 -0.22116278 -0.020831306 0.24014786 0.084422596 -0.09347537 0.06452721 -0.12064457 -0.054839574 -0.27617297 0.08091625 -0.06774044 -0.15161704 -0.24122448 -0.13561487 -0.41666853 0.12549119 -0.027589923 -0.14930028 -0.15739721 0.06088417 -0.32678643 0.16685589 -0.06033802 -0.16447732 -0.23427339 0.06966749 -0.1981769 0.1725447 0.010885397 0.070843436 -0.123130135 0.04384306 -0.044702895 -0.06555088 -0.06304121 0.014884166 0.025941368 0.117167644 0.02098741 -0.18323472 0.101481326 -0.2523466 0.026742904 0.18242048 0.058847614 -0.47435033 0.14673589 0.026525214 0.23648737 0.45460343 0.2997698 -0.52755135 0.040935434 -0.076770395 0.35913867 0.5394235 0.46411827 -0.30676663 0.12919702 -0.039877124 0.29152218 0.22436 0.39457124 -0.02677803 -0.21343468 0.25134653 0.24600849 -0.03136688 0.039331865 0.11161089 -0.2601894 0.17136723 0.1099749 -0.19771217 -0.1300437 0.13674311 -0.24679427 0.08988485 0.0076598157 -0.18387413 -0.15433758 0.12535632 -0.24428044 -0.20728564 0.049946714 -0.17904545 -0.20500526 0.032935537 -0.2823399 -0.19958706 0.06958669 -0.07255122 -0.26781407 0.07186305 0.04450063 -0.028593397 0.1712844 0.06752687 -0.26589313 0.04741056 0.12150555 -0.0023795087 0.03796706 0.064028844 -0.062960416 -0.03197717 0.025318416 0.016859902 0.014742097 0.086106844 -0.0681509 0.011181191 -0.044612624 0.07477208 0.007972915 -0.0022272866 -0.098395884 -0.23844863 0.017954687 0.057888072 0.1464007 0.23777115 -0.023213577 -0.20522544 0.23389211 -0.008032897 0.36339405 0.3626373 0.044783205 -0.10247209 0.26334578 0.05786214 0.2833086 0.38792697 0.21549073 0.04454781 -0.059239168 -0.0035383266 0.13608612 0.18918264 -0.09510314 0.15979573 -0.21859702 0.11784615 0.06860867 -0.0420726 -0.11140177 -0.11980962 -0.3445721 -0.002214913 0.05397953 -0.149851 -0.16625565 -0.12504002 -0.30027822 0.09793044 0.24799767 -0.15076822 -0.13465847 -0.10881187 -0.09678011 -0.05825345 0.13958888 0.033548884 -0.0797098 -0.19338636 0.03675239 0.0069264234 0.30275825 0.009099644 -0.0807141 -0.024923531 0.25529134 -0.07507464 0.20056187 0.0011509061 -0.06694909 -0.14083152 0.055739105 -0.10089053 0.029484197 0.03828294 0.03729218 -0.13404997 -0.13429652 -0.033381328 0.013705584 -0.12315722 -0.035528358 -0.25591752 0.093638696 -0.17851877 -0.08725145 0.13681291 -0.061760303 -0.1697952 0.101094775 0.18084058 0.22045092 0.44111833 -0.21233091 -0.060420543 0.3387669 0.4742668 0.19157636 0.5667863 -0.085878834 0.21507531 0.08422929 0.60545623 0.2844548 0.31198624 -0.026395781 0.1495981 0.107395284 0.7810849 0.34428796 0.3542723 -0.0074796537 0.08462539 -0.11148077 0.52613056 0.21924214 0.020704746 -0.092801444 -0.0966592 -0.12164637 0.10838972 0.17623621 -0.16607659 0.005359405 -0.102363124 -0.13614142 -0.10876685 0.242593 -0.15401742 -0.037539322 -0.058481477 0.08206732 -0.10229088 0.17300592 0.15825081 -0.00079851516 -0.15707214 0.11371459 -0.13583873 0.18155982 0.011702048 
0.039244685 -0.030279994 0.026930038 0.032983974 0.07767417 0.09318635 -0.031424638 0.101868354 0.15444979 0.09366415 0.07633307 0.17662011 -0.2106153 0.13920324 0.15604639 0.16236252 0.34277865 0.14279716 -0.34011272 0.06159961 0.32737797 0.19807655 0.5418531 0.27071062 -0.35974312 0.12974568 0.2861934 0.24872924 0.023875795 -0.2565958 -0.28382024 0.0995406 -0.076904945 -0.045464907 0.16385113 -0.19111466 -0.2546949 0.021319194 -0.15302499 0.03902063 -0.08577593 -0.14418246 -0.1618367 0.14333709 -0.051285308 0.05521139 -0.19841348 -0.18147586 -0.102176994 0.060410623 -0.16840655 0.025264828 0.37676996 0.15589312 -0.012400082 0.080996476 0.0061846166 -0.0070418166 0.46765813 0.14925699 -0.06797696 0.017392999 -0.022779511 -0.025204275 0.036605567 0.02177685 0.052913558 -0.004191174 -0.042567946 0.041690685 0.10902709 0.0013190677 -0.031098453 0.004046412 -0.098038845 0.116046086 0.22673926 0.19394504 -0.06482412 -0.0022809121 0.18373303 0.0331254 -0.031865314 0.048609793 -0.21616113 0.07997143 0.065121695 0.13136274 0.11442462 -0.15128185 -0.21365792 0.1998805 -0.011418186 0.08470457 0.09331979 -0.12578888 -0.22580363 0.15794577 -0.37092686 -0.13077116 -0.008939949 -0.49770722 -0.44210756 0.16139314 -0.6494971 -0.1059795 0.09217951 -0.49087432 0.13739356 0.09673214 -0.6281795 -0.22309142 0.16724546 -0.3483702 0.53044647 -0.062337406 -0.36544716 -0.37332964 0.004281167 -0.28115368 0.4228748 -0.21556403 -0.34245595 -0.3746488 -0.026773069 0.013712874 0.4199208 -0.3206439 -0.11658859 -0.4160338 0.12712911 -0.25114828 0.29393283 -0.23944718 -0.19646561 -0.24523625 0.21778287 0.1420727 0.06807404 -0.12699978 0.10575005 0.04854915 0.20586102 -0.003833638 0.005953846 0.070631295 0.027160056 0.062095676 0.21187116 0.15715308 -0.07195102 0.05107419 0.08864672 -0.089759044 -0.112079665 -0.23142147 -0.23996699 0.16192198 -0.24937688 0.068359114 0.030598909 -0.12433012 -0.56923085 0.3957075 -0.3330372 0.24597251 0.06507889 -0.2364416 -0.38319206 0.39707685 -0.47334737 0.14411962 0.014659667 -0.624816 -0.16611013 0.3315927 -0.69124794 -0.19051076 -0.12112768 -0.63099647 0.0006965723 0.2216202 -0.8265611 -0.35632104 0.06930291 -0.28662312 0.22583807 -0.22290616 -0.8288039 -0.5682811 0.051402267 -0.33045253 0.38805425 -0.79801595 -0.5344467 -0.588198 0.0038884464 0.100735806 0.62741673 -0.59681123 -0.24064915 -0.28732228 -0.07234353 -0.091712736 0.079558864 -0.17998046 0.05470505 -0.09902922 -0.49938953 -0.17843467 0.1528712 -0.114253126 -0.03991942 -0.28604278 0.11923654 -0.05170614 -0.02163732 -0.08922779 0.03296911 -0.14827801 -0.046297614 -0.07701118 -0.07546736 0.06930417 -0.15384825 -0.100532964 -0.03343059 -0.115916565 -0.48950353 0.23475827 -0.19555186 0.09268706 0.18670475 -0.1333737 -0.67023677 0.40993914 -0.35576376 0.38100404 0.29270905 -0.21016462 0.14021198 0.34419194 -0.57501435 0.23067246 0.10513153 -0.6010298 -0.27665693 0.2627993 -0.6950063 -0.10247454 0.14645284 -0.41775978 0.06722557 -0.11124447 -0.8215195 -0.4551327 0.19236404 -0.11377422 1.0087049 -0.6250346 -0.5951614 -0.4680389 0.10491529 0.0917401 1.1444592 -0.87179303 -0.28126433 -0.3233599 0.09992451 0.33231106 0.88311785 -0.7230988 0.15407507 -0.04929641 -0.075161405 0.06607132 0.4219551 -0.30532393 0.21908963 -0.19871365 -0.33796936 -0.23862806 0.42257366 -0.30229148 -0.2979451 -0.10152606 -0.2027823 -0.16588856 0.06460251 -0.09951534 0.1431364 -0.13098834 -0.21425483 -0.16280016 -0.18384612 0.1866815 -0.2696225 0.07717496 0.009757982 0.047368195 -0.70484054 0.35329035 -0.07026125 0.21069951 0.22477932 -0.12430174 -0.7992604 0.48339042 -0.33360863 0.43482494 0.21163182 -0.26999307 -0.09184434 0.5318656 -0.53240913 0.5299854 0.18802528 -0.26132128 0.2691819 0.4241035 -0.40017116 0.44511834 0.21388154 -0.19325335 0.11328659 0.18694355 -0.54462206 0.10803921 0.38555026 -0.0018927354 0.8022459 -0.5845641 -0.14804031 -0.041155744 0.040803876 0.38690615 1.1406869 -0.6335746 0.27583507 -0.021408668 -0.23663826 0.5210509 0.6092895 -0.48768207 0.30528837 0.14418054 -0.086783506 0.18613847 0.008951279 0.01262842 0.07630261 0.31663933 -0.10423236 -0.013994646 -0.21845542 0.3047824 0.107649036 0.3422715 -0.4475951 -0.14549105 0.09547045 -0.017596416 -0.060682785 0.003978267 -0.25653002 -0.20883283 -0.29000428 0.26851925 -0.046753783 0.17237474 0.15265733 -0.014532805 -0.84838116 0.40844622 -0.038025033 0.11756887 0.09562592 -0.18438488 -1.0536164 0.5938769 -0.091843165 0.39419672 0.20071699 -0.2800954 -0.6488849 0.4867145 -0.33232313 0.5638581 0.19714575 0.058639918 -0.52736 0.46716103 -0.07856876 0.44681752 0.040011305 -0.13254696 -0.17109922 -0.043348756 -0.21608117 0.29215035 0.36543733 0.3261831 0.9702354 -0.4133663 0.21938996 0.010467202 -0.014015544 0.3425307 0.68014514 -0.44148877 0.49421445 -0.2810141 -0.45376924 0.45241666 -0.27021477 -0.016854262 0.3702297 0.053116877 -0.20071 0.16144669 -0.4583233 0.18549138 0.2747072 0.32342085 -0.15437545 0.30231512 -0.28114676 0.2547845 0.13982439 0.087284714 -0.25101945 -0.01998268 -0.06545864 0.008168418 -0.2860046 -0.0021142175 -0.18921478 -0.17460746 -0.22316888 0.26443574 0.13030441 0.20808822 0.0010841677 -0.023799006 -0.8018216 0.43618244 -0.017720016 0.032208715 0.06850655 -0.23917931 -1.7845187 0.47128662 0.0046954984 0.016575944 -0.1383033 -0.31943768 -1.2301567 0.71614856 -0.23127316 0.5043585 0.19858865 -0.010628247 -1.1359346 0.3627419 -0.0016950121 0.2876951 0.2245397 0.09549921 -0.24165606 0.013813884 0.3443367 0.22446214 0.22957818 0.26360092 -0.09935814 -0.15377617 0.43119225 -0.13389349 -0.3081653 0.23917556 -0.94811124 0.14311355 0.47475123 -0.04946193 -0.4523822 0.08906301 -0.91139096 0.10748259 0.25241214 0.018033413 -0.28451458 0.05903095 -0.24348968 0.07457571 0.1108336 -0.055576347 0.16187298 0.1924991 -0.009158033 0.017226828 -0.04069595 -0.19975422 0.1900324 -0.011378635 0.07408446 -0.08041085 -0.21046196 -0.06827616 -0.2237863 -0.114110194 -0.28979582 0.12451842 0.13643543 0.16235207 -0.005179751 -0.22442581 -0.7115364 0.2960216 0.09804531 0.07683537 -0.09707644 -0.48153618 -1.8733679 0.36487713 0.080398366 -0.19054495 -0.3303143 -0.31988284 -2.311222 0.5202246 -0.093957916 0.0018186932 0.19335693 -0.021448882 -0.5393181 0.47124234 -0.011959374 0.26754308 0.3086549 -0.18180227 0.33947623 0.28820634 0.072566204 0.3061131 -0.10305724 0.12945959 -0.40016708 0.11326367 0.36490053 0.24901491 -0.104246356 0.2698255 -0.77311826 0.009355704 0.19117963 -0.049431305 -0.06195222 0.063083336 -0.07394379 -0.0369449 0.09175995 0.039718382 0.12047496 -0.07634407 0.028997205 -0.116067156 0.014972866 0.13007177 0.3188636 -0.0017622407 -0.02090669 0.061155282 -0.13222754 -0.10223992 0.07677278 -0.058161188 0.06871519 0.004538324 -0.0694171 -0.19826351 -0.18996885 -0.08783955 -0.002389577 -0.12191809 -0.024199037 -0.17103998 0.009077192 -0.082991436 -0.19938964 0.042737868 0.12873355 0.03948089 -0.34228167 -0.29003754 -0.69422275 0.100037694 0.27822173 -0.0933522 -0.36025116 -0.14427863 -1.521678 0.19416958 0.2943421 0.09523019 -0.09167791 -0.12069367 -0.79925996 0.43992463 0.15929808 0.3238589 -0.20284162 -0.11729838 0.3427269 0.30758995 0.11371166 0.19756709 -0.28020492 0.20948893 -0.20217708 0.23289521 0.2027942 0.19742781 0.1449887 0.19969767 0.01692937 -0.027356999 -0.062724866 0.11043206 0.26859063 -0.16225769 0.065061 0.05604789 -0.15789759 0.24735057 -0.0016690462 0.17839433 0.12908186 -0.043039545 -0.07811342 0.13318463 0.085903406 0.1526179 -0.014529125 0.02968141 0.027138114 -0.13107626 -0.09454311 -0.16594426 0.057571564 -0.04534456 -0.048363514 -0.09384034 -0.25082764 -0.15371414 0.18090324 -0.13836266 -0.06892321 -0.38689062 -0.2803819 -0.12332054 -0.22969887 -0.15670678 -0.044980235 -0.20170957 -0.3065956 -0.14963375 -0.39481235 -0.014356834 0.20373611 -0.058904935 -0.39997277 -0.05109586 -0.5355804 -0.045969218 0.55134284 -0.15572912 -0.18761256 0.31739712 -0.4351488 -0.09525943 0.47543892 0.023114113 -0.10043978 0.52158463 -0.05191 -0.08584422 0.5534632 0.17363755 -0.027892398 0.41918746 0.12190663 -0.18288212 0.17633773 0.11064629 0.22442263 0.23684247 0.09627777 0.10162231 -0.028916717 0.5308939 0.14719306 -0.17144363 -0.02609354 0.14329325 -0.3223989 0.47840557 0.1177377 0.17913109 0.02342118 0.03492848 0.16047052 -0.055549514 -0.018756252 -0.034447998 0.020736333 -0.02783841 -0.19693291 -0.05100861 0.03157449 -0.0212053 0.05552973 0.11989393 -0.05184327 0.04989886 -0.013577862 -0.13854481 0.048376948 -0.005597966 0.023257269 -0.16974634 -0.33487126 -0.04554666 0.18975462 -0.21563497 -0.003977201 -0.18686841 0.030473294 0.0023092097 0.26289877 -0.123308524 0.10054237 -0.36875468 -0.014791964 0.016316662 0.10003738 -0.38903672 0.1780302 -0.38089478 -0.17585304 0.16832633 0.14833917 -0.25930867 0.47166118 0.10102203 -0.031377528 0.44191834 0.25152344 0.100612484 0.4321808 0.61205244 0.11565986 0.28992534 0.17003979 0.23737831 0.19785303 0.5543094 0.31409895 0.06880145 -0.0055497247 0.1704003 -0.009625967 0.62098676 0.1412637 0.1196812 -0.14868157 0.069983244 -0.10115744 0.026584478 0.13754626 0.041597374 -0.07514893 -0.06780892 -0.10708416 -0.081048116 0.05353108 -0.23789844 0.095600784 0.077027 -0.1698288 0.051823612 -0.14545399 -0.022738602 -0.06424965 -0.03511211 -0.04857328 0.045108113 0.05997316 -0.11110665 -0.08705812 0.12030397 -0.15197648 0.06613181 -0.052048285 -0.20852007 0.064324245 0.061809845 -0.080975674 -0.0072689075 -0.37919196 0.04134271 0.06479315 -0.033024196 0.028903624 -0.11133525 -0.053748462 0.02058779 0.16451052 -0.041351877 0.066198885 -0.1747121 -0.03550338 0.025645941 0.07837151 -0.00010730435 0.02301881 -0.13356268 -0.022480907 0.03339676 0.11204675 0.17099164 -0.116592556 0.24799429 0.008096386 -0.011279605 0.06432479 0.20745188 -0.07475026 0.32075238 -0.04209918 0.08704284 0.03348762 0.12109165 0.18828897 0.23129387 -0.15922225 0.10218636 -0.023065701 -0.08156228 -0.108267985 0.076700956 0.26129413 -0.26563227 -0.046016768 0.10340249 -0.119607195 0.039526064 -0.002447886 -0.074325375 0.00023975974 0.07923573 -0.007885454 0.082924634 -0.19595633 0.098061904 
0.11822699 0.11668663 0.14510691 0.120358884 0.02962444 0.118947566 0.10689678 0.06698461 0.049376577 0.10035299 0.114966564 0.15963556 0.13738993 0.06666094 0.06430192 0.0022184523 -0.0917235 0.06957038 0.24655747 0.0071872817 0.09364077 0.036985025 -0.22335292 -0.011406667 0.18177642 -0.038172755 0.086393565 -0.10153669 -0.144918 -0.081798814 0.32389057 -0.15171778 -0.043395016 -0.23401931 -0.14048532 0.05940704 0.33740565 -0.21158582 -0.040700447 -0.100909196 -0.059637815 0.046668645 0.3279403 -0.21922597 0.013756512 -0.10492604 -0.20197129 -0.13112864 0.24537298 -0.105629645 -0.11402966 -0.13442023 -0.021174567 -0.16632967 0.18738268 -0.06324398 -0.17798313 -0.15603557 0.13226649 0.006358616 0.12105114 0.071756296 0.013953408 0.00850684 0.05925526 0.06007179 0.024018295 0.04311447 -0.066613935 0.08866134 0.0129416175 0.04442159 0.021942064 0.12470317 0.06327765 -0.0005250016 0.034775317 -0.045175046 -0.018092657 0.0449072 -0.04290365 0.19416018 0.11821114 0.09282884 0.1637452 0.13127068 0.28758252 0.115834266 -0.0025281156 0.055882424 0.077914365 0.13627185 0.16175607 0.17847602 -0.12170829 0.008676543 -0.09372666 0.17478299 -0.028191557 0.050248407 -0.11854948 0.10420058 0.2690925 -0.09611392 0.12989725 -0.05730545 -0.12064503 0.17446858 0.318646 -0.0061506247 0.19003367 -0.0072976546 -0.38011417 0.12829162 0.28035963 -0.104876146 0.019793728 -0.015064598 -0.17340273 0.24495688 0.24647589 0.07536582 0.19484541 0.024696512 -0.73292977 0.14417696 0.19152232 0.04470176 0.13556883 0.13803618 -0.14639533 -0.03297432 0.21636741 0.12499093 0.16907023 0.0016905437 -0.17271475 -0.046376634 0.12759669 -0.026757102 0.055729043 -0.036931925 0.04907513 0.002953748 0.17135257 0.06728372 0.1397611 0.042547908 -0.07745482 0.11451878 -0.0027012732 0.042628385 0.1380207 0.06351298 0.1882591 0.24695396 0.10349056 -0.06771315 0.6061864 0.0074483547 -0.13617142 0.22733355 0.09651063 -0.13447335 0.591357 0.15957351 -0.31134066 0.2239176 0.6738221 -0.12624845 0.7544137 0.1644255 -0.03441433 0.4982859 1.1373637 -0.2339405 0.7218144 0.111063525 -0.14424744 0.14440158 1.2349255 -0.033797596 0.3920182 0.10403149 -0.0026787557 0.25669804 0.6363085 0.101364814 0.19741142 0.21837765 0.17818624 0.26210392 0.15734588 0.23462845 0.10939564 0.1265495 -0.19925268 -0.14044109 0.140649 0.1995563 -0.14537983 0.14627951 0.0155411465 0.016737152 0.031592686 0.10830136 0.032721628 0.2277847 -0.16735575 -0.06614562 0.066300295 0.1352431 0.04455182 0.04642523 -0.17370583 0.025937313 -0.0758921 0.13983057 0.09079619 0.16411695 0.21678592 0.109291606 0.07500634 -0.038238417 0.47047332 0.119321615 -0.1375929 0.056675255 0.26503518 -0.05191692 0.65903205 0.14664865 -0.33632803 0.16291358 0.5601789 -0.33429417 0.7823046 0.16425903 -0.51593745 0.27153972 1.0067292 -0.4794675 0.72149163 0.25825068 -0.32030833 0.46612972 0.49292198 -0.43380967 0.42519084 0.48206156 -0.22680765 0.27034587 0.1904075 -0.18428747 0.30159897 0.472021 -0.1326263 0.3606038 -0.29439956 0.3055908 0.27720433 -0.07023993 0.1530347 0.16546732 -0.53358823 0.22254361 -0.12654775 -0.2269576 0.16019933 0.07704595 -0.035865422 0.29710618 -0.15487452 -0.016618952 0.25902203 0.13029979 0.02391583 0.122680746 -0.12414319 -0.013782048 0.10614521 -0.17161226 0.118935965 0.09570634 -0.14058226 0.099902995 0.011668779 -0.07595168 0.09009127 0.12693706 0.11688878 0.050378207 0.15591456 0.15429889 0.111823596 -0.06603205 0.22903232 0.057841297 -0.22794129 0.06601238 0.5244292 -0.281746 0.3940958 -0.0065302555 -0.38905653 0.3883917 0.668888 -0.15590906 0.33584416 0.17095907 -0.11821579 0.574746 0.7440742 -0.32962352 0.30676422 -0.03911322 -0.16606991 0.149942 0.0154096745 -0.49450982 -0.07327001 -0.46350008 0.10008327 -0.048468176 -0.74050313 -0.16960709 0.004512435 -0.04088466 0.2739869 0.30747184 -1.800452 -0.08114899 0.2543888 -0.21812314 0.37572035 0.07265786 -0.1679086 -0.17725272 -0.08801563 -0.5444136 0.40357065 -0.06577002 -0.08554307 -0.103526965 -0.06012941 -0.16178887 0.24305849 -0.030414036 -0.08505234 0.11281918 -0.0028332076 -0.22883151 -0.016300933 -0.29198277 0.15039381 -0.06690822 -0.22141233 -0.080409564 0.046066392 0.059726626 0.12669018 0.19039778 0.16811699 0.22376104 0.1306218 0.2251447 0.21503031 -0.015465378 -0.044736005 -0.10425257 -0.034222912 0.1620504 0.43630314 -0.20849942 0.0017318549 -0.36242992 -0.24292752 0.1680631 0.27891764 -0.4297418 -0.31365484 -0.33016342 0.21462989 0.51658654 0.458312 -0.5733974 -0.6529709 -0.521232 0.41040644 -0.18014704 -0.44234663 -0.15139548 -0.6605042 -0.59855956 0.040168095 -0.7534633 -0.37630802 0.112651326 -0.019245625 0.2927866 0.31467304 0.029854745 -0.44776744 0.21332043 0.32075086 0.14178698 0.3022429 -0.015821137 0.11650253 -0.09393166 0.22213048 -0.3268455 0.32685018 0.056825854 -0.21152 -0.07132453 0.38050243 -0.4647156 0.25188404 0.04994313 -0.018790273 -0.011394321 0.27499986 -0.09739059 0.09217678 -0.37111983 0.14798109 0.16790098 0.19458048 0.14234436 -0.10254494 -0.05099196 0.21780191 -0.0281513 0.041916784 -0.04586653 0.20110686 0.1382525 0.1768976 -0.029526152 -0.1966046 -0.105363026 0.17247699 -0.061645474 0.07868756 -0.097962186 -0.47800818 -0.40694207 0.39377257 0.07858317 0.06399187 -0.6008662 -0.65236014 -0.6417 0.98422956 0.32408303 0.1179279 -0.38791707 -0.62255365 -0.74441445 0.9238333 -0.60048157 -0.13089338 0.54708993 -0.67905 -0.20160003 0.15884288 -0.6841953 0.5948502 0.69203764 -0.16608372 0.47157207 0.06230041 -0.10729528 0.3425337 0.22361974 -0.033330493 0.2728793 0.04917033 -0.011468164 0.1464035 -0.004906169 0.3435687 0.0967384 0.27882418 -0.1363744 -0.06732042 0.05329673 0.15586588 -0.12468571 0.25916582 -0.2493416 0.075918294 0.17207868 -0.06937811 -0.17515959 0.18186292 -0.08213869 0.0969647 0.0958718 -0.06773079 -0.11289716 -0.45910716 -0.03628601 0.169191 0.14623898 -0.024018034 0.016263654 0.08318643 -0.05480226 0.14130098 -0.067453764 -0.35448176 -0.14245096 0.14842027 -0.23682141 0.04197285 -0.097170405 -0.6718101 0.020650716 0.58172125 -0.14681557 0.14174315 -0.55165327 -0.33137688 -0.3539159 1.0627491 0.020865226 -0.05311358 -0.13254477 -0.31644344 -0.5069836 0.6175124 -0.6510838 -0.31578603 0.27527016 -0.4879559 0.05248625 -0.28533643 -0.33839494 -0.2320561 0.29609835 -0.15773094 0.22319183 -0.29517677 -0.33791068 0.23936042 0.18827188 -0.085302435 0.40516335 0.14000508 0.022992393 0.11904421 -0.30407345 0.080520526 0.3608412 0.44088706 -0.12571521 0.079287946 -0.17614403 0.26143774 -0.034966502 0.3579456 -0.13309501 -0.09519499 0.064755455 -0.16263911 -0.22062658 0.09902301 -0.27949676 0.09834495 0.05717292 -0.24413514 0.10986362 0.011839368 -0.0050983857 0.03225984 0.019100858 -0.019734353 0.04563846 -0.14710473 -0.0022027665 0.17312466 0.039387967 -0.132559 0.014450845 0.080786705 -0.20785445 0.16811846 -0.12492897 -0.13261148 -0.15894963 0.19590887 -0.121937335 0.29399544 -0.15704806 -0.095800325 -0.22025037 0.5047918 -0.10989054 -0.13987786 0.18240136 -0.32357302 -0.10489228 0.2575197 -0.36810827 -0.74152505 0.19766782 -0.08910839 -0.21330549 -0.32449427 -0.13823703 -0.77635866 0.034547642 -0.30129886 -0.42555362 -0.20623076 -0.3575942 -0.05865132 -0.106031634 -0.2965557 -0.32889193 0.10349234 -0.26557347 0.07523854 -0.03274482 -0.18442497 -0.04858111 0.3658358 -0.085441284 0.162319 -0.021669826 -0.00035142605 -0.0496389 0.30558103 -0.085742086 0.15501265 -0.028979441 -0.09154127 -0.13611627 0.2266849 -0.21270788 0.27263358 0.021527052 -0.14942431 -0.062780865 0.27791268 0.12178414 0.14713962 0.14479217 0.0072441376 0.012566378 -0.18061219 -0.050940786 0.048401553 0.19907829 -0.11299639 -0.017742757 0.055640154 0.004160088 0.25051 0.065299496 -0.19270672 -0.13909085 0.16491269 -0.06898499 -0.0842365 0.3162414 -0.46585038 -0.12558502 0.26448748 -0.21325277 -0.6327899 0.24663234 -0.43772826 -0.06077765 -0.10381182 -0.5776746 -0.68082273 0.14294216 -0.33865207 -0.21403871 -0.15558708 -0.52660376 -0.4581155 -0.051112156 -0.07817069 -0.533729 -0.29862046 -0.37954104 -0.17147973 0.30667058 -0.016518947 -0.3580821 -0.11693166 0.020761017 -0.11613268 0.20995274 -0.011239978 -0.4687649 0.0013860813 -0.018338092 0.21431595 0.03294592 0.0330088 -0.19952473 0.1755232 -0.47941935 0.10495303 -0.04227089 -0.31139332 -0.14331947 0.00874051 -0.25959975 0.09327212 0.04483476 -0.113603435 0.067309335 0.08104019 0.20896897 -0.03498948 0.2450343 -0.09864322 0.12507011 -0.034233782 0.059231944 -0.050923828 0.28749788 -0.023028918 0.36220908 0.16923457 -0.023365725 -0.0845026 0.41768986 -0.2340566 0.1854086 -0.10305717 -0.23465419 -0.31034532 0.45287272 -0.55756587 -0.0054752235 -0.03484909 -0.48624414 -0.16294666 0.14462145 -0.5356372 -0.23236789 -0.09583027 -0.5774847 -0.62773913 0.16630934 -0.2133728 -0.6628234 -0.010924626 -0.70274025 -0.79436 0.28829378 -0.16212462 -0.676013 -0.30902958 -0.4456064 -0.5766432 0.4714183 0.0071859676 -0.6705386 -0.35233578 -0.44187704 -0.092341974 0.35646167 -0.2854708 -0.63370496 -0.082256466 -0.1722526 0.119407065 0.24765463 -0.17196625 -0.30090493 -0.17749178 -0.37359574 0.2308473 0.048853688 -0.2563861 -0.04615978 -0.030263558 -0.22196929 0.16343391 0.11116643 -0.12965679 0.06520661 -0.008002737 0.17750818 0.087698095 0.08752315 0.086241744 0.16712318 0.108098455 0.12852202 -0.0064570648 0.037024133 0.2608141 0.03827793 0.15444688 0.11946651 -0.16974758 0.16211948 -0.20816398 0.051048093 0.30015436 -0.1304212 -0.26803628 0.046905678 -0.35333046 0.0495477 -0.095593 -0.38585356 -0.3796166 0.2861508 -0.3265665 -0.09285447 -0.042936042 -0.4284651 -0.28496388 0.14840542 -0.16359614 -0.45797208 -0.15952967 -0.31825325 -0.3403789 -0.09237466 -0.10508954 -0.66588545 -0.1731049 -0.0608538 -0.3852692 0.04631824 -0.047902793 -0.5940515 0.028069923 -0.104223035 -0.12543659 0.25049222 -0.22126238 0.0056053926 -0.15617113 -0.055081684 -0.17174289 0.34381494 -0.027282208 0.12303792 -0.033662125 -0.12829222 0.026184577 0.27401966 -0.17057328 0.14159235 -0.32654482 -0.030021999 0.10050819 0.06970538 0.102177136 0.21022847 -0.08268726 0.1654876 
0.0034517257 -0.026141683 -0.063267395 -0.070854805 0.05465103 0.007003663 -0.0050631366 0.046156272 -0.038087834 -0.09446552 0.054098766 -0.016121447 -0.09095127 -0.040479664 -0.09078445 0.086132854 0.16225879 0.13550359 -0.07072594 0.030503038 0.04124744 -0.08053593 0.03086464 0.05160131 0.022623692 -0.04903375 0.11603028 -0.05689736 0.008559143 0.052618828 -0.08260359 0.020270785 -0.083815664 -0.05341751 -0.15340714 -0.010617968 -0.3005846 0.108675085 -0.029637374 0.13169798 -0.15674727 -0.23581313 -0.14490491 0.18140204 -0.13593459 0.01710077 0.072334394 -0.056671083 -0.15918787 0.068370126 0.008290648 -0.08443132 -0.016623795 -0.10826489 -0.037972797 -0.07185117 -0.099058576 -0.02164516 0.17257053 -0.07502831 -0.107817456 0.055029083 -0.09551725 0.018541653 0.09343134 -0.12175062 0.0061482876 -0.069081075 -0.14038834 0.043852814 0.09287912 0.037758086 -0.04267768 0.025734676 0.024372192 -0.08894101 -0.014967334 -0.00989629 0.018927969 -0.08760125 -0.015141728 -0.14004861 -0.2116128 -0.1597955 0.012438642 -0.02056999 -0.05455615 -0.027475188 0.13106845 0.061277635 0.04917475 0.02405695 0.037456997 -0.004734018 0.0064764647 -0.040155258 0.07986861 -0.116236255 -0.073547274 -0.12450081 0.050816786 -0.017422313 0.021247089 -0.031546194 0.10899722 -0.051393434 -0.11160695 0.02098187 -0.33201402 0.12831526 -0.12169746 0.049861446 0.057618566 -0.034918416 -0.4756101 0.030112276 -0.119506836 0.008411671 0.044602074 -0.059115876 -0.26150474 0.014142174 -0.18200712 0.016295532 0.13985825 0.033026394 -0.07843368 0.086971045 -0.06865873 -0.106898814 -0.013365424 0.09045997 -0.042365674 0.07897126 -0.1232474 0.0022468814 0.004923983 0.117256485 0.036562067 -0.013275844 0.027870907 -0.038038865 0.21409525 0.116248325 0.003006457 0.034139153 -0.015889365 -0.089239396 -0.061092477 -0.017303346 -0.049939588 0.04353741 -0.10023315 0.033877257 -0.061524313 -0.10338325 -0.11060281 0.088604055 0.0014169887 0.03787889 0.10748044 0.06408103 -0.26460958 0.117680706 -0.01732767 -0.0018647797 0.08748741 -0.1030352 -0.39234945 0.019765321 -0.11194663 -0.27632242 -0.044721927 0.03002268 -0.019194199 -0.26379666 0.031359762 -0.3870233 0.20921448 0.08352779 -0.3248853 -0.4451673 0.07667133 -0.8530749 0.20359258 0.10060811 -0.12084546 -0.13174742 0.020518966 -0.50913733 0.06750971 0.36515927 -0.24762404 -0.24240927 0.2146779 -0.14332373 0.28973776 0.36428773 -0.18272217 -0.09724378 0.2704337 -0.093986034 0.08054906 0.15060301 0.1465176 -0.1623515 -0.015180248 0.047951166 0.2029472 0.2753086 -0.1422797 0.025572 0.12543073 0.1194273 0.2375118 0.07834892 -0.058502614 0.049455408 0.007966431 0.06258611 0.07426425 0.047203638 -0.046929393 0.061561964 0.08009019 0.06313185 0.033427853 -0.009424943 -0.29764333 0.16846894 0.15161397 0.042485125 0.10284126 0.12851408 -0.4175635 0.09462547 0.21734335 -0.04773663 0.2561476 -0.008858662 -0.7838841 -0.12978701 0.20276073 -0.3184927 0.12450592 0.13204835 -0.54080796 -0.13919581 0.3104879 -0.2635729 0.08736081 0.24141836 -0.36985406 -0.07097709 0.28334984 -0.63771427 -0.08059938 0.21555175 -0.614593 -0.29286358 0.12472801 -0.39424863 -0.0032635676 0.11739311 -0.1339152 -0.3925832 0.21345022 0.028850831 0.30981532 0.21444267 -0.2304316 -0.21976624 0.27589995 0.3389899 -0.017538056 0.11160213 -0.2531417 0.16484407 0.14330184 0.46791264 0.11381787 0.5196375 -0.13995127 0.0052037234 0.26403254 0.24595807 0.24127485 -0.025400747 0.008764709 0.053765688 -0.10243192 0.11159091 0.15724881 -0.011952518 -0.0005178602 0.056726746 0.14419502 0.011951928 0.061691605 0.055722155 -0.3762115 0.2074274 0.20320994 0.055719446 0.031302344 -0.11556062 -0.12872444 0.036761064 0.4567341 -0.1711546 -0.16554119 -0.233755 -0.9340227 -0.05381508 0.6913193 -0.54528517 -0.47805274 0.070697635 -0.5817429 -0.02393232 0.7889702 0.2120452 -0.23432006 0.12847337 0.017682215 -0.105947986 0.5729196 0.35547858 -0.20717041 0.2348006 -0.121898904 0.07919386 0.035526674 0.11602382 0.2522665 -0.027946886 -0.12968834 -0.2173637 -0.30555293 0.12873688 0.36519486 0.17102568 -0.035099957 -0.30768293 -0.23836753 0.313886 0.42087692 -0.047508877 -0.14324477 0.047167234 -0.17265521 0.046811227 0.14410242 0.39391425 -0.16999637 0.1091446 0.0022255112 -0.05915936 0.19126152 -0.03064312 0.064593285 -0.04872819 0.12849192 0.006723326 0.07204912 -0.05835478 0.0532129 0.014990411 0.13634889 -0.1366498 -0.08428656 -0.15201615 -0.23941053 -0.08640743 0.25137484 -0.1791842 -0.3214974 0.024530586 -0.28748143 -0.08346827 0.49917963 -0.21629249 -0.52360845 -0.10035511 -1.1731569 -0.033119548 0.6835469 -0.13195944 -0.6107527 0.06266359 -1.4722759 0.06768758 0.64514613 0.37458795 -0.5927426 0.13493927 0.25806516 -0.08819889 0.040198877 0.2028207 -0.17328045 0.13342747 -0.7819673 0.049040895 -0.3285236 0.25266168 0.5610706 0.25986412 0.19226418 -0.17328547 -0.33138248 0.07406746 0.46398047 0.10072993 0.27205572 -0.32433867 -0.2073155 0.20084235 0.15990014 -0.010713211 -0.008816589 -0.13556753 -0.39184067 -0.012307689 0.039603215 0.12038439 -0.0067322734 -0.14656018 -0.092441335 -0.13922843 0.17944215 0.006697401 -0.0008598815 -0.013464921 0.07883508 -0.07952577 -0.14582156 -0.08839072 0.036804274 -0.028733157 -0.09321133 -0.04576771 0.13636474 0.0131244585 -0.22674817 -0.02556227 0.14956082 -0.017364472 -0.13396844 0.15142453 -0.09943658 0.071337216 0.3811223 0.12713878 -0.11478509 0.11656599 -1.2329836 -0.058190368 0.35316226 0.15483771 -0.19205195 0.2461623 -1.1259733 -0.30007175 0.2807194 0.33837944 -0.087044135 0.11448148 0.34396383 -0.29859263 0.07678119 0.29454717 0.19893606 0.31642547 0.30828562 -0.19608638 0.3290324 0.14310509 0.19976194 0.466577 0.23999439 -0.22192359 0.19754294 0.0559986 -0.031805154 0.26149067 0.22419906 -0.3915911 0.13701461 -0.118302576 -0.115653016 0.3160372 0.17125224 -0.37314 0.085097946 0.16624127 -0.1838476 0.049100954 0.058623847 -0.054283928 -0.013081008 0.061592918 0.03660084 -0.02253358 0.0072974265 -0.08396583 -0.1694233 -0.13547431 -0.052853458 -0.06773877 -0.0059517995 -0.02560073 -0.1218877 -0.069286205 0.1246546 -0.08454339 -0.097446404 0.31918335 -0.15790367 -0.05377765 0.06851051 0.077074036 -0.5576297 0.43334192 -0.42147294 -0.2019361 0.3653708 -0.0127612 -1.6221025 0.2383599 -0.31835335 0.18915644 0.6304241 -0.05248551 -0.71413296 -0.52824396 -0.13509387 -0.1787531 0.38437894 0.13765584 -0.3449503 -0.15511984 0.16889027 -0.19828896 -0.09842237 0.18055393 -0.041990485 -0.1514916 0.7279083 -0.012002368 -0.32231808 0.4357901 0.13890986 -0.14317682 0.67317843 0.24445468 -0.5202534 0.32823667 0.06912063 -0.08286659 0.25339398 0.4129536 -0.5052321 0.18182108 -0.11915322 0.08917023 0.032897398 0.49198103 -0.3157442 0.1978564 -0.09131908 0.105761334 0.17996623 0.308619 0.010155147 -0.008647465 -0.07936374 0.07368126 -0.16620629 -0.0028030355 -0.10704976 -0.18604934 -0.114953056 0.12514412 -0.04440631 0.19981001 0.18275255 0.0048788786 -0.47147882 0.39928752 -0.19775341 -0.026069233 0.21448219 -0.26957974 -1.0533191 0.4539715 -0.3819657 -0.48269844 0.3494221 -0.6046211 -1.707479 0.11169058 -0.42510444 -0.5854317 0.24688628 -0.41374326 -1.0798897 -0.21559504 -0.0025493535 -0.84548897 0.12906511 0.05486061 -0.3212511 -0.075699694 0.28280783 -0.6281462 -0.11433022 0.082807206 -0.49310508 0.24281223 0.34948248 -0.07935256 -0.33256564 0.076560676 -0.23194061 0.1709133 0.1042772 0.26443177 -0.39567196 -0.026409194 -0.43499726 0.17100292 -0.18087542 0.43960384 -0.25251698 -0.029996231 -0.11214214 0.26960886 -0.10396634 0.105702505 -0.20570776 0.31774715 -0.12095244 0.049287267 -0.0206051 -0.07355119 0.07424421 -0.01349593 0.036227103 -0.072516456 -0.03149205 -0.11882569 0.0206723 -0.030004757 -0.2359324 0.08321038 0.03516445 0.17408137 0.18972258 -0.090473466 -0.23923889 0.46343735 0.080995634 0.33602956 -0.07457253 -0.3452912 -0.7722486 0.43704107 0.11632491 0.1186368 -0.08443541 -0.34053022 -0.87262416 0.27954257 0.23481914 -0.13091084 -0.32891378 -0.06285946 -0.8818761 0.15346348 0.5579682 -0.09899677 -0.21134393 0.1493386 -0.31291565 0.2987315 -0.01792781 0.23081204 0.070373915 0.040144857 -0.31805867 0.3911296 -0.13640043 0.47279832 0.04002726 0.1479332 -0.07943342 0.37496066 -0.45836192 0.5688484 -0.08045891 0.03280207 -0.032093264 0.27315584 -0.31722537 0.379627 0.050004475 0.103675306 -0.008902064 0.061892368 -0.05429313 0.04819581 -0.16232365 0.13676892 0.07483833 -0.030089946 -0.15310602 -0.2236654 0.042505987 -0.07368965 0.073294476 0.018521478 0.026414594 -0.021157335 -0.19112732 0.05090764 0.071981 -0.18199034 0.15021732 -0.23970206 -0.10587724 -0.091562614 0.065289706 -0.07385946 0.035038993 -0.013090263 -0.16913635 -0.14499292 0.09149834 0.13990724 0.30674085 0.09305528 -0.4820369 -0.16068219 0.14506108 0.36397845 0.50093174 0.5900667 -0.29021603 0.16967636 0.20832677 0.2532395 0.579581 0.7392583 -0.06026289 0.34555635 0.19809169 0.14924298 0.11292721 0.65200067 0.26104727 0.12339329 -0.16930683 0.22282104 -0.2864293 0.71986026 0.18691914 0.094981946 -0.06462494 0.2741428 -0.40471452 0.46176994 0.09702237 0.10483468 -0.02902904 0.09569418 -0.414754 0.2156742 -0.0652876 0.083789565 -0.21704449 0.10101671 -0.16914661 0.07010721 -0.063149594 -0.03555951 -0.11865449 0.07801902 -0.03740186 -0.019474989 -0.2943141 0.06276514 -0.043677807 -0.013963709 -0.05428598 -0.14584592 -0.1236724 0.005719671 0.15471752 -0.045586336 -0.07862872 -0.11680169 -0.26868606 -0.07805385 0.14210877 0.013218545 -0.009331449 -0.18455309 -0.373243 -0.17584193 0.10500603 0.22132993 -0.114205554 -0.10571579 -0.46152505 -0.31861442 0.0047698 0.15918614 -0.00999718 0.17001761 -0.42894557 -0.39342123 0.025039516 0.1339778 -0.12977855 0.42858496 -0.22617729 -0.41767958 0.048966933 -0.043333057 -0.2841078 0.33955717 -0.11814227 -0.16867748 -0.07625841 0.0040896432 -0.18664357 0.29025006 -0.1919039 0.009171528 -0.16144057 0.07683154 -0.108907506 0.1275937 -0.05886432 0.40245426 0.062786356 0.03440713 0.18950428 0.004177553 -0.13840158 0.10536715 0.09884872 0.018153448 -0.08569073 -0.0066375732 0.031152155 -0.05233374 0.077795945 -0.045379754 -0.018701164 -0.05849033 -0.036721442 -0.059820198 
-0.096472874 -0.08758616 -0.0668205 0.029705321 0.010365851 -0.09403156 -0.06011306 -0.052279934 0.020019868 -0.055958454 -0.017594432 -0.090786576 0.012283485 -0.12568583 -0.055122055 -0.06777024 -0.16197626 -0.042317584 -0.046767805 0.05743309 -0.2738968 -0.026403591 -0.011828343 -0.059037145 0.020114588 0.036489394 -0.40091726 0.06389984 0.19184998 0.3610923 0.038857188 -0.14469564 0.13628556 0.07548602 -0.12868644 0.16986227 0.12139861 -0.22747013 0.2128334 -0.068424806 -0.36130017 -0.15739866 0.24352747 -0.33390146 -0.053038493 -0.16242027 -0.26655188 -0.03794686 0.22440085 -0.2411071 -0.050031766 -0.10537624 -0.33011213 -0.05295244 -0.017602837 -0.11089602 0.020739289 -0.09969957 -0.20657529 -0.09849949 0.04924678 -0.1014104 -0.14076073 -0.14422195 -0.01681475 -0.15738668 0.033160295 0.009716568 -0.12889594 -0.07644059 0.064679645 -0.05532058 -0.012450753 -0.06662385 0.01874015 -0.08268043 -0.023623798 -0.1311949 0.005281583 -0.11878772 -0.20905809 -0.0010652049 0.10924972 -0.016313082 -0.035446335 -0.040755358 -0.37806347 -0.03207804 0.19229019 0.15454884 0.0189058 -0.13698852 -0.064032845 -0.024392882 0.34349576 0.18654908 0.42172885 -0.12763096 0.12244101 -0.07854941 0.26073623 0.17800295 0.3638116 -0.060362253 -0.009459217 -0.11449344 0.16365713 0.09208366 0.0010180237 0.04195443 -0.063923635 0.14318347 0.082316875 0.091335915 0.17664237 -0.014544519 0.045246292 0.12039681 0.31529245 0.2727933 0.13177483 -0.12064655 0.0817639 0.059610825 0.16113642 0.03892176 0.052789748 -0.08703471 0.09371831 -0.038412213 -0.37592983 -0.0982267 0.0626117 -0.1607298 0.09609744 0.008504809 -0.45716107 -0.16279437 0.06886081 -0.06863622 0.0016683369 -0.12099052 -0.04060904 -0.16300642 -0.048964873 -0.07963473 -0.116899244 0.0018413786 0.023448957 -0.06463231 -0.07568272 0.049254265 -0.35368007 0.034035888 0.15171248 0.04541921 -0.13453895 0.037369 -0.26194268 0.15111518 0.31552264 0.13309193 0.09917044 0.13870218 -0.2691842 0.011780971 0.63194805 0.20595023 0.22378018 0.021489296 -0.31800574 -0.17220819 0.53971684 0.35519525 -0.23886716 -0.15066375 -0.0057538324 -0.08594605 0.9134346 0.6925054 0.4352461 -0.24272004 0.34391227 -0.05655212 0.6551461 0.79607636 0.102685496 -0.09625352 0.63325024 0.14248267 0.33271202 0.41728786 0.35838702 -0.06838329 0.384942 0.07975032 0.12483959 0.2773893 0.04948284 0.045144767 0.41547513 0.13800672 0.01720155 0.14403835 -0.028663278 0.09757228 0.21182571 -0.0030321595 -0.46958396 -0.20683259 0.07183597 -0.00787165 -0.09407092 -0.04992009 -0.4541253 -0.22335431 -0.0062764045 0.039331928 -0.14917807 0.10969496 -0.022215461 -0.086228415 -0.29478586 0.22219719 -0.22169954 0.27244046 0.3611953 0.03040918 -0.42519265 0.24433422 -0.24983399 0.07420619 0.55902505 0.12929545 -0.9727163 0.3395226 -0.4420437 0.030223485 0.5366257 0.056465268 -0.56667286 0.055656046 -0.4267084 -0.15108034 0.7699415 0.2782265 -0.34299588 -0.30202395 0.0029462317 -0.48178843 0.88141054 0.44745076 0.090244554 -0.12878464 0.2572831 -0.031606436 0.20765422 0.557785 -0.056379065 -0.22293524 0.34556454 0.2114991 -0.11570415 0.16808473 -0.049511407 -0.079571776 0.5449087 0.20631744 -0.26861867 0.17122059 -0.14292976 0.120228134 0.36069456 0.107665986 -0.45072728 0.1112848 -0.15267381 -0.0056874882 0.22578648 -0.08421715 -0.2611382 -0.22396389 -0.16638766 0.15047252 0.06152064 0.025092585 -0.47825998 -0.23689583 -0.090014465 0.21311267 -0.054732077 0.13756216 0.14567156 0.05624188 -0.34898898 0.24967481 0.13850239 0.10610125 0.3020323 -0.012852353 -0.6145032 0.42160267 0.09610649 0.024280857 0.18516737 -0.11594645 -1.0652487 0.33601925 0.011548424 -0.08764588 0.3062168 -0.06565918 -0.43505973 0.23390274 0.09825751 -0.09261809 0.25986695 -0.11145712 -0.2910175 -0.002644861 0.14511274 -0.11583438 0.13774748 0.27455887 0.5855881 0.26603532 -0.168711 0.34139895 0.26818088 0.1549719 0.8745869 0.2033686 -0.04564455 0.38966054 -0.0401596 0.14469242 0.21537192 0.2939135 0.3112713 0.67103267 -0.27066615 0.015326973 -0.082153216 0.3629704 0.05922979 0.030715225 -0.1112652 0.34838724 -0.21653417 0.28263882 0.07464047 -0.019754479 -0.14181642 0.02762353 -0.048420098 0.1600577 0.09315924 0.07241338 -0.36325783 -0.21125022 -0.16509335 -0.0020993585 0.13963059 0.031246677 0.12731026 0.083137006 -0.3139963 0.099072956 0.38142523 0.16020137 0.022539707 -0.017520651 -0.48386645 0.36281148 0.21337189 0.1855931 -0.004326799 -0.24880773 -0.46583748 0.32785034 0.45951617 0.31744722 -0.31766838 -0.18469684 0.21421294 0.035872426 0.5106629 -0.09067544 -0.4121392 -0.18095109 0.80243534 -0.18042432 -0.12741813 -0.10715656 -0.022969529 0.3863527 -0.11637101 -0.13940802 -0.0018570062 0.03750851 0.21474557 0.34251773 0.017727196 0.19923143 -0.071240716 -0.37784487 -0.22632845 -0.1631155 -0.35077533 0.26503816 -0.13249332 -0.16546321 -0.15104677 -0.1957937 -0.4129981 0.39399713 -0.3585306 -0.14443874 -0.25954285 0.042997245 -0.30751824 0.3098812 -0.009379484 -0.465227 -0.35471383 0.0050861477 -0.04332559 -0.056451123 -0.12665929 -0.4324455 -0.1779977 -0.22079125 -0.0982731 -0.0036682782 0.25149298 -0.09188958 -0.076006345 -0.10579388 -0.18726149 0.1223092 0.04807048 0.060689777 -0.20007436 -0.09130993 -0.23012684 0.34194627 0.18830377 0.07426697 -0.32372615 -0.35654756 -0.08921667 0.20656191 0.45908853 -0.011907328 -0.60961723 -0.18902841 0.52045995 0.13009685 0.49441096 0.13736401 -0.73506856 0.05562017 0.99478674 -0.55650747 0.034142952 -0.07550173 -0.096445315 0.43131617 0.09445012 -0.7374962 0.018917073 -0.48606473 0.17131048 0.027485535 -1.3972645 0.037835505 -0.11790468 -0.35713458 0.016986655 -0.34928247 -0.7622769 0.24486177 -0.63109076 -0.3727268 -0.060519874 -0.21900085 -0.390784 0.21539031 -0.45449468 -0.23872434 0.02228502 -0.09721505 -0.0903918 0.060620904 -0.2826842 -0.5715412 -0.021598026 -0.45949048 -0.010778163 -0.072665505 -0.26705682 -0.33122054 -0.12840588 -0.08523532 -0.0071374727 -0.07505538 0.017757019 -0.099848635 -0.3165985 -0.25154743 -0.023940854 -0.08608199 -0.022574872 -0.013691434 -0.20666513 -0.0018902323 0.02439966 0.064103745 0.2744021 -0.105887435 -0.4829198 -0.16533421 0.14807688 0.17699274 0.57502633 0.22734115 -0.77561796 0.26420856 0.97746915 -0.3846926 0.7438497 0.15305482 -0.5318653 0.74212384 0.5758631 -0.34042224 0.18645556 -0.13364309 -0.08110064 0.053491764 -0.071212895 -0.3922662 -0.08807123 -0.4877115 0.14398941 0.07296114 -0.82609296 -0.18950342 -0.18289888 -0.6830965 0.041032623 -0.29773155 -0.12619925 0.2718054 -0.587398 -0.6586018 -0.026666787 -0.1607349 -0.22316106 0.2360152 -0.5165493 -0.4823554 0.1807805 -0.38763458 -0.037826244 0.025761355 -0.18846573 -0.40021 0.11811044 -0.48506624 -0.02109456 0.055021394 -0.21575843 -0.14041783 -0.30779907 -0.09185694 -0.07727062 -0.052380722 -0.17247853 -0.016303774 -0.31002685 -0.25197512 0.07093931 -0.0369319 0.034639496 -0.17614993 -0.24341446 -0.056059867 0.09834971 -0.09707818 0.11888375 -0.0674013 -0.3668159 0.07908288 0.39776573 -0.2067373 0.43937668 0.02513694 -0.57527125 0.48401555 0.7796847 -0.20982867 0.44932893 0.06808689 -0.4438942 0.41367668 -0.032743298 -0.21343298 -0.084513605 -0.21269634 -0.0752917 0.09148072 -0.26900774 -0.24496546 -0.2765946 -0.18361543 0.07163728 -0.13425882 0.15805966 -0.33906615 -0.518649 -0.51383144 0.08815226 -0.23598778 -0.4684549 0.13732286 -0.5105778 -0.5668439 -0.031116767 0.12018766 -0.24950995 0.18638813 -0.048457086 -0.38829648 -0.1317167 -0.17491135 -0.10112682 0.012040353 -0.033039518 -0.04458393 -0.026209377 -0.16241752 -0.1466833 -0.02519527 -0.10753638 -0.0023722749 -0.22004154 -0.07485371 -0.0661991 0.059937872 -0.18438289 0.009289681 -0.26414594 -0.19561273 -0.10315875 0.07103492 -0.12538047 0.08429192 -0.104406975 -0.06158616 0.15851885 -0.029834932 -0.1472171 0.07231727 0.076814726 0.37937292 0.48851907 -0.17184937 0.06857485 0.10347523 0.16272707 0.48957556 0.38354856 -0.12778334 -0.091797575 0.22650503 0.21183012 0.37929508 0.12607966 -0.35638836 -0.08490017 0.15401377 0.16787906 -0.13670649 -0.51211923 -0.007840722 -0.23150268 0.060578305 0.02009077 -0.39493042 -0.23504631 -0.07237121 -0.2234733 -0.1186586 -0.2517338 -0.1546345 -0.21851842 0.018302849 -0.19149609 -0.35926843 0.045807943 -0.004876797 -0.03828942 -0.13139567 -0.22908072 -0.50590765 0.018717494 -0.23996593 -0.009575964 -0.023723554 -0.04766091 0.012830203 0.038559675 0.010188453 -0.01637547 -0.023096338 0.14598179 0.05228448 0.014176682 -0.017303064 0.044604123 -0.0051912065 -0.004349151 -0.09487016 -0.16563703 0.10852011 0.000848816 0.06432997 -0.103960305 0.07517765 0.03157199 0.053442504 0.13286604 0.16398051 -0.120642856 0.051482655 0.08621756 0.119941935 -0.032602742 0.28115928 -0.30319986 0.25881487 0.32491988 0.16844697 0.1544026 0.15474197 -0.49033827 0.2312388 0.28886032 -0.40523332 -0.31929725 0.14027609 -0.45681682 -0.007054313 0.21324444 -0.34658512 -0.48077205 0.1017739 -0.12757285 -0.19537294 -0.0854679 -0.15668963 -0.105879866 0.089805126 -0.006656416 -0.12994693 -0.24248464 0.014068166 -0.25223452 0.12100502 0.12662287 -0.1684322 -0.07527025 0.022482162 -0.07379117 0.08346107 0.16898413 -0.09394425 -0.23179154 0.12647009 -0.110341474 0.11181065 0.42246708 0.027714623 -0.29508916 0.22834007 -0.055566017 -0.0010882786 0.29340336 0.02561811 0.09511831 -0.005102148 -0.07246734 -0.04946562 -0.14873551 0.06388242 0.091354355 -0.0058282944 -0.22411183 0.109688625 -0.07004085 0.31703797 0.29101992 0.110282615 -0.3809919 0.21820456 -0.10817741 0.2558293 0.27788934 -0.08527397 -0.27522135 0.2220063 -0.22003704 0.08493647 0.139267 -0.14872187 -0.28814763 0.14070773 -0.23618042 -0.16892475 0.061828345 -0.13671242 -0.2961925 0.29045707 0.05558174 -0.22101687 -0.2438847 -0.011749308 -0.1859269 0.20513785 0.18597728 -0.36020908 -0.18118213 0.08026911 -0.18887936 0.36573777 0.33719438 -0.08771314 -0.23353621 0.037510682 -0.2339948 0.15060203 0.26536104 -0.041174985 -0.05170612 0.27549568 -0.21587953 0.055440664 0.3667187 0.037417077 -0.014308378 0.30434915 -0.08997182 -0.009206753 0.2737217 -0.14144097 -0.03002801 0.03907928 -0.03751373 -0.07806581 0.027841043 -0.105282195 0.2158727 -0.11448589 
